98 128
1 -0.005796613 -0.0080099115 0.070781685 -0.01251855 -0.050110567 -0.09373267 -0.019054959 0.036688976 0.004397767 0.01398124 0.117747925 0.015372501 -0.016112907 -0.01339895 -0.0475083 -0.033229847 -0.01404631 0.044696655 -0.05426707 -0.016812742 0.07101221 0.029156357 0.07168145 -0.004685012 -0.008700024 0.040632673 -0.067532055 0.0073780143 0.013181625 -0.04354204 -0.12095189 0.025136137 -0.0082321195 -0.012499433 0.0095064305 0.039841343 0.13014418 0.022740502 0.09302606 -0.019029852 -0.021741861 0.06841809 -0.032848902 -0.05894033 0.024545018 0.028916702 -0.034583803 -0.032917928 0.009404847 0.039125625 0.016954813 0.024622517 0.0070492136 0.032570355 0.079291865 0.024272962 0.04958368 -0.048770167 -0.027749976 0.01634351 0.0324602 -0.04276618 0.0010039017 0.0039665713 0.030558845 0.000122678 0.07093266 0.046110522 0.007917065 -0.022695048 0.01791421 0.025882985 -0.0344125 -0.056082826 -0.012764414 -0.008111694 0.038451627 0.03600674 0.000630479 0.045412697 -0.022448722 -0.010226767 0.05094308 0.07281053 -0.0075456076 0.019701676 0.07448551 -0.03194835 0.020191438 0.069270074 -0.02962151 -0.020379502 -0.04314217 -0.016872635 0.08306056 -0.008735344 -0.11132943 -0.103110135 0.038242828 0.004947787 -0.10301947 0.048020102 0.05631294 0.03160199 0.04345845 -0.029065415 0.020127516 -0.049972124 -0.017802484 -0.062635764 -0.0014221648 -0.016471542 -0.015219529 0.015094641 0.009833447 0.020886306 -0.009995465 0.079010814 0.01994532 0.04187106 -0.0035554855 -0.025024798 0.014962108 -0.036591586 0.005786316 -0.032893036 -0.05358873 0.015146052
5 -0.0065943594 -0.0036227356 0.078244574 -0.024795745 -0.04442853 -0.09613788 -0.023431834 0.030976107 0.014573641 0.022322819 0.1238748 0.025510158 -0.005234216 -0.026790274 -0.052116204 -0.033592787 -0.019963358 0.051637217 -0.04464614 -0.011785438 0.068272136 0.0281889 0.07560658 -0.013579707 -0.0146211935 0.04912305 -0.07008709 0.009181483 0.027889663 -0.0374506 -0.12074388 0.033461794 -0.023897063 -0.0031559193 0.008042402 0.039385475 0.13212408 0.033408556 0.10335644 -0.019670172 -0.006785549 0.07104172 -0.029273236 -0.0639681 0.029215755 0.036062665 -0.028818607 -0.050231382 -0.0005628114 0.029683921 0.030692982 0.01870334 0.0027594562 0.036788147 0.07832319 0.023931919 0.04883937 -0.047103327 -0.026625259 0.0008124926 0.03833915 -0.04895069 0.0068280036 0.010643628 0.034474783 -0.009028451 0.07363806 0.045436848 0.01534841 -0.02843358 0.0064973994 0.023209283 -0.03507177 -0.047514055 -0.022619521 -0.009259621 0.03946255 0.043344032 0.00020441973 0.05661534 -0.028933115 -0.00742274 0.045347836 0.06700235 0.0045202607 0.021027474 0.076938055 -0.033916116 0.026953345 0.07393483 -0.04027021 -0.024170635 -0.052780654 -0.021294676 0.07466901 -0.020145252 -0.10134251 -0.10572804 0.046497382 0.002805664 -0.103644215 0.049942028 0.06014989 0.021929879 0.03250177 -0.028203951 0.013493162 -0.058723856 -0.0146542955 -0.056311082 -0.00024100226 -0.009703994 -0.014744251 0.011160723 0.0061502196 0.021003243 -0.01434815 0.0790718 0.025239572 0.042377654 -0.008849302 -0.022829007 0.009318597 -0.031155849 -0.0054375418 -0.043778222 -0.05981822 0.007451843
2 -0.006020554 -0.0114273885 0.053549547 -0.020539217 -0.03255256 -0.080318816 -0.015293646 0.026461719 0.0025609718 0.022799214 0.103814825 0.019468848 -0.01507486 -0.012935358 -0.035032798 -0.023768146 -0.010415107 0.04013073 -0.04322264 -0.0015858505 0.06455294 0.0249541 0.05550933 -0.0056461655 -0.011276852 0.03126146 -0.06473762 0.002461631 0.018509693 -0.040116947 -0.10316441 0.017075377 -0.007824716 -0.0038278776 0.0057834177 0.040846635 0.114811644 0.020258715 0.0880052 -0.00833013 -0.006508661 0.05591626 -0.015336448 -0.05423854 0.014208304 0.032655276 -0.023559932 -0.03796862 0.007781934 0.02372871 0.023645584 0.023059154 0.013079326 0.022321645 0.07017006 0.027295161 0.042631906 -0.04317142 -0.0153985 0.005778373 0.03770922 -0.04180264 -0.0020476447 0.014625852 0.029438095 -0.0043082465 0.070285775 0.044433452 0.0019332863 -0.019274687 0.01634813 0.019631764 -0.02749657 -0.041835822 -0.013584 -0.011195287 0.022341503 0.029948955 0.00545379 0.053290308 -0.012264886 -0.015765557 0.032798056 0.065912895 0.0010265155 0.02079784 0.06516585 -0.027024062 0.025260633 0.05793469 -0.024733635 -0.019759702 -0.04288267 -0.01672989 0.06868328 -0.011695493 -0.09739848 -0.09388029 0.027769864 -0.00015473473 -0.08135464 0.046680346 0.050100274 0.01886238 0.031770892 -0.017578922 0.021871075 -0.04882727 -0.008517754 -0.05359288 -0.0024875621 -0.0016278328 -0.01032265 0.0005700831 0.010062526 0.009933831 -0.01536695 0.07151001 0.01824629 0.032099638 -0.009976923 -0.012796645 0.002137184 -0.02279903 -0.004215463 -0.025509208 -0.039653957 0.012632753
6 -0.004718932 -0.00830131 0.05730178 -0.009270567 -0.032812282 -0.07185159 -0.02479096 0.018622922 0.0072883773 0.008325234 0.08843996 0.012325897 -0.0018436046 -0.022842303 -0.032854922 -0.027473731 -0.019563816 0.031869736 -0.041670736 -0.010084659 0.04907317 0.024384573 0.050513387 -0.0022169363 -0.013946327 0.040299788 -0.051845457 0.0066457656 0.008284292 -0.028816855 -0.08938808 0.01499187 -0.015148036 3.2164644e-05 0.012227849 0.027757319 0.09180673 0.013600276 0.07616086 -0.003738293 -0.011873822 0.046960805 -0.018554946 -0.03527125 0.011406764 0.022728056 -0.013030446 -0.030868141 0.004267284 0.013705621 0.02696227 0.010273668 0.00481247 0.027563866 0.051052827 0.021521192 0.03613826 -0.037402574 -0.027969144 0.012779094 0.029183473 -0.037158404 0.008183065 0.00981845 0.026448911 -0.0069453963 0.057558283 0.034045033 0.016363194 -0.021632701 0.009803175 0.008168904 -0.033768762 -0.041384995 -0.0123125585 -0.009486645 0.028016053 0.021505265 0.005521999 0.03856058 -0.017643815 -0.00904137 0.04464434 0.05591619 -0.0064966697 0.02189451 0.044204567 -0.015771296 0.012790325 0.047857977 -0.02083421 -0.007587691 -0.033332933 -0.004781061 0.0610174 -0.017167235 -0.08292932 -0.078514285 0.032081317 -0.0046579577 -0.07494987 0.02638408 0.046478666 0.022797594 0.020234106 -0.023036236 0.017424036 -0.045113903 -0.0051412876 -0.044220623 0.0019446369 -0.0123852 -0.0029407013 0.012544472 0.0065534185 0.013054025 -0.019322602 0.053567864 0.016961977 0.024718814 -0.01009032 -0.01638411 0.01091168 -0.017000014 -0.0038583868 -0.033916607 -0.041158754 0.0054201935
7 -0.009683555 -0.013532626 0.04309154 -0.021491038 -0.033586938 -0.063801825 -0.02090387 0.017330803 -0.0016124502 0.011231291 0.08114736 0.016345566 -0.014142865 -0.015706887 -0.026843494 -0.031212151 -0.009323541 0.03559426 -0.026546989 -0.014781944 0.039391696 0.009446258 0.045069035 0.0046149697 -0.005038807 0.03380741 -0.040828265 -0.0020106176 0.020439455 -0.033911493 -0.08371084 0.016517362 -0.013218101 -0.0060731224 0.008363503 0.034086194 0.08136102 0.018190404 0.06413652 -0.016937086 -0.0030210675 0.049742956 -0.026277985 -0.034252148 0.024953611 0.012867275 -0.024473166 -0.034326684 0.010141123 0.022174358 0.022213288 0.0069466997 0.010706131 0.024312338 0.048610162 0.021405624 0.022366311 -0.03558852 -0.015745716 0.012785942 0.030001966 -0.022509094 0.0040240223 0.014457654 0.014780544 0.0010812089 0.047554377 0.029640438 0.014669762 -0.023810383 0.012871499 0.00434931 -0.023030212 -0.0414518 -0.015783101 0.00147938 0.019837625 0.027907612 0.007899744 0.04353558 -0.021759067 -0.010425968 0.040435456 0.049236514 -0.0028891664 0.0043467493 0.048914097 -0.02472563 0.020864252 0.037855648 -0.022225281 -0.013755399 -0.031704206 -0.010154948 0.055839863 -0.008482327 -0.072716184 -0.06680004 0.029559083 0.00046917854 -0.0652004 0.036360037 0.030667964 0.018741015 0.032168504 -0.011357257 0.01321836 -0.0447715 -0.008766121 -0.04036233 0.0053049093 -0.006796421 -0.0038438183 0.008867048 -0.00034044066 0.0063098967 -0.011470038 0.047209356 0.021688785 0.03737952 -0.0043913485 -0.011994028 -0.00026961762 -0.016886745 -0.0051167207 -0.030870387 -0.038411926 0.0009791431
8 0.0022920824 -0.012200424 0.062031597 -0.02348047 -0.03151869 -0.06351839 -0.029124424 0.013522 0.0037841809 0.011298911 0.09001749 0.00546465 -0.016885445 -0.013257176 -0.041455228 -0.034960177 -0.015949963 0.02834392 -0.044270154 -0.016619233 0.05202869 0.01666972 0.05998817 -0.002304032 -0.014697896 0.042328533 -0.058335487 -0.002043234 0.009982105 -0.037252292 -0.09547743 0.026583042 -0.016803216 0.00043337978 0.014890771 0.027326401 0.10348922 0.028244957 0.0735412 -0.0062944097 -0.0062717567 0.04593376 -0.026804082 -0.042056087 0.018110955 0.017938048 -0.01381028 -0.03895083 -0.0013472006 0.025402583 0.017325412 0.016005723 0.0054271105 0.0268734 0.056490127 0.024143964 0.042711683 -0.040171884 -0.02339321 0.013083413 0.035667226 -0.037575237 0.01254566 0.016300075 0.023169331 -0.0017213043 0.061644144 0.02933915 0.005297298 -0.026978517 0.010335768 0.014610495 -0.024051271 -0.042467345 -0.0137715535 -0.0046650064 0.029314946 0.030508682 -0.003635519 0.035798647 -0.018174991 -0.004543073 0.04029875 0.046229627 -0.009589865 0.019901313 0.05177512 -0.018192502 0.011452985 0.05757257 -0.03138551 -0.01364728 -0.038373325 -0.019136727 0.058513943 -0.011942913 -0.08919487 -0.08102772 0.02379405 0.0011887923 -0.06974873 0.033463694 0.041567095 0.025754938 0.036429863 -0.025484083 0.009483831 -0.04817178 -0.003565472 -0.044816468 -0.009313994 -0.009855867 0.001514637 0.0023013495 -0.0010555632 0.020418303 -0.022868665 0.062251467 0.020698244 0.04043957 0.0023078667 -0.01971252 0.002398919 -0.013604729 0.002130658 -0.024540678 -0.049177304 0.01738035
16 -0.004463422 -0.011883887 0.04971173 -0.014062407 -0.02481585 -0.06457094 -0.022231685 0.022029499 0.0140322 0.008764858 0.08142251 0.004074583 -0.014405489 -0.014515394 -0.039044894 -0.020750651 -0.009785547 0.029237453 -0.029643675 0.0011623884 0.053792357 0.016661037 0.049859628 -0.0064859698 -0.01725237 0.037117254 -0.0487883 0.0017947808 0.0121836085 -0.033434387 -0.0778132 0.01464917 -0.020355495 0.004836064 0.010427856 0.0368438 0.09315899 0.021246549 0.07607207 -0.013468041 -0.016309815 0.04841342 -0.015264413 -0.04509671 0.024562018 0.017184954 -0.010755372 -0.02775018 -0.0027753464 0.020743968 0.009968783 0.010990733 0.008493389 0.031891823 0.058085334 0.014031553 0.034926925 -0.03007029 -0.02100613 -0.0002725319 0.026282463 -0.03663524 0.009398462 0.0032142496 0.02840196 0.0060301274 0.050809097 0.033429448 0.0065637394 -0.011166769 0.012684065 0.006189757 -0.025616512 -0.031762816 -0.012021169 -0.00824532 0.021118023 0.02585736 0.0014500152 0.042001117 -0.02030832 -0.0122358035 0.03259891 0.046949774 -0.0023980958 0.009310117 0.052504394 -0.021884551 0.017163854 0.046209786 -0.016111173 -0.021398384 -0.038988303 -0.016311686 0.061757322 -0.012117678 -0.08192422 -0.071337804 0.02226588 0.0054438654 -0.07585024 0.033267714 0.028041147 0.02003156 0.030633137 -0.011936796 0.0059634876 -0.04414097 -0.015238208 -0.0466873 -0.01041649 -0.009936407 -0.0064166766 0.0010706785 0.0095008155 0.011711157 -0.0077529754 0.05373944 0.017669374 0.022725392 -0.006878616 -0.011905944 0.0006593487 -0.01753422 0.0026831522 -0.026475802 -0.02699455 0.015635569
12 -0.0014152745 0.0021340335 0.063775726 -0.022530673 -0.043004263 -0.08121567 -0.030625006 0.03298306 0.005036341 0.0035678712 0.08728838 0.019799171 -0.011987905 -0.021902476 -0.033266712 -0.030199047 -0.016087895 0.036103748 -0.044548314 -0.00020421222 0.057294123 0.009729717 0.06331045 -0.013167619 -0.010660654 0.04299319 -0.060628023 -0.0010305806 0.026643233 -0.040032785 -0.10741076 0.033797614 -0.01703967 -0.0120498035 0.020457707 0.041832104 0.10901727 0.034879602 0.06642062 -0.0071616736 -0.00866526 0.057468962 -0.019442275 -0.039240435 0.026382487 0.031449918 -0.02778072 -0.042483125 0.0046864706 0.029702345 0.018061899 0.025102304 0.013250105 0.036259245 0.062541954 0.03248025 0.037298758 -0.02571663 -0.018150795 -0.0025892768 0.022190066 -0.038526736 0.011145767 0.0078032687 0.021964803 0.0085280575 0.0725234 0.032559946 0.0025716496 -0.027035583 0.0067349263 0.004811901 -0.028237937 -0.04539005 -0.00925721 0.001505773 0.022911502 0.017201917 0.0053183245 0.03436002 -0.013788855 -0.014460495 0.05043339 0.05722123 0.0012185032 0.012258141 0.05433521 -0.013654015 0.019321468 0.043945115 -0.03581935 -0.013934671 -0.027889663 -0.006373793 0.052177105 0.0017893118 -0.08220089 -0.072496556 0.044028733 -0.010932508 -0.089412205 0.045002967 0.056484897 0.029255917 0.0423281 -0.024325987 0.027402544 -0.057881836 -0.021426477 -0.055069536 -0.005172918 -0.0010733443 -0.012807101 -0.0006555561 0.016100725 0.0085284 -0.0029140238 0.05423456 0.024661036 0.043416154 0.0015076 -0.02065579 0.011848844 -0.0342197 -0.00033419306 -0.03335604 -0.033346683 0.0057759676
10 -0.0081770895 -0.0024784023 0.042394165 -0.014602767 -0.020725295 -0.053022444 -0.019634156 0.018583674 0.0136436345 0.016577125 0.07534433 0.013977243 -0.0048963134 -0.01478684 -0.032537147 -0.02076313 -0.011850161 0.027088186 -0.03549444 -0.0006773752 0.03584776 0.010766838 0.040328898 -0.004535189 -0.015173993 0.029092265 -0.045771286 0.0014453955 0.0064225057 -0.024758883 -0.070047505 0.016149743 -0.014914661 -0.0042486405 0.012042162 0.0293303 0.07127332 0.014183345 0.06210335 -0.0070547853 -0.016493963 0.043659393 -0.023126004 -0.04090986 0.017652774 0.0157125 -0.013524988 -0.019113746 -4.40434e-05 0.026764706 0.016741501 0.0204289 0.010887378 0.014084798 0.04230215 0.022627128 0.033274405 -0.021282276 -0.011523289 0.012546408 0.014431345 -0.023586992 -8.8249224e-05 0.010245705 0.02540134 0.0017784785 0.051736083 0.027739435 0.0062404424 -0.010916131 0.0042750724 0.012103625 -0.014096185 -0.03501811 -0.006985546 -0.0121190315 0.027911266 0.02975076 0.002832222 0.037548237 -0.013082651 -0.012962642 0.029052958 0.047010336 -0.0058240294 0.009302469 0.04693362 -0.015532839 0.012024672 0.037831564 -0.014551513 -0.017146142 -0.031237911 -0.01558616 0.044329543 -0.015584628 -0.06945057 -0.0698419 0.025169138 -0.0072824783 -0.06831129 0.021358512 0.02786704 0.022433037 0.025829427 -0.015975486 0.009326438 -0.04096312 -0.0078481 -0.03499546 -0.0013343156 -0.0056685703 -0.0051238127 0.0068614827 -0.002260481 0.004778842 -0.017650366 0.044886176 0.016332215 0.032058682 -0.005500838 -0.015514447 0.012838811 -0.017008176 -0.0014071291 -0.01610455 -0.029169839 0.0031006509
0 0.0035803423 -0.00044944717 0.022737963 -0.008744295 -0.016757172 -0.032649647 -0.012471195 0.009974102 0.005870121 0.008335671 0.048628498 0.003920689 -0.010367754 -0.0017792041 -0.013121427 -0.0070239957 -0.014028566 0.020710122 -0.023222258 0.003226488 0.030663814 0.014819773 0.030861618 0.003552234 -0.010888173 0.025427612 -0.030018698 -0.002185762 0.006200288 -0.009452599 -0.05416538 0.008925256 -0.0014131351 -0.0017328556 -0.0011042282 0.012032157 0.060147967 0.01702636 0.044712573 -0.009127055 -0.014257129 0.030081982 -0.0055481833 -0.029014666 0.003775525 0.009489543 -0.015164208 -0.018742763 -2.334326e-05 0.009292606 0.016647402 0.0007006429 0.007855875 0.018787684 0.029547708 0.018889101 0.027805684 -0.023602253 -0.016332077 -0.0012159824 0.008623234 -0.02058208 -0.0022773698 -0.0025860956 0.01520467 0.0015271708 0.035276175 0.015391293 0.000861198 -0.009308613 0.006151315 0.015204959 -0.013887441 -0.014696637 -0.014010391 0.0025127223 0.012012542 0.023824353 -0.0057439115 0.02433666 -0.009217423 -0.0051842094 0.0150904795 0.020296507 -0.007579773 0.0015079447 0.03125336 -0.012181409 0.007675042 0.033621475 -0.014890246 -0.010393494 -0.027340475 -0.015995894 0.039793972 -0.011055203 -0.050112665 -0.038212866 0.020588074 -0.0048459833 -0.04035249 0.013795818 0.022555782 0.007955118 0.012500366 -0.008934494 0.013907576 -0.017889166 -0.014161462 -0.02867235 0.0047690836 -0.0035563062 -0.0073373932 0.004959431 0.010027036 0.006139861 -0.015246625 0.03313489 0.015128998 0.022549758 0.00044604688 -0.014212833 0.0026351141 -0.011208894 0.0040666047 -0.021613367 -0.027990704 0.005820835
15 -0.010702113 0.0018122188 0.029992843 -0.0017526841 -0.024903663 -0.03985089 -0.0050243163 0.009244683 -0.0015551327 0.008753134 0.05244955 0.0064726663 0.0009574679 -0.015684761 -0.01587554 -0.0151682375 -0.00042707496 0.025388582 -0.014722656 0.0009966546 0.019348478 0.01883955 0.022358157 -0.004615409 -0.009785642 0.014998436 -0.036298577 -0.005958615 0.0046896716 -0.018700622 -0.056240696 0.017139865 -0.01564466 -0.008183448 0.0144377705 0.024549842 0.061142925 0.017138386 0.04077917 -0.012478555 0.00073401816 0.03085008 -0.00607354 -0.01730102 0.018630931 0.020973163 -0.021450173 -0.025225768 0.0043987804 0.019565674 0.017324073 0.01467178 0.010991559 0.009723849 0.038239412 0.009395046 0.011499835 -0.010510336 -0.009606346 0.0020617151 0.01309637 -0.022548571 0.006762893 0.008727 0.011439122 -0.0071445866 0.02819272 0.017516619 0.010479729 -0.01563771 0.0054218727 0.007924349 -0.020896053 -0.020649895 -0.009144712 -0.0006945803 0.019114884 0.014492364 -0.00037590283 0.02977646 -0.005189458 0.0009070823 0.025651008 0.03837324 0.0052969186 0.0074886424 0.038337555 -0.008691438 0.014955837 0.02607886 -0.017259935 -0.011403939 -0.026900899 -0.0037232104 0.04025173 0.0028900933 -0.04757899 -0.037079323 0.020889344 -0.004785273 -0.041630227 0.015280454 0.031884827 0.017239358 0.018758431 -0.007345613 0.016282571 -0.019057654 -0.0077575278 -0.03173963 0.0074109025 0.002246876 -0.003302416 0.0035800887 -0.0034069028 0.0029475659 0.00045303896 0.028985035 0.0045608445 0.028984495 0.004140857 -0.0017980881 0.004917411 -0.020425728 0.0061899866 -0.020093963 -0.017655626 0.008113077
18 0.005624792 -0.011452295 0.04127925 -0.017666817 -0.027027912 -0.05108859 -0.017240979 0.019903516 0.011532475 0.005390645 0.058637094 0.0050819824 -9.131768e-06 -0.0045468234 -0.021326737 -0.019186035 -0.01455076 0.025369069 -0.023109257 -0.0075830733 0.038727608 0.009685659 0.02637071 -0.0042988136 -0.007003589 0.01726192 -0.037422538 -0.005365335 0.017021421 -0.014555789 -0.05843474 0.018971404 -0.0017919674 -0.003754789 0.010737491 0.02353498 0.06651462 0.02043723 0.0429804 -0.009285661 -0.0062480895 0.035190433 -0.010262115 -0.023380548 0.015770733 0.00802732 -0.016348239 -0.026988273 0.010366365 0.019677874 0.011981231 0.013723279 -0.0010114124 0.01151128 0.038488485 0.019540835 0.026363896 -0.017107887 -0.0146967005 0.0017271162 0.017369455 -0.024182234 -0.0016869234 -0.00075528905 0.021274183 -0.0016774499 0.034580708 0.014122399 0.01233265 -0.012249014 0.008409693 0.011792728 -0.022810042 -0.02296015 -0.0057929414 -0.0105091315 0.019959059 0.020446982 0.0071170353 0.030030454 -0.013023421 -0.01165004 0.029355973 0.034540754 0.0021121118 0.014346424 0.035883233 -0.01903762 0.01079132 0.038379755 -0.021143805 -0.002312561 -0.028463347 -0.005215514 0.03933677 -0.00024703614 -0.05640395 -0.05258191 0.013889018 0.0021450936 -0.05141986 0.029254034 0.023336064 0.006829255 0.014805912 -0.0075021354 0.00479138 -0.031999607 -0.013318323 -0.023750432 0.0017913412 -0.0025095232 -0.0074723866 0.009733074 -0.0015303364 0.006462354 -0.013397597 0.035846885 0.010356088 0.028438406 -0.0020911747 -0.017669242 -0.00027209663 -0.019200968 0.0027090025 -0.010696704 -0.02999739 0.012584058
9 0.0053417785 -0.009608625 0.013823011 0.0007400018 -0.0055153673 -0.03221936 -0.015089374 0.015305639 0.0068516904 0.012609979 0.029738052 -0.0031566585 -0.0032950735 -0.013720297 -0.018476246 -0.013383711 0.0030506963 0.021268718 -0.017155046 0.0012844912 0.028337339 0.005879578 0.02974599 0.0046571163 -0.0033239678 0.011615001 -0.025065996 -0.0016468817 0.0123331975 -0.01884993 -0.03870199 0.015039806 -0.0028790736 0.0048239105 -0.003687845 0.012972782 0.04339534 0.0042975554 0.037003253 0.0028631028 -0.0061757877 0.018631538 -0.009202937 -0.023621902 0.0004591221 0.006842812 -0.009830829 -0.008933365 -0.0045963074 0.014836911 0.001259723 -0.0010073113 0.010379902 0.018684823 0.01973785 0.011709424 0.00935127 -0.02166375 -0.013506726 0.0095361015 0.016930021 -0.004958393 0.007628947 0.0085804155 0.012530625 -0.00826079 0.02668035 0.013109366 0.009121277 -0.006049642 0.0019756581 0.012264415 -0.009043465 -0.016263152 -0.009268745 -0.010349388 0.003152976 0.019824592 -0.007248821 0.025223093 -0.015543781 -0.0048506917 0.013045005 0.013789775 0.005669915 0.010596329 0.02448394 -0.006158986 0.006411547 0.027680522 -0.003171232 -0.015713135 -0.019040262 -0.0072901864 0.027599838 -0.008858861 -0.03274925 -0.03906988 0.013474304 0.00408567 -0.026920378 0.011057467 0.008271632 0.00110168 0.010915606 -0.0140338475 -0.00079494104 -0.012867277 0.0016074682 -0.016323267 -0.008629862 -0.00903629 0.004445848 0.0066423803 -0.0033195738 -0.0010980571 -0.0058929836 0.026753034 0.009947464 0.015321102 -0.0075092227 -0.0150305955 -0.003927856 -0.0076505 0.004046506 -0.0073032957 -0.01429107 0.008578241
29 2.9409328e-05 0.0025269503 0.0044074706 0.0041311686 -0.0023074227 -0.009937488 0.0019319066 0.010870977 0.002823744 -0.0010781925 0.016471243 -0.004022871 0.006090231 -0.009550324 0.00082578236 -0.007199916 -0.0035582783 -0.0021230853 -0.016574146 -0.007619447 0.0038572603 0.004927329 0.005327108 -0.0055291387 -0.0061193826 0.004925874 -0.0038376602 0.005147756 0.010808046 -0.0013562293 -0.02330632 0.009568729 -0.009357932 -0.003874261 -0.004563732 0.010760021 0.021628648 0.009909888 0.016876267 -0.007074129 0.0039412347 0.0047768215 0.0038498256 -0.005508437 0.0006280183 0.0020283498 -0.0068501136 -0.012655141 0.008211746 0.001376121 0.011355581 -0.0032232234 0.002775141 0.004630904 0.016313674 -0.002504917 0.014824793 -0.010469675 -0.009272679 -0.0048262863 0.0014235695 -0.010318931 -0.0010183149 -0.0035728433 0.0046073054 8.938131e-05 0.012003774 0.009674481 -0.005170004 -0.0056529194 0.007012684 0.0095992815 -0.014101913 -0.0005839175 0.0030739952 -0.002875756 0.01171855 -0.0032940889 0.007824712 0.01057232 -0.0008634823 -0.006106567 0.0057927864 0.0075927065 0.00020121053 0.0053847698 0.014557749 0.0044016703 0.0096929595 0.0057499604 0.0022171552 -0.0017072875 -0.0006361846 0.00041915508 0.010063914 0.001823842 -0.020121066 -0.019721031 0.0015110484 -0.000170098 -0.009467693 0.008776062 0.010910202 0.007694494 0.013216883 -0.010897177 0.0065631387 -0.015342649 0.000915124 -0.0009414777 0.0062876507 0.004995335 0.0034834642 0.006914468 0.009196134 0.008680516 -0.0058178757 0.017325284 0.007770855 0.004913414 0.007318627 0.00068171776 0.010374879 -0.0025491007 0.008629363 -0.005645277 -0.00039071593 0.0037008354
17 0.006322779 -0.0077446424 0.045123704 -0.0020792761 -0.024982108 -0.050170057 -0.010877076 0.008215542 0.016115766 -0.00478733 0.052343335 0.012427975 0.0021956896 -0.018224431 -0.018561913 -0.0070061665 -0.01905841 0.013785041 -0.035249658 -0.009679823 0.03746716 0.02418575 0.043838162 -0.0038336953 -0.00534402 0.035504892 -0.02539477 0.008971178 0.018460609 -0.030399425 -0.06852335 0.008315098 -0.0017131054 -0.005970736 -0.0036930426 0.031215403 0.076905236 0.011478184 0.059944704 -0.0064536924 -0.0111859655 0.032761533 -0.011709744 -0.03223305 0.0138102705 0.02228185 -0.0057702367 -0.03408501 0.0012284667 0.008185224 0.024295071 0.018140934 6.90665e-05 0.021098532 0.03114701 0.01633992 0.038672153 -0.027158797 -0.021201441 -0.0049307947 0.014195946 -0.025946679 0.0070342068 0.016030194 0.012921209 0.0020561337 0.05362718 0.024891295 0.0050156047 -0.002717159 0.018347729 0.018277137 -0.026938036 -0.0147213815 -0.00013433864 0.0063771484 0.015512694 0.019444183 0.011280716 0.021498052 -0.002723051 -0.0054108603 0.037747275 0.032420456 -0.0065358398 0.018877676 0.024156233 -0.020169998 0.0037004314 0.032144383 -0.0194644 -0.000420628 -0.0109483395 -0.008314463 0.040339198 -0.004316291 -0.058835886 -0.062605046 0.029789038 -0.0076171644 -0.046021532 0.034902863 0.034671 0.019290376 0.025937403 -0.019000422 0.01751906 -0.03210576 -0.0007387286 -0.0238414 0.0018104401 0.0027538212 -0.015105522 0.012461535 0.018025588 0.0039727176 -0.0087354295 0.033228844 0.015061312 0.024831245 0.007461357 -0.011324455 0.009893364 -0.013381238 0.010074906 -0.026113989 -0.033571474 0.0015391388
25 -0.003347957 0.0004543581 0.017886713 -0.010081916 -0.02206456 -0.027778415 -0.012148826 0.0026871648 0.006069676 0.013186826 0.037795424 0.0006458815 -0.0022068375 -0.006967987 -0.023212278 -0.005780952 -0.011715281 0.012163739 -0.018920248 -0.008688503 0.024712266 0.016795821 0.0276745 0.005148756 -0.0054293964 0.016734306 -0.026042873 -0.0066461517 0.009700304 -0.013284444 -0.04935196 0.0057176 -0.013764554 -0.0062684617 0.0074203424 0.021624323 0.048036158 0.012582007 0.039943032 -0.006391079 -0.006008938 0.015843036 -0.009485924 -0.021391857 0.009069414 0.015738297 -0.015717058 -0.018495824 -0.00317848 0.008938384 0.0055970605 0.008631263 0.0065083453 0.00826315 0.022084856 0.0113811735 0.02005123 -0.011538098 -0.012141369 0.00056197145 0.008580001 -0.015499874 0.0038236256 0.005032515 0.017708033 -0.0030478614 0.025385879 0.009797965 0.0034939237 -0.015996607 0.0042173523 0.007642395 -0.019114062 -0.011080576 -0.0136134215 -0.010553123 0.0043794573 0.019444726 0.004795317 0.026752153 -0.006283609 -0.0036749393 0.015258422 0.031244107 0.00086559146 0.009742903 0.023792258 -0.009727207 0.012888396 0.022265892 -0.0091846865 -0.0077503393 -0.012797112 -0.0030818323 0.029563911 -0.008583044 -0.041555014 -0.031711575 0.0084548555 -0.00026561457 -0.03486167 0.018485382 0.012049295 0.016949268 0.01190838 -0.01320504 0.009909868 -0.021509336 -0.011515931 -0.024070656 -0.0012156145 -0.01101003 -0.0022939234 0.0057074227 -0.0013395507 0.007653471 -0.0047895713 0.03425546 0.009818368 0.017527621 0.00023615648 -0.009674647 -0.004756036 -0.003345876 -0.0012087516 -0.02079228 -0.023608845 0.0016580414
44 0.0008622598 0.0009693938 0.025871947 -0.013135418 -0.012891423 -0.030107928 -0.014543762 0.014186405 0.0059160115 0.0037110853 0.029119074 0.0003758719 -0.0044691004 0.00016957178 -0.009045411 -0.01891273 -0.012708347 0.02094722 -0.016353361 -0.007542768 0.024482993 0.0025869398 0.025553044 -0.0006549859 -0.010523187 0.014042257 -0.015925793 0.0072162207 0.0070520802 -0.009028922 -0.041216154 0.0077749626 -0.010577182 -0.0001478573 0.002841997 0.010386756 0.03277729 0.017378911 0.032194767 -0.007338961 -0.008149648 0.026557079 -0.015207531 -0.014582416 0.008702147 0.015008373 -0.0032516283 -0.015561487 0.0036543321 0.009927345 -0.0008110878 0.0035959803 0.005205781 0.016364153 0.030963117 0.01694191 0.00623536 -0.008142895 -0.013576669 0.004338176 0.011703567 -0.006576925 0.0062625837 0.007258421 0.018799243 -0.00032240368 0.017059632 0.0071193217 0.010078943 -0.013885229 0.0015597481 0.008802348 -0.0120712 -0.021906713 -0.00834331 -0.0019481922 0.012104263 0.017973814 -0.0044815745 0.02055282 -0.0019234869 -0.0017790111 0.019826487 0.017652558 0.0037707484 -0.0012636431 0.025370592 -0.017300453 0.004292686 0.011960511 -0.01136235 -0.01143975 -0.018668175 -0.004619039 0.027236426 -0.0056936056 -0.040605504 -0.036098372 0.012542902 -0.0039286246 -0.038790252 0.011857993 0.021404192 0.014350783 0.003215654 -0.0056490847 0.00013793314 -0.025290785 -0.004405873 -0.018672671 -0.0069648814 -0.00951936 -0.0036164268 0.009978281 -0.007367745 0.011208698 -0.0070502274 0.024162345 0.015747042 0.019279713 -0.0052174344 -0.004276884 0.0049493285 -0.003262126 0.00022676477 -0.015360691 -0.015256087 -0.00028022623
39 -0.00057441666 0.00096899795 0.026407603 0.0010721231 -0.020018324 -0.033568844 -0.0032436072 0.010660537 -0.0024031128 0.0065379012 0.039269727 0.0024994547 -0.0087219225 -0.001390528 -0.0067575467 -0.01699159 -0.0053202133 0.012192537 -0.020960482 -0.004286397 0.01736405 0.015750615 0.01688271 0.0016552972 -0.0052593723 0.018060638 -0.020398727 0.00914204 0.006302704 -0.018056523 -0.038439408 0.01004139 -0.008628218 -0.008100436 -0.0006912883 0.007875803 0.045552302 0.012016458 0.03777765 0.0006411024 -0.010755624 0.02346729 -0.0014659236 -0.017171899 0.010617201 0.013691156 -0.01640999 -0.004992518 0.0073359064 0.018061427 0.00012100472 0.011690865 0.009067915 0.009419259 0.01827619 0.013630875 0.009090378 -0.018703872 -0.005641146 0.01051254 0.018704887 -0.017605975 -0.0063057505 0.011151004 0.016578963 -0.00389024 0.016085539 0.009578693 0.00046784317 -0.010613105 0.005122422 0.005814654 -0.013623381 -0.021696655 0.0026454064 -0.007585368 0.0044844453 0.019015986 0.0026116192 0.025037933 -0.011420926 -0.010338814 0.016189452 0.0211854 -0.009225605 0.0042229244 0.025467575 -0.0039090747 0.012876371 0.023711966 -0.013279205 -0.008901735 -0.019158904 -0.000953049 0.020037958 -0.0030050182 -0.03596037 -0.037479084 0.005327283 0.005268338 -0.039001532 0.013658634 0.018492375 0.01569975 0.0060231234 -0.0050345664 0.01393882 -0.024140099 -0.0080714 -0.014685393 0.0033493852 -0.0027423839 0.003991266 0.003843349 0.0031398237 0.0038238561 -0.012691525 0.027097678 0.009456832 0.006085489 -0.0028113623 -0.0069978447 0.002329322 -0.0014471529 -0.0018592814 -0.016089225 -0.009961904 -0.0018241743
23 -0.008842379 -0.004387666 0.014900218 -0.007063956 -0.012237811 -0.03002087 -0.0143482145 0.00806719 0.001656492 0.008360619 0.0416669 0.009484615 0.003140994 -0.013423387 -0.006041422 -0.013198462 0.0017021749 0.016617062 -0.0114408005 -0.01168598 0.012680054 0.014953294 0.018936127 0.0009929545 0.00040666256 0.013885741 -0.013462136 -0.00087922724 -0.0012597446 -0.018699067 -0.038028512 0.0019079896 -0.00023057504 0.0014652025 -0.0027507644 0.020096486 0.046102643 0.014322994 0.034899957 -0.012661579 -0.0031967326 0.01282695 -0.01151153 -0.016473103 0.0077888314 0.010381638 -0.00628269 -0.012725642 0.0059220754 0.016213253 0.0030163494 0.0122880135 0.008245375 0.018407186 0.026507875 0.006655145 0.0100770155 -0.013841466 -0.010004403 0.011235538 0.012485017 -0.009707972 0.0053539528 -0.003004406 0.015756741 0.005249819 0.02092261 0.014163658 -0.0004382535 -0.014190342 0.010536679 0.0032870471 -0.0057033263 -0.014773415 -0.007615535 -5.9976017e-05 0.0067757154 0.010710331 0.0013930701 0.021413643 -0.008188994 -0.0028381487 0.009318963 0.028775606 -0.0072844094 0.011162161 0.025011161 -0.015018067 0.0026401996 0.013261948 -0.014701945 -0.0009406238 -0.00750203 -0.0033680743 0.024890743 0.003699954 -0.037088253 -0.031898927 0.0145171685 -0.00562569 -0.037717357 0.0064056837 0.023989603 0.013158232 0.0074762665 -0.014483869 0.0067261043 -0.015445854 -0.005281911 -0.017074082 -0.0042662756 0.00036801523 -0.001078751 0.0105476845 -0.007820554 0.0008045764 -0.012927524 0.02274594 0.001589875 0.018777968 -0.006777542 -0.011310888 0.005740666 -0.014928203 0.0013654225 -0.017587287 -0.008587592 0.010810063
19 0.0014611953 0.004448546 0.004099535 -0.004908426 0.0071660257 -0.008162401 0.0060590687 0.002268625 -0.0023513075 -0.002752899 0.007829415 -0.0042131008 0.0062306207 -0.004707939 0.0062478734 -0.00062159146 0.005964651 -0.0022288344 0.0042570853 0.0067074043 0.0025247291 0.0012342646 0.0044918456 0.0063248132 0.0066388566 0.007026671 0.0050241454 0.006146991 0.0069221533 -0.00032325299 -0.0017693891 0.0014969262 -4.1167026e-05 0.00038767763 -0.006593115 -0.0071782297 -0.00082722935 0.0072496403 -0.002258462 -0.0055891336 0.0036683371 0.0012713746 0.0012456315 0.0025007944 0.0029341143 0.0046428135 0.0006632723 0.0002487516 0.00713579 0.0023925276 -0.0034886375 0.005271578 0.004122528 0.002451625 -0.0020037247 0.002907794 0.005423652 0.005225179 0.00048469074 -0.0066497354 0.00038158614 -1.9760235e-05 0.003114998 -0.007345129 0.0077716005 -0.0054098535 0.0050912187 -0.0071800337 0.007600723 0.005495608 0.0011500634 -0.0024779965 -0.0006832617 1.3103236e-05 -0.005158701 0.0045213858 0.0020307756 0.0032517016 -0.00562594 0.006970563 0.00029881997 -0.00023383624 -0.0066407323 0.003629733 0.0052000848 0.005868705 -0.004612286 -0.006371673 -0.0042010774 1.1889897e-05 -0.00681826 -0.0064979 -0.0017639677 0.0007714656 -0.0068353214 -0.0029458445 -0.00031943576 0.004703328 0.0016078836 -0.0005233625 -0.0064675934 -0.0048409044 -0.00020200724 0.0061050514 0.004635053 -0.0013625242 0.00115248 -0.007907779 -0.0012849581 -0.004076072 0.0045713205 -0.0019386775 -0.0038417894 -0.0073244255 -0.00083879696 -0.0054810476 -0.0014437843 -0.002633282 -0.0016291701 -0.002091624 -0.006251611 -0.001198508 0.0013020635 -0.0033489894 -0.0058905035 -0.00309915 -0.0076252306 -0.0004948346
84 0.0045960974 -0.0023135515 0.0024701236 0.0039029047 0.006615959 0.0043917308 0.007428552 -0.00753647 -0.00622084 -0.0052798092 -0.0058341473 -0.0062215766 -0.0060845073 -0.002298927 0.0010907501 -0.002245929 -0.0068876967 0.0038952045 0.00070382096 0.0035862513 0.005621358 0.0059752297 -0.00062863063 0.0028593438 -0.0040027937 0.0014927201 0.0035455227 0.0077239554 -0.0024902262 0.0022182297 -0.0044815233 -0.0017270045 0.0063477308 -0.0030505136 -0.00092857797 -0.007253886 -0.0074037313 0.0069396617 -0.004455408 0.0039474936 -0.005440318 -0.0019207122 -0.006267919 0.0058597876 0.0047870437 0.0041081794 0.006545201 -0.0005441662 -0.0072755693 0.007121614 -0.003850419 0.006131242 0.004323328 -0.00084302854 -0.0059876684 -0.0011404706 0.0048855757 -0.0054422524 0.0011266377 -0.006212389 0.006813553 -0.0022310847 0.0073728925 -0.0044594333 -0.007591972 -0.0067405496 -0.0031834645 0.0036793705 -0.00018901471 0.007205869 0.0024290737 0.0029279431 0.002340898 0.006366132 -0.0018724333 0.0057869833 -0.0074505573 0.0022820989 -0.00053255446 0.0003533261 0.0053461017 -0.0022202916 -0.001841234 -7.8497455e-05 -0.0003888216 -0.0027929386 0.0048785023 -0.005123959 0.0061656246 -7.301569e-05 0.0020381566 0.0025180858 -0.00022004172 0.0013330486 -0.0024536364 0.0037159808 0.00018985197 -0.0025629653 -0.0068082614 -0.0078109996 0.00024435762 -0.0044896957 -0.0008669216 -0.0032860106 -0.0067490824 0.0008297628 0.0046180394 -0.0017273203 -0.0056022005 0.002463623 -0.00030053593 -0.0043133926 -0.0008637728 -0.00049973 -0.0024867887 -0.007777404 0.0059676515 0.0029109437 -0.001975948 0.00570873 0.0003551487 0.005604025 -0.0012090337 0.005854428 -3.3305958e-05 -0.0047479384 -0.003684258 0.0075222068
11 -0.000169471 -0.0030920047 0.024735805 -0.01215826 -0.01236826 -0.030765543 -0.014635258 0.0003940658 0.0053566573 0.007384223 0.03448034 0.005394637 -0.0028859188 0.00017251026 -0.013493831 -0.007874829 0.0031589165 0.012879949 -0.0074463845 -0.009281807 0.023608858 0.009405183 0.022973238 -0.008222954 -0.0041379747 0.014910717 -0.022851942 -0.005937584 0.010959114 -0.017970426 -0.035949636 0.014226031 -0.01025557 0.0065901675 0.0034233741 0.015014372 0.0308664 0.0035772375 0.01797662 -0.0042006564 -0.008091611 0.014564379 -0.0012757673 -0.021318724 0.001183777 0.0021290074 -0.012700938 -0.01874578 0.0005067926 0.017452408 0.0117514 0.00024125031 -0.0030444646 0.007919358 0.011421076 0.0045566508 0.006098831 -0.009988634 -0.013719981 0.00531658 0.012767498 -0.0055854153 0.0004954059 -0.0043056225 0.013529687 -0.0052779485 0.023433505 0.012022636 0.010895441 -0.006476108 0.0023430178 0.01021731 -0.01429788 -0.021455087 -0.0019028761 -0.0046360167 0.0040052123 0.009647913 -0.008412004 0.015693648 -0.0077853245 -0.006233006 0.015081873 0.021143684 0.004232898 -0.0021646912 0.014631932 -0.015606704 -0.0019515437 0.01394859 -0.0095906705 -0.013067409 -0.017639156 -0.0068386495 0.026197173 -0.0022619958 -0.022120241 -0.034210227 0.005465124 -0.00046284468 -0.018321235 0.012781005 0.014022023 0.008384147 0.01269974 -0.014557561 0.006689881 -0.011084034 0.0010227888 -0.011544089 -0.00874248 -0.006895901 0.005973501 0.0022943676 -0.0082524875 0.007855262 -0.010980377 0.025700685 0.011832693 0.00860241 0.00017718591 -0.0020063806 -0.002476324 -0.007651264 0.007858193 -0.0015524038 -0.021605443 0.010335205
13 0.0077250386 -0.0022188826 0.0019213641 -0.0021901177 0.006754254 -0.00022131484 0.004403366 0.0071975747 0.0032111304 -0.0055628046 -0.0015045544 0.0007640822 0.0015891222 0.0023079803 0.007382312 0.00343836 0.0077452343 -0.006763831 -0.0044956375 0.0015518013 0.002856385 -0.00077435933 -0.0053997254 -0.0025091115 -0.0066621657 0.0073521202 0.0029097153 -0.0061557954 0.0024898192 0.003260809 -0.0044054566 -0.0046193684 0.0008112239 0.0070015974 -0.007536157 4.914589e-06 -0.005363238 -0.0007283194 0.0023757825 -0.0039296616 -0.0021687532 0.00052780285 -0.0049704853 0.0056926394 0.0034206426 -0.006686355 -0.001678884 0.002472289 -0.0065059327 -0.0055225883 -0.006604485 -0.0042957747 0.006918826 0.0055289445 0.0022544637 -0.0066832574 0.0044869008 0.0036198571 9.295065e-05 -0.0069085453 -0.0014716638 0.00014911313 -0.0060608927 0.0019298121 0.0003779428 -0.005515648 -0.0064604757 0.0047204616 -0.0065238206 -0.004359207 0.0043594725 -0.00037996192 -0.0023862226 -0.004058107 -0.0009358963 0.004118529 -0.004645656 -0.003888417 -0.0038661119 -0.003715897 -0.0062344475 -0.0076222382 0.0059235673 0.006247462 -0.003347123 -0.007287548 -0.0014629029 -0.0028970875 0.007108289 0.002296986 -0.0046704253 -0.0026236605 -0.007736315 0.0015188446 -0.003115913 -0.0021161744 0.0040441332 0.0059367362 0.0034248643 -0.0053284504 0.005233314 -0.0075248377 -0.0054588187 -0.006254688 -0.0017679147 0.00037487503 -0.0029470958 0.0014416976 0.0071931137 0.005217231 -0.0008240817 0.0071038743 0.001216325 -0.0015421184 -0.0051523047 0.0050577363 -0.007085627 -0.001481723 0.006009686 -0.002020985 0.001254838 -0.0057391524 0.0038891258 0.0057602087 -0.0072722966 -0.0025608242 0.006166202 0.0022920482
53 1.1361204e-05 0.00026820973 -0.007707366 0.007763086 -0.0015635472 -0.0038182195 0.002147844 0.0008046655 -0.0046340544 0.004525503 -0.0019558324 -0.0048268596 0.005652898 0.00504959 0.0068908455 0.0009089019 0.00039843842 -0.0061950153 0.00363194 0.0073133865 -0.0005309684 -0.0013773199 -0.0029790374 -0.0003842786 -0.0059511214 0.004444723 0.0011647549 0.0072599575 -0.005019066 -0.0039759614 -0.004870821 -0.005684915 0.002153568 0.0038239202 0.001048414 0.0027662106 -0.00733459 -0.0008356171 -0.00604913 0.002306357 -0.0020985436 0.0069398433 -0.002683078 0.0053423587 0.003214742 0.0010659322 -3.161095e-05 0.0063847927 0.0018451074 0.006451741 0.0026057698 0.004236806 0.0039858697 -0.005959986 -0.004522344 0.00096420106 0.00015180372 0.0016760444 0.00083253346 0.0059271054 -0.0034544487 0.0002535917 0.005473856 0.0017592143 0.0033146488 0.0033619357 -0.0009887861 -0.006502012 0.002378325 -0.006932142 -0.0020787967 -0.007337535 -0.0003609499 -0.0061431965 0.005792169 -0.0038205609 0.007748672 -0.007056457 -0.0033688871 0.001506974 -0.0023417426 0.0011295183 -0.0028756596 -0.0006985711 -0.004474505 -0.0076726666 0.0049524987 0.00029973034 0.0050855596 -0.005837991 0.002862149 -0.007732724 0.0059458837 0.004628552 -0.004779281 0.006416453 -0.004359412 -0.0066824993 0.0011720983 0.0024843458 -0.0063254694 -0.006979893 0.007165096 0.0012841988 0.00068306737 0.001936119 -0.0027399557 0.0013555 0.0015297523 0.0076609384 -0.004381352 0.0017758021 0.0049274554 -0.0052166656 -0.006979523 0.0067626704 0.0053422274 -0.0031404486 0.004486207 0.00061603077 -0.0039145965 -0.0010544974 -0.0038268473 0.0047927946 0.0015327074 -0.0064999526 -0.00011426583 -0.0020685475
20 0.0051613487 -0.0008950699 0.0059891427 0.0015220903 -0.0029925937 0.006373561 0.0023043249 -0.003101592 -0.0043748766 -0.0024134899 -0.0040113833 0.0026875949 -0.007252058 -0.004547541 0.0026103305 0.00015441421 0.0046836734 -0.0028168587 -4.6677887e-06 0.0019335952 0.0042661373 0.0012588967 0.007668824 0.0029048538 -0.005611077 -0.0010984959 -0.0065376014 -0.004161776 -0.0017151544 -0.0075841015 0.007261945 0.0015874747 -0.0009071734 -0.004299771 -0.006648306 -0.00773709 0.006987801 -0.0019526761 0.0035877945 -0.003529191 0.0077797333 0.0028552506 0.000801323 -0.003159456 0.0009457981 -0.0020678155 0.005742764 0.0034986353 0.00077084545 0.0027211625 0.0029018363 -0.005301074 0.0069771586 0.0013564304 -0.0045214565 0.0067630336 -0.0010089669 0.006396123 -0.001177243 0.005459103 0.0021299971 -0.0034060385 -0.0029280689 0.00718108 0.0012436453 -0.0046929773 0.00027314294 -0.0015331237 0.0012379102 -0.006029154 0.005768818 0.0010251766 0.0061524976 0.0034789406 -0.0034327125 0.002931782 -0.0004988164 -0.0077001946 0.0064391643 0.007538573 0.0075417114 -0.0029685972 -0.0066012684 0.003771644 -0.0059808446 0.0066656657 0.0021564458 0.0043776073 0.004778511 0.00036313105 -0.0016366364 0.0006040409 0.0076843426 -0.005566044 -0.0012128549 -0.0018426105 0.0038015684 0.005039093 -0.003228156 0.0028309915 -0.0035008807 0.0025550518 0.0063816197 0.00283485 -0.0035725087 -0.0023509096 0.006145629 0.0075031724 0.0045446046 -0.0025578402 -0.001426002 -0.0048885886 -0.0033559175 0.0026362203 -0.0050685517 -0.0051688757 0.0063370466 0.0074261418 0.0063598314 0.0011800267 -0.0068717888 -0.005935286 0.0012281863 -0.0074434616 -0.005789226 0.0015813466 -0.0022821631 -0.0071539143
21 0.005012057 -0.0069930796 -0.0057386504 -0.0013680812 0.0013265694 -0.00080798473 -0.0040658386 0.00514004 0.006861571 -0.005790701 0.0076605985 0.0057551935 -0.0058286916 -0.0014843419 0.0033219047 0.0055153165 -0.002862255 -0.00544772 0.0036912775 -0.0070614116 -0.0045705494 -0.0010027196 0.004281967 -0.004442923 0.0037381137 -0.00033980142 0.0020837998 0.0050030695 0.0011075241 0.006022324 -0.0002518762 -0.0064560184 0.0071707023 -0.003795471 0.0036889892 -0.0030490495 -0.0057261866 -0.005088007 0.003654167 -0.0005151816 0.0011408357 -0.0069752177 -0.004020744 -0.004730018 0.0065724906 -0.006794869 0.0039256597 -0.00067293085 0.00014795084 0.006874811 -0.002801123 -0.0054197954 0.00059654657 0.00604909 0.0071256747 -0.0028786808 0.0021350058 0.0038614152 -0.004134413 0.005353543 -0.005041383 0.0016412837 0.0035837954 0.0034258692 -0.0036455346 0.002064392 0.005710909 0.0067278817 -0.0074316645 0.0043552713 0.0038812999 -0.0012459047 0.0071772533 -0.0032664146 -0.0013661897 -0.0053619593 -0.0029505277 0.00018959027 -0.0025558854 -0.004232237 0.005131933 -0.004142856 -0.004938774 0.0059695058 0.0075399876 0.0031210305 2.0567328e-05 0.00061663426 -0.00075121317 0.005361447 -0.004885152 0.0003965702 0.0033532418 -0.0016495418 0.0006983457 0.0028985478 0.007585979 0.0016998127 0.007422002 -0.004554565 0.003750517 -0.0028346702 -0.0033318829 0.0009529358 -0.003224453 -0.004396229 0.0024554795 0.006513795 -0.0051138 -0.0071202675 -0.0026029432 0.005880653 -0.007569544 0.0074986545 -0.00032675546 0.0018006284 -0.0014450476 -0.0045016473 0.0024224184 0.004839913 -0.0055100825 -0.0009166533 0.0012182975 0.0033195093 0.005579179 -0.002770856 0.005683897 -0.004352321
66 -0.0017147074 0.0070974706 0.00420494 -0.006628951 -0.001293472 -0.00690486 -0.001282718 0.0044184513 -0.005795545 0.0043047415 0.004757859 -0.0029456867 -0.007543605 -0.001967826 -0.0019945493 0.0029363567 0.006969285 0.0015592985 -0.0016496377 0.002319974 -0.0053154053 -0.00101043 -0.0011587767 0.007503801 -0.0045387214 -0.005500189 0.0018446473 0.0020584138 -0.005582791 -0.004591995 -0.00092423614 -0.0025803316 -0.007012289 -0.003163687 -0.0023169955 0.0050802073 0.000760857 0.0012490712 0.00021745265 -0.002643858 0.002423726 0.0005559884 0.004674092 -0.00060564 -0.006954114 0.00068965275 0.007752984 -0.004100916 -0.004075364 -0.0019677738 0.0067058196 -0.0006497223 0.0073580993 -0.006512586 0.007044564 -0.0075883763 0.007187156 0.0014630575 0.0020784754 -0.0045770323 0.0065931138 0.0047215866 -0.0042868266 -0.0074209524 0.005444064 -0.0043249456 -0.007282283 0.0020291852 -0.0038890708 -0.0057500396 0.0076019987 -0.0012389254 -0.0011804793 -0.003151956 -0.0034366036 -0.0036167074 -0.0043716514 -0.004142034 -0.0062674237 0.0074365977 0.0049992697 -0.0028177295 0.001936283 -0.005970699 0.005877423 0.0064880745 0.0006167423 -0.005338274 -0.002310725 0.0036984133 -0.0022963937 0.0024816198 0.0073505593 0.003400864 -0.004019906 0.0042711664 -0.0022493685 -0.004995266 0.005474845 -0.0072296355 -0.00088332593 -0.0010822974 -0.0065749586 -0.00086124986 0.0043728575 -0.0041153533 -0.0054891687 0.0048439596 -0.002676906 -0.006109028 0.00022919569 -3.8907863e-05 0.0058913333 0.00044476707 0.006158171 -0.007666236 0.0031509902 0.0048578987 0.0008042529 -0.002215946 0.0008020429 -0.00065556355 -0.006334585 -0.0052995877 0.0009376211 -0.0015764637 0.0074604833 -0.00074173976
96 0.004780231 0.0015985454 0.0063278824 -0.0072582187 0.0018693199 -0.0011337949 0.0016835937 -0.00017171819 -0.005187993 0.007070669 -0.0022214046 0.0014955578 -0.0050325766 0.002901733 0.0078092227 -0.0009345738 0.0051407954 -9.712577e-05 0.006193892 0.007539789 -0.00030569267 -0.001326831 -0.007438762 0.0077147447 -0.0019788798 0.0017103059 -0.0013272548 0.006505741 0.0065185763 0.0012006918 0.0022544265 0.0050266134 0.0017560162 0.005034622 0.00011464115 -0.0017855242 0.004146292 -0.0026681833 -0.0020434456 0.0068685384 -0.007152104 -0.0026669083 -0.0022844747 0.0044288514 0.006205857 -0.005040318 0.0045269774 -0.00017005671 -0.007056142 -0.0019083349 -0.0012377594 -0.0035006413 -0.0006201416 -0.0040925266 0.0046410896 0.007268266 -0.0012403633 0.0026380802 -0.0005843872 -0.00054658763 -0.005477001 0.0011382066 0.0030489787 0.005398494 0.005108469 0.0027629714 0.0036419304 -0.005806336 -0.0010832027 -0.0045176893 0.005313318 0.006114565 -0.0033390792 0.0009012949 0.003991722 0.0014136601 0.00061399676 -0.00526575 0.0076817805 -0.0056716427 -0.0047138706 -0.0044266265 -0.0049593467 -0.0027273912 -0.0073439805 0.0009204168 -0.002929871 -0.0019931933 0.004519485 0.002773814 0.0014225924 -0.0010734769 0.0077167796 0.00022387505 0.0039183246 0.007060742 -0.0076301396 -0.0071526347 0.007752209 0.0021381155 -0.0014731102 0.003690675 -0.0033714091 -0.004998155 -0.006451099 0.005632906 -0.0019135717 -0.005893099 -0.004617489 0.004824627 -0.001937258 -0.004801398 -0.0012640478 -0.0011512125 -0.0025428468 -0.0016322173 0.0032076044 0.0011301562 -0.0027268296 0.0021034172 0.0040851114 -0.007180321 -0.005904951 0.004919037 -0.0069828946 0.00041267462 -0.007026421 0.0065389285
94 -0.003354326 -0.005172264 -0.0010810709 -0.0008700583 0.0058851764 0.007116816 -0.00027404074 0.0021043578 0.0037009353 0.00011152681 -0.0045156265 -0.00046439003 0.0017054491 0.0064857136 -0.0028065043 -0.0076918323 0.0042054113 0.0076646013 -0.005511543 -0.00045508333 -0.003956667 0.005027364 0.007544768 -0.000260205 0.004015973 0.0051083444 0.0034445645 -0.006274401 0.0024239402 -0.0011612391 -0.0016883435 0.0042203777 -0.0010289531 0.0077558355 -0.0004993584 0.00020596012 -0.0017919056 -0.0066511678 -0.0076649617 0.0038677854 -0.0051725274 0.0023167944 0.0021674866 -0.0054740487 -0.0024500135 -0.0045371577 -0.006691059 2.9817224e-05 0.007646137 -0.005215533 -0.0034076981 0.006508068 0.007264463 0.0076682856 -0.0077283727 0.0039437143 -0.005189134 0.0053748786 0.004797577 -0.0026371935 0.0053782314 -0.006145619 0.003554348 0.0035784151 0.004627564 0.004593361 -0.0020807404 0.0030434392 -0.004772287 -0.0050460715 0.0021429816 -0.0073954593 -0.00023366511 0.0008524507 0.0062534856 -0.00546999 -0.0018148078 -0.0032079192 -0.0040843273 -0.00036866218 0.0036025112 -0.00389212 -0.0012856694 0.006762796 -0.0010222159 -0.0027904809 0.0058059655 0.00095250364 -0.00026599504 0.007390449 0.0063481303 0.0026701987 0.0026236363 -0.0017849319 0.006323844 0.0039538173 -0.0042388625 -0.0047883894 -0.00046824384 -0.006187856 0.0026302421 -0.007206577 -0.0012066932 0.0026220111 0.0023795506 0.0024685636 -0.00708099 0.0026712362 0.004176826 0.0027093207 0.006088216 0.0012933975 0.0048986087 0.006902433 -0.0007364508 -0.0006275326 0.001739854 -0.0058855433 0.004397153 -0.0039063403 -0.002555537 -0.0014317324 0.0064189583 0.0017550047 -0.00070909876 -0.0022228714 -0.001649959 -0.0010045329
36 -0.003971031 -0.0032252595 0.00014644116 0.003558335 0.0014032377 0.005392721 0.0004997775 -0.0025190068 -0.0057604006 0.0046929736 0.0054452606 -0.004733051 0.0036593657 0.0074207364 -0.0049849097 -0.002247612 -0.0071017975 0.002521962 -0.002687703 0.0015970403 0.007374594 -0.0065288534 -0.00727582 0.0013411576 -0.006276886 -0.0070839897 -0.0073087662 -0.00022531208 -0.000860706 0.00058106706 -0.0010467367 0.007062462 0.006865415 -0.0049666604 0.0067936303 -0.0070532095 -0.0010456471 0.001984247 -8.606911e-05 -0.002969413 0.00036627334 0.00078557245 -0.0073507586 -0.0038202219 -0.006024109 0.0029742913 -0.00069132727 -0.0058465498 0.0044028563 0.00018573273 0.0021077236 0.004242845 -0.003304909 0.0061288625 -0.0061388304 -0.0026898133 -0.0057550874 0.0007609576 -0.0057736514 0.007080226 0.00432365 -0.005649289 0.0048237694 0.005159596 -0.0057931915 0.0036365548 -0.0060324203 0.0072817737 0.0036643827 -0.00017894618 -0.006985748 -0.0006989259 -0.00021171849 0.0007083593 0.006767394 -0.0021688798 -0.006782826 -0.006901359 -0.00082620885 0.0010717697 6.815232e-05 -0.001721045 0.006677786 8.315127e-05 0.005014587 0.0031179907 -0.0056274906 -0.0016590916 -0.006075304 -0.0052793967 -0.002464042 0.005168123 -0.00065173954 0.0069407476 -0.0017904565 -0.0041439952 0.0030588321 0.0017316202 -0.00021904893 -0.0019163135 -0.004689481 0.0031544287 -0.0059465384 -0.006958234 -0.007157443 0.0065531787 0.0031254562 0.0055407546 0.0077266395 -0.0056451857 0.0031472696 0.002204013 0.004808425 -0.0026468383 0.007289542 -0.0045308005 0.005493914 0.0054294877 -0.0003062226 0.0039531123 0.0051911334 0.0012058942 0.0057566576 0.0018817773 -0.0011881012 0.0057768766 0.0036619902 -0.0024783127
68 0.0012860261 -0.00010936521 0.0038775448 -0.0042284634 -0.0032692272 -0.00073277485 0.0029858472 -0.0051418385 0.0061294 -0.0024123741 0.004484359 0.0022375295 0.005330066 -0.0034892699 -0.0025016041 0.0023884708 -0.0021678247 0.0046425974 -0.0046517393 0.002024726 -0.0005646618 -0.00047989842 0.0019832132 -0.0017072642 -0.0033261878 -0.006681715 0.0019439692 0.0041599283 -0.00458376 0.007116493 0.0031534638 -0.0040433016 -0.0010259598 0.0030674795 -0.005472976 0.0016057249 0.0043020044 0.00488659 0.0042395256 0.002859395 -0.0021500671 -0.004748828 0.0063749384 -0.0057044104 -0.0012656823 -0.002549815 0.005069308 -0.004904245 0.00265274 0.0015996285 -0.0031867316 -0.006439602 -0.006279473 0.0027387897 -0.007469747 0.004458436 -0.0022753347 -0.0071664536 -0.004012592 0.0060502114 -0.0013448531 0.0050047934 -0.0072472943 -0.007145728 -0.0040642014 0.00074393675 -0.005605949 -0.007379707 -0.0069419285 -0.0003617294 0.0057918057 -0.006545772 -0.0041664215 0.0011855494 0.0025932295 -0.0066079423 0.006146688 -0.006419043 0.0037002368 0.0073557105 0.004422011 0.0048225494 0.006434868 0.002697588 -0.005581608 0.004489897 -0.006494485 -0.0044717686 0.0046138093 -0.006194846 -0.0045862338 -0.0027799718 0.002650828 0.004077888 0.0016056839 0.0039910562 -0.0020524012 0.0033999868 -0.00550656 -0.001297066 -0.006050626 0.0001357859 0.0036704363 0.0037500244 -0.0036369301 0.0013675569 0.006102521 -0.004354546 -0.0029591834 -0.00046682823 -0.0036873128 0.006794422 0.005892288 0.00720423 0.0073147546 -0.0066022174 -0.0003747968 -0.0059424853 -0.0037576305 -0.0069060205 0.0026685735 8.316338e-05 -0.005402875 0.0062211594 0.00074451603 0.00023325905 -0.0027844263 -0.0026145363
80 -0.002064404 0.0059548244 0.0018707756 -0.0040397896 0.0036952654 0.0007738257 -0.0021352721 0.0060230074 -0.0030837804 0.005805875 -0.0032933084 -0.0057472363 -0.003512917 -0.0030457014 -0.0005503148 -0.0014410233 0.0039931387 0.0042582564 -0.0013584653 0.002916948 -0.0015847385 0.0005739108 -0.0010675294 -0.0019240817 -0.003685018 -0.003329521 9.9236146e-05 0.0012886319 -0.0073818043 0.004747154 -0.0013129823 -0.0023237336 -0.0037453705 -0.0033723041 -0.0037504677 -0.0076593524 -0.00060735457 -0.0060878024 -0.0037593944 -0.0057617035 0.0077622524 -0.0010592928 -0.006058002 0.004309914 -0.00630184 -0.0014939727 0.0021370826 -0.0055305827 -0.0068230676 -0.0051887287 0.005834643 0.007076326 0.0031183576 0.0018778779 0.003232696 -0.0031800233 0.0076234667 0.0053822817 0.0032138545 0.0069913194 -0.0065576276 0.0007297555 0.0069470387 -0.00073369965 -0.0052639656 -0.0017724857 -0.00217845 -0.0019517392 -0.0014407681 0.0056895847 -0.00023474172 0.0033143265 -0.0029308833 0.0064315423 -0.0050798096 -0.0072955294 -0.0032339739 -0.0057545304 -0.0038098553 0.00038656034 0.0018631658 0.0013592718 0.0039121713 -0.0010903478 0.0017829686 0.00027456507 0.006129221 0.0062709283 -0.0015417906 0.0009823693 -0.0047124308 -0.003717646 -0.0054459563 -2.4754554e-06 -0.0038396092 -0.0031611696 0.0011755498 0.0020390684 -0.0071236026 0.0013651643 0.0040079765 0.0032504406 -0.0022710627 0.007406718 0.0073822467 -2.1225773e-05 0.00066820066 -0.0072252117 -0.0037538363 -7.929746e-05 0.0031589773 0.0001237914 -0.0068161227 0.0045428677 -0.0057930294 0.00668264 0.0043096766 -0.005293317 0.002220693 0.0060299076 -0.0047726855 -0.005114776 0.007186747 0.0014099935 0.0075862883 -0.0077395597 -0.0011729766 0.0053904913
87 -0.0011431109 -0.0013723252 -0.0055304794 -0.0044263825 -0.0050946167 0.0069713015 -0.0012380322 -0.0064714802 0.0062624663 -0.0023131948 -0.0010406291 -0.0005279742 0.0022084499 -0.0036849845 -0.000201419 -0.0022230586 0.006856203 0.005374141 0.0008590184 -0.004739292 0.0024473527 0.00088788103 -0.0047846716 -0.004494 -0.0024192054 0.0018644547 -0.0063398564 -0.003899877 0.0063269734 -0.0028846161 0.0062171305 0.0004185997 -0.0043237284 -0.0038782023 -0.00016811118 0.00358803 -0.004752716 -0.004303281 -0.0053210864 0.005270672 -0.0018779458 0.003137541 -0.0012706164 -0.0057933377 -0.00099089 0.00031492487 0.002801869 -0.0067781303 -0.0053166896 -0.005122587 0.002337725 -0.0029235603 0.00079463795 0.003247694 0.0035303347 0.0018481389 -0.0022445936 0.00050050486 -0.0042122426 -0.0049630683 0.006809162 -0.0031645922 -0.007279684 0.002915009 0.0066048196 -0.00014709402 0.0017693285 -0.0027712472 -0.0032753153 -0.0067342464 -0.006135159 -0.007093151 -0.004664532 0.0066311685 0.0073723914 -0.0013119001 1.1934899e-05 0.0061350437 0.0009863721 -0.0040197438 0.0020531658 0.0014107702 -0.002911238 -0.0038204296 0.0075341575 0.005975576 -0.0066954233 -0.0043165125 0.0011104774 0.0007149186 -0.006524222 0.0072876327 -0.0042045303 0.003594773 0.0072118044 0.00085179135 0.0032973317 -0.002121482 -0.007564334 0.00046864804 -0.0008467864 -0.007750554 0.0054731388 -0.0057703033 0.0040006684 -0.0034515774 -0.007180528 -0.00708065 0.0048700776 -0.004090108 0.004103802 -0.0012328811 0.0075785676 0.0055963313 0.0077271517 0.00654752 -0.0061449083 -0.0074898936 -0.0043521775 -0.00062659103 0.0039126445 0.0028670486 -0.0015822081 0.003942861 -0.0026558945 -0.0053232657 0.0036801025 -0.007699428
22 0.0006952053 -0.0039159246 0.0059335055 -0.0029031243 0.0022007683 -0.004888081 0.0075118905 -0.004367494 0.002788635 0.0025312547 0.0069777835 -0.0043479865 -0.003416852 -0.0048617683 0.004804562 -0.0035805637 0.0037587825 -0.0006969087 0.0056818184 -0.004715885 -7.6708384e-05 -6.846711e-05 -0.006673945 0.0068276403 -0.0016442109 0.0050275354 7.1463175e-05 0.0039275037 0.0017294111 0.00691392 -0.006507504 0.00658858 0.0067571895 0.00082871784 0.003455651 0.0029957145 0.0031685904 -0.002301895 0.0022223135 0.000598846 0.0037705507 0.0065727336 -0.006051652 0.00011906028 -0.006822046 -0.0012302045 -0.0070564514 0.002470973 -0.0012323717 -0.00054579694 0.0050211605 -0.006326951 0.0008981051 -0.001891559 -0.0029144827 -0.005689798 -0.0062309373 0.006478495 -0.0058108177 0.0037637856 -0.0029584356 -0.0009482736 0.002194725 -0.0067066113 -0.004418047 -0.0060464386 -0.0073519815 -0.0037122564 -0.0024689864 0.00037946366 -0.0005448563 -0.006153497 -0.0029588426 -0.0021424452 -0.004988038 -0.004983017 -0.002037446 -0.0061864145 -0.00645292 -0.0059263194 0.0027766228 -0.00592848 -0.002899032 0.0051786564 0.00578091 -0.0049983775 0.0053111725 -0.006071154 0.000102975406 0.005169185 -0.0022185678 0.0072032968 -0.0002535591 0.003659809 0.0054315636 -0.0066724634 -0.0047425237 -0.0056995694 -0.0009148065 -0.005538691 8.537248e-05 -0.006284089 0.00039879978 -0.00030397996 0.005056422 -0.0069387853 -0.002479259 0.00460809 0.00721437 -0.0013946705 0.0006072251 -0.0047613354 0.0006415015 -0.0063589653 -0.0059676645 0.0010804124 -6.3625164e-05 0.0043450342 -0.0076067485 0.0012930855 0.0012305332 -0.004099683 5.5569224e-05 0.0047328565 -0.005156152 0.00022591744 0.0030430937 0.0013323883
74 0.0022347625 0.006370806 0.0052267434 0.0027391035 0.0062310966 -0.0059897015 0.0058854567 0.003038684 -0.0046102433 -0.0032750946 0.004995222 0.004531393 -0.0077034375 0.0009749718 -0.00031297375 0.00063569285 0.005529564 -0.005603846 0.007532131 -0.0073887175 0.004859061 0.0074190106 -0.002988766 -0.007338157 0.0048313197 -0.007003017 -0.0064806696 -0.0006481474 -0.0051909722 0.0068341717 0.006134037 0.00064749736 0.0062515894 0.007691171 0.0040545324 0.0033740764 0.0042013004 0.005010457 0.0036942465 0.0049892114 -0.0058201235 0.006921972 0.006470708 0.0073269755 -0.007045171 -0.002692978 -0.00026738457 0.0032554036 -0.0064195106 0.00013132207 0.0047073606 0.0074806614 -0.0022203755 0.0014265506 0.0049409447 -0.0015620291 0.001528522 -0.0072850697 0.00055504125 0.003577305 0.0035142219 -0.0076145763 -0.0040229317 0.0023208978 0.0012434758 -0.003672069 0.0045463108 0.0027435673 -0.00611315 0.0076846853 -0.0060287463 -0.002367247 0.0076116016 0.00089342706 -0.004332115 0.00088017434 -0.0031964323 -0.005267591 -0.0060611777 0.0037173117 -0.007056933 0.0031729117 -0.0043170815 0.0042405343 -0.0034105526 -0.0043622795 0.004961905 -0.0067541488 0.0010413919 -0.0016605267 -0.0052233934 -0.0059806844 0.005278983 -0.003488076 0.0035827346 -0.0075473497 0.001490077 -0.0015273606 -0.0046078917 -0.0021769153 -0.006763323 -0.002715148 -0.0020141453 -0.0017881282 -0.003989555 -0.007183646 0.0041746926 -0.001016004 0.0048231147 0.0024017906 0.0066790907 -0.0027467124 -0.0069490885 0.0010415772 -0.0070214598 0.004720917 0.0065957606 0.00039222743 0.0060175713 0.006669718 0.0032818057 0.004230447 0.0071317116 0.0008961968 -0.006446059 -0.006504529 -0.0013928022 -0.00048896763
81 0.0068916585 -0.0072740437 -0.0020257067 0.0071196286 -0.0011267513 -0.007091325 0.0015740292 -0.0045618396 -0.00428319 -0.004954867 9.8496675e-05 0.00564461 0.003218214 0.0063698636 0.0069123143 0.0035320316 -0.004727494 0.0055224365 -0.0074432204 -0.0037431847 0.0062502753 0.0061778044 -0.004235833 -0.0062321667 0.006308889 -0.0029782224 -0.0031760866 0.0056128222 0.004237364 0.0029826108 -0.0009606611 0.0067726616 0.0066032475 0.005448268 0.0070831245 -0.0045140954 0.0007802313 -0.001274026 0.004953075 0.007639218 0.0040371325 0.0031716907 0.005103345 0.0045922743 7.995777e-05 -0.006518202 -0.0016955063 0.0070898654 -0.0039687175 0.00078820623 0.0038083605 -0.005412508 0.00639912 0.0011511296 0.0018966794 0.006490429 0.0011379886 0.00069504045 -0.007362608 0.00770502 -0.007707851 0.006680183 0.00394738 -4.4190325e-05 -0.006151029 0.0072981706 -0.0010765921 0.0041770535 -0.0023670103 -0.0038319249 0.00012811925 -0.006273591 -0.005188429 -0.0073869927 0.004179622 0.0003351625 -0.00071545783 0.003983764 -0.0015393281 -0.005769346 0.0022410005 -0.0046575125 0.00038210675 0.0074035265 -0.00074578077 0.004796952 0.0034868391 -0.0027614757 -0.004083094 0.00691666 0.0016443944 -0.00035344902 0.00069953036 -0.0038447836 0.0027633728 -0.002421745 0.0032920958 -0.0035598287 -0.00061947014 0.003048487 -0.0055853687 -0.0019709058 -0.0068139173 0.0012158062 0.0015708581 0.0018807193 0.00084428955 7.047411e-05 0.0017288662 -0.00073922146 0.0046262583 -0.0023081796 -0.0039725667 -0.00416225 -0.0075538186 -0.006338219 0.0016546715 0.003112889 -0.0045123072 -0.00756385 -0.004808902 0.0036471812 -0.0070866607 0.003969216 0.00496237 0.004781943 -0.005961502 0.0022131726
26 -0.004260092 0.007068052 -0.0033692904 -0.0018368512 0.0040790504 -0.0006432757 0.003978719 -0.003296867 0.0038914876 -0.007652357 0.004746044 -0.0009713955 -0.0043805 -1.5791506e-05 -0.00095593557 -0.00056406576 -0.0013763737 -0.0072446847 -0.0060962467 -0.0053126086 -0.006740761 -0.0035445169 0.0071781995 -0.0014157249 -0.0059350245 -0.004604589 0.002816598 -0.0021224646 -0.0012177862 -0.0033233361 0.004657737 -0.006118832 -0.005857651 0.005879525 -0.005437933 0.0016849665 0.00028902944 0.0075528724 0.0033130245 0.0016149273 0.002152754 0.0017996002 0.0017186347 -0.0021266742 0.0031962395 0.004765792 0.006982425 -0.00058471784 -0.0009548599 0.005052277 -0.0066132173 -0.0005126903 -0.005213473 0.0037369588 -0.0069900323 0.0025389092 0.007034952 -0.0016152291 -0.006898433 -0.0063895583 0.0025359895 -0.004176705 0.0050372323 -0.0009288052 0.0061356816 -0.0003930237 -0.0048567113 -0.0044542756 0.0006007515 -0.0037325146 0.005126126 -0.0027489588 -0.004395932 0.0007448569 -0.0038043335 -0.006415453 -0.0040998915 -0.0014544642 0.000340553 0.0028425353 0.0053663226 0.0052562235 0.0045791874 0.0002502259 -0.004548042 0.0070309276 -0.0005099932 0.003679716 -0.001112828 0.00452982 0.004142995 -0.0057009943 -0.002142679 8.5103326e-05 0.0015894976 -0.007257565 0.0037805848 0.0026344676 -0.00013588276 -0.002732291 -0.0059411433 0.005934418 -0.0067212386 -0.0057689017 0.0034778574 -0.0066495547 -0.0025657387 -0.0016332474 -0.0014865464 -0.0053400705 0.0033566607 0.0007803608 0.0028567119 -0.001037756 0.005417986 -0.0074481145 0.004567357 -0.0040089386 0.0013306895 -0.005422703 -0.0019384567 -0.005022536 -0.0026179617 0.007601195 0.0021013413 0.0012541711 -0.0047529927 0.0043538855
49 -0.006350482 -0.0017917762 -0.0050534457 -0.004986138 0.0017945506 -0.002567743 0.0018985001 0.0030597178 -0.0048984494 -0.0013632057 -0.0021581976 -0.0076533686 -0.0076864026 0.0008671945 0.0034225564 0.00018163305 -0.0038062464 0.0028342064 0.0013192389 -0.0073762573 0.005615969 0.0060727755 -0.0060402825 -0.0005972544 0.0047119623 -0.0021722373 -0.00026337523 -0.0032967487 0.0047770543 0.0054652793 0.0016298806 -0.0036715288 -0.0014297748 -0.0031240527 -0.00763042 0.0061023375 -0.00047829282 -0.0004719235 0.005534853 -0.00705955 0.0049424795 -0.005910501 -0.0041860985 0.003965307 -0.0027301721 -0.0027242117 -0.004928195 -0.0030546049 -0.0020785825 -0.003199203 0.007385931 0.0073862635 -0.00029810704 -0.00022218004 -0.004407672 0.0061856145 -0.0038629249 0.0046018977 0.0071194964 0.004495835 -0.0007407414 0.004328795 0.0054257875 -0.0030318648 0.0005224198 0.005069362 0.004585943 -0.00013857521 0.0018594526 -0.0050889617 -0.0073127775 -0.0038653258 -0.0042092884 0.00045861397 -0.003100182 -0.00028874073 0.0059644943 0.0076060053 0.006153032 0.0018665763 -0.0021197898 0.0018997807 -0.0021014977 -0.006992301 0.0053851884 -0.0067566717 0.0029591247 -0.0030908082 -0.004330514 -0.0008152975 -0.0051273284 0.0067063356 -0.0053733857 -0.0070004268 0.0045048892 0.003487506 0.00369645 0.001896048 -0.0029105525 -0.003997891 0.0013844958 0.0065207537 -0.004415841 -0.0018612836 0.0014440315 0.005251713 -0.004997967 -0.0035373075 -0.0020613829 0.0010428363 0.0041963113 0.004335447 -0.0068042995 0.005681726 -0.0019548628 -0.0022208123 -0.0069207465 -0.004511783 0.007381724 0.002412133 -0.0062834118 0.0021932824 -0.0055255927 -0.007076473 0.003020144 0.0015913816 0.0009801947 0.006911192
47 0.004891173 -0.00396143 0.0021311166 0.0019883616 0.0018733013 0.0065102 -0.0054011066 -0.0017964309 0.0007882416 0.0049826223 -0.00050682295 0.0061938427 -0.0036343094 -0.007055781 -0.0055110147 -0.003232574 0.0074869525 -0.004005676 -0.003787782 0.006385533 -0.0058251442 0.0015701251 0.004465659 -0.0058830753 -0.00020545069 -0.0018501477 0.004348143 -0.0035628537 -0.005159991 0.007727921 -0.0036118347 0.0059408303 -0.0066052834 0.0054823 -0.0026482558 -0.0061053596 -0.00091483165 -0.0018518772 -0.0014207466 -0.00091980863 -0.005091493 -0.0027694423 -0.0024979198 0.0060330424 0.0045835245 -0.0006986344 -0.00376294 0.004134613 -0.006904402 0.0012886636 0.003133595 -0.0015216367 -0.003534629 -0.006427886 -0.0064745424 0.005568267 0.0028414857 -0.00030188914 0.0075865192 -0.0066751065 0.0004603695 -0.00034710672 -0.006305052 -0.007109248 0.0056162206 -0.002838198 -0.0061726924 0.00621303 -0.004886154 -0.0024389504 0.001387204 -0.0026182914 -0.0062224353 -0.0030634906 -0.0070422823 0.0010919981 -0.0036161728 -1.5689991e-05 0.0021282416 -0.0018539606 0.0068891933 0.0055019874 -0.00043038186 -0.00049610157 0.0006643338 0.005273695 0.0069909263 -0.0015062485 -0.0012441836 -0.0023218477 0.00039300416 -0.0050585754 -0.0014589652 -0.0067563253 0.0005140938 0.0011204723 0.0029123817 -0.00224528 0.004633258 -0.005529564 0.007669299 0.00041648373 0.0017933715 0.0034033107 0.00032762624 0.0020278841 0.0012614429 -0.0075132465 -0.0024589412 -0.0020270124 -0.0072365785 0.0026838444 0.0037498418 -0.0016261851 0.005795018 -0.0009459518 -0.0002177069 0.004517528 -0.006619732 -0.005399105 0.005743134 -0.0051424466 0.006615582 0.0041796872 -0.0062861824 0.0065633664 0.0049361214 -0.0052459417
40 -0.0066115055 -0.0069020763 0.0029931376 0.004950625 -0.001667751 0.0010479186 -0.006557514 -0.0039995117 0.0036751851 -0.0070811305 -0.007216569 0.00078759156 -0.0067069447 -0.005420236 0.0037133517 0.0062543405 -0.005749359 0.006332894 0.0073276293 0.0036811708 -0.003443175 0.0075548813 -0.0060368953 -0.003039658 0.0015109302 -0.0059621213 -0.007713847 0.002237576 0.006391477 -0.003994841 -0.0033523422 0.0030541858 0.0005411096 -0.0066679446 0.0051201135 -0.0024622139 0.0027992697 0.0024630176 0.0069358572 0.006827049 0.005712062 -0.006474669 0.00094434526 -0.00075325463 0.00068525504 0.006971405 0.003726284 -0.0069722207 0.0076654833 -0.0006962456 0.00031132624 0.0038720025 -0.0048554298 -0.00031628367 0.0010748161 0.0055087926 0.0033444883 -0.0015148837 -0.0066151675 -0.003030437 0.0068586376 -0.007414952 0.0076928623 -0.0001201313 -0.0008831313 0.0075033093 0.00747859 0.0064620255 0.0070305383 -0.007800497 0.0058631236 -0.0073143877 -0.0060254643 -0.00689697 0.0016856128 0.0056110835 -0.0049258173 -0.0021205498 -0.0018418729 -0.0034982553 -0.0010250108 0.0037937546 0.002900511 -0.002531413 -0.002900431 -0.0018282495 -0.0025222674 0.003087921 0.0076112533 0.0061359834 -0.0059059868 -0.005038062 -0.007134323 -0.004632893 0.0028400756 -0.0047025494 0.0013244767 0.006942612 0.0026062224 0.0009303782 0.0069709215 0.005010416 -0.001124613 -0.00485244 -0.0008254219 0.0056842165 0.0058441656 -0.0031507723 0.0077660643 0.0018764706 0.004006328 -0.0044288794 0.0034211185 0.000200551 -0.0074918168 0.003959382 -0.007038583 -0.0050541908 0.002177217 0.0072521884 -0.0016561849 0.0054523004 0.0039594267 0.0031783078 -0.0048387963 0.0039646802 -0.006490537 -0.0033725956
28 0.0042558163 -0.0063646883 0.0044762865 -0.0027285581 2.081506e-05 -0.0057413112 -0.0048774667 -0.0025867065 0.0067212293 0.004177138 -0.0075761173 -0.0051352335 0.0026794113 -0.006654026 0.005199006 0.00480836 -0.007268916 0.006758265 0.0061261076 -0.0014008628 0.0013920628 -0.0044495584 0.00485788 0.0060171923 0.0031611314 -0.0069230506 0.0038637873 -0.002391087 -0.0017243112 0.0047698123 0.0014416398 0.0036149388 -0.004904736 0.004092586 -0.0027649347 -0.00029969309 0.0048608016 0.003185154 0.005837355 -0.0030605095 0.0027720472 0.005710019 -0.0025675232 0.0044990154 -0.0073536634 0.006908281 0.0029323148 0.0041493243 0.0036315694 0.003567933 -0.002585305 -0.0048517957 -0.0017832294 0.0010823114 -0.0022983085 -0.0066285348 -0.004913236 0.0065168357 0.0072982376 0.0046569267 -0.0032057036 0.00054278784 -0.006700162 0.0052008005 0.00036548357 0.00576296 -0.0041977167 -0.0022243569 0.0022335704 0.0027029756 -0.005113364 -0.005754891 0.0015873797 -0.007039547 0.0045222947 0.00427299 -0.0029827692 -0.004407118 -0.006505158 -0.0014817426 0.005452417 -0.00016368087 -0.0062086014 0.0069457777 -0.0066809645 0.0043436633 0.005053008 0.0007623276 -0.0067910636 0.00482447 -0.006131149 -0.0039201314 0.0075193653 -0.006470423 -0.005959807 -0.003828561 0.0027056187 0.0014956407 -0.0043425914 -0.0025596842 0.0067059007 0.007630937 0.0077458713 0.00081679225 0.0031546876 0.0010670731 0.0013068225 0.003779986 0.0017219055 0.00023480039 -0.002460027 -0.0050974544 0.006241791 -0.0046655955 0.0021744939 -0.000722982 -0.0028506815 -0.0038604634 0.0025157966 -0.004576266 -0.005855308 -0.0020657051 0.0036635771 0.0047219517 -0.0011380259 0.005702043 -0.0059322426 -0.0036974791
31 -0.0061413087 -0.004724304 0.005703765 -0.007250551 -0.006759341 -0.0076676086 0.0071896967 -0.0020820955 0.00077917706 -0.004787119 -0.001979908 5.66924e-05 -0.001953314 -0.005759066 -0.0048382357 0.0019806083 -0.0074174507 0.00089552253 -0.0015534032 0.0064673983 -0.00031078327 0.004854584 -0.005536589 -0.005912273 0.0043330155 0.00073418766 -0.0039768154 -0.0020779604 0.006852463 -0.007169869 -0.0028722752 0.00078318827 -0.00016881619 0.007432511 -0.001514324 -0.0055432264 -0.0059990147 -0.007734794 -0.0061122254 -0.004713172 -0.0046460917 -0.0010978002 -0.00042278972 -0.0036838213 0.0016725911 0.003020213 0.0070548346 -0.003636526 0.0040066587 0.0056671426 -0.0029350538 -0.005808345 -0.0026083598 -0.005384356 0.00507454 0.00733402 0.006463187 -0.0066673215 0.003943571 0.003984372 0.0043974705 -0.0065036295 1.3686717e-05 -0.005332186 -0.00696591 0.0019485848 0.0077579757 0.0050755683 -0.0055214176 0.0018255608 -0.0030496372 0.007754891 -0.0068763234 0.0075978916 -0.005091952 -0.0054737106 0.0012707217 -0.00052556116 -0.0066516567 -0.00047850795 -0.00027993694 -0.00489622 0.0044897264 0.0024800617 0.0065628383 0.005780046 -0.0051885815 0.0037392918 0.004448223 0.00451425 0.0040672775 -0.0037360108 0.003371887 0.0010296507 5.4575503e-05 -0.0050438754 0.0011899881 0.0041131508 -0.0071961507 0.0067243073 0.0023381272 -3.113132e-05 -0.00262798 0.00028127152 0.0047533344 0.0037286626 -0.0046500685 0.0061513158 -0.0004987288 -0.0063744737 0.0069287475 0.003961765 0.0028337138 0.0061793225 -0.0058814734 -0.004555355 -0.0015669242 -0.0032018377 -0.0012515709 -0.00045948848 -0.006550817 0.0014850739 0.0019988855 -0.0006573405 0.0038041063 0.0011446113 0.00467775 -0.0017470866
3 0.0066596614 -0.0012225816 0.002404551 -0.0029585874 0.004788732 0.002404091 0.00042544398 0.006841247 -0.006123013 0.0075897053 0.00061039533 -0.0018393863 -0.0032245908 -0.0071127545 -0.0017349273 0.002100844 0.0051393127 0.00708618 -0.006834843 0.0070756916 -0.0069062673 0.002916229 0.00627149 -0.001959823 -0.006137128 -0.0065121865 0.00090094004 -0.00059518777 -0.007430774 0.002422098 0.0017620791 0.0034785075 0.003460141 0.002526314 -0.0076691685 0.0044799102 0.0033300435 -0.0060519157 -0.0016574059 0.00027672015 -0.0005010562 -0.0007552672 -0.0043289727 1.7903745e-05 0.0034535052 -0.0005318839 0.0006252369 0.0016356017 -0.0031052604 -0.0061467625 0.0071625737 -0.007646134 -0.0019352883 -0.0009892909 -0.0059928764 0.0013839239 0.0062058764 -0.0011846824 0.0063321423 0.00023013353 -0.0045095636 -0.0015486199 -0.00056713447 0.004886791 0.005563086 0.0048462553 -0.0046826033 -0.005452182 0.004759785 0.0019342778 0.0041739233 0.00036300998 0.006145727 -0.0069371667 0.007712581 -0.0064363442 -0.0013328232 0.0049078045 -0.0072119506 0.0033737123 -0.005450979 -0.005346562 0.0017998936 0.0013562674 -0.0021782853 0.0061497763 -0.0054820525 0.00036255736 0.0068216175 0.0015820954 -0.005353458 0.002765337 -0.003929734 0.00046063028 0.0022339309 0.005926653 0.0057672663 -0.0038234526 0.0074376212 -0.0042863423 0.005958016 -0.0062364284 -0.006110359 -0.000868652 -0.0063616633 -0.0027090842 -0.00040179212 -2.9597431e-06 -0.0077824593 -0.00508356 -0.0057950392 -0.0003028987 0.004053672 -6.0898252e-05 0.007781407 -0.003036472 0.006296212 0.004754806 0.006454693 8.317176e-05 -0.0003358554 0.0014782613 -0.007754381 0.007066259 -0.0018656692 0.0058899196 0.0015951088 0.0022652047
88 -0.0009709392 -0.007729632 0.0010929769 0.002254567 -0.007660321 -0.0030480772 -0.0018346189 -0.003952902 0.0030931756 0.0016446682 0.0033874875 -0.005060615 -0.0046897475 0.0036865948 0.0052961353 0.0043179784 0.0037474846 -0.005658862 0.0063773654 -0.005438026 -0.0059907585 0.006645079 -0.001930424 -0.007335228 -0.0024092551 0.004658104 -0.0022604149 0.0038580485 7.9032965e-05 0.0031763725 0.0009257449 -0.0072843386 -0.0028515374 0.0069035683 0.0012032595 -0.004602057 0.0054799365 0.005825121 0.0056601427 1.15558505e-05 -0.0071454197 -0.0027242824 0.004012448 -0.0050807167 0.0076122424 -0.0076331766 -0.0063507045 -0.0041517094 0.0047015836 -0.0059959404 0.006748016 -0.0077084955 0.0027298424 0.0025750212 4.250463e-05 0.0074557774 0.003992643 0.00022523757 0.003764497 0.005006533 0.0023490246 0.007349806 -0.00104596 -0.0065508345 -0.0034969077 -0.0011651265 -0.00567823 -0.0012220563 0.0061989324 -0.0039254883 0.0039847707 0.0033994429 -0.00054605864 0.0008398872 0.0044725146 -0.0051886803 0.0030445019 0.006965354 -0.0027451478 -0.0059486944 -0.0071888287 -0.0070362026 0.0030239457 0.0039974125 0.005499392 -0.0011348473 0.00075661764 0.002384358 -0.007717413 -0.00735425 0.0035855751 -0.00656222 -0.0024825577 -0.0033673178 0.004620701 -0.0026919441 0.0077986056 0.00043457 -0.0040214667 -0.002841617 0.0009826813 -0.0041940706 0.0057767713 0.00704966 0.0033536786 -0.0057390975 -0.004645399 3.949646e-05 -0.000795831 -0.0043176888 0.0061998405 0.0048727915 -0.0032686172 0.001861209 0.0040088054 0.0018827459 0.0066944016 -0.0010087397 -0.0050992146 -0.00065171253 -0.00650212 0.0076903924 -0.006731852 -0.0011745673 -0.0022263015 0.0024604248 0.0038834866 -0.0064348225
63 -0.0034439415 0.0003841156 0.0031245518 0.0039972113 -0.0010819221 -0.00048672967 -0.0061140163 0.0035518259 -0.0059761256 0.0025665723 -0.0026780814 -0.006095472 0.0053779846 -0.0003573168 -0.0074572405 -0.0073249787 0.00046181493 -0.006391518 0.0029205661 0.0027066711 0.0026196074 -0.0043770596 0.006237113 -0.007021252 0.00582569 -0.00049375463 -0.0011509359 0.0030970694 -0.001944148 -0.0034345249 -0.0018883254 -0.004834367 -0.0002750093 -0.0042062877 0.0035971422 -0.0074517354 -0.003399714 -0.007160321 -0.0075133825 -0.0005870033 -0.006315412 -0.004446907 0.0021686703 -0.0011253143 0.0024255374 0.006457147 -0.007523656 0.0047537237 -0.0062079364 0.0051051145 0.005834707 0.006703493 -0.0062121013 0.0026090145 -0.00612674 -0.00097336713 -0.004078334 -0.0066666286 0.0038547358 0.0034641614 -0.003170196 -0.006075328 0.002778463 -0.003072084 -0.006928901 -0.0034279907 -0.0016969005 0.006841462 -0.005044113 0.005728429 0.004783527 -0.0038344814 -0.0013741031 -0.0019569527 0.002439566 -0.00035393052 -0.0021590693 -0.007066909 0.0050268993 -0.0075120237 -0.00675816 0.0010796702 0.0023229942 3.7048012e-06 0.0002891412 0.002022869 0.0014082585 0.0059127444 -0.0026924945 -0.0056510856 -0.006159516 0.0061871987 0.0015205257 -0.0045373878 0.0049931193 0.0066043586 0.0062082857 -0.0053343596 -0.0040167496 -0.0015705768 -0.0051700557 0.0036943937 0.004425342 -0.004684313 0.005624419 -0.0059816837 0.004846018 -0.003613538 0.0015323879 -0.0025557317 0.002648173 0.0060300557 -0.0010894556 -0.0038946774 -0.0066887895 0.0028417595 0.0033054827 0.0052322065 -0.0033513773 -0.0076038977 0.00532931 -0.003534956 0.0034529464 0.006292604 -0.0030803233 0.0012766989 -0.002804027 -0.0051669898
27 -0.0044408897 -0.00010671094 -0.005869746 -0.001559223 -0.0019436851 0.0052409684 0.0010654256 0.0045720283 0.002983844 -0.00274722 -0.003977713 0.007547885 0.005523747 -0.0070658056 0.004098268 0.0064008078 0.0071814843 -0.0062927026 -0.0015727924 0.0008480456 0.0022721682 -0.0012671547 -0.0036757234 0.0050534513 0.0054160766 -0.00030459184 -0.004564954 -0.0034154393 -0.004022558 0.0033252332 0.00040135905 -0.001843486 -0.0070975833 -0.0011691079 0.005024489 0.004941404 0.0032996424 -0.0022467952 0.0070715705 0.0004695123 0.0008865027 0.0048241103 -0.0051511647 0.0051048426 0.0076518096 0.0028693452 0.0026815934 0.0032785516 -0.0015206868 -0.006325216 0.0011563236 0.0007067239 -0.0053103883 0.0015307749 0.0042530484 -0.0056077437 0.0019624839 0.006067791 -0.0067353267 0.0027449736 -0.0066911 -0.006200826 0.0055398634 -0.0059104664 -0.0010691788 -0.006194284 -0.0061448384 -0.0055496916 0.00031715725 0.0014022524 -0.006176968 -0.0062883412 -0.002484478 -0.0014253156 -0.0048206747 -0.0033021672 0.0028180154 0.0023993477 0.0051520905 0.0033177212 -0.0006926935 0.0021618763 0.007070304 0.0014907625 0.0014216006 0.00087812543 -0.0072553875 0.0041811904 0.003940585 1.994893e-05 0.007197068 -0.0044672564 0.0025384035 -0.0061029578 -0.006984816 0.0015632529 0.0037069703 0.0047659343 -0.0067871753 0.003400837 0.0018738322 0.00324684 -0.00052697025 0.0043310225 0.005696592 -0.006552291 -0.0077595823 0.0054803966 -0.00074372813 -0.0073239123 -0.0031920979 0.0009306595 0.006583292 -0.0013206713 -0.0007981481 -0.0057536457 -0.005978603 0.0011425503 -0.00036988873 -0.0060158074 0.0006874418 -0.0070222467 -0.0019351821 0.003294738 0.0008726679 0.0061177267 0.0051448243 -0.00092896353
61 0.0038722316 0.0047884705 0.0068216976 0.007092598 0.0038501322 0.003602705 0.0056133037 -0.0012237448 -0.0044138264 0.0069281785 0.00094574597 -0.003949005 -0.0006785067 -0.004085019 0.0071229246 0.0026544733 0.0033449195 0.0050818184 0.0063860714 -0.003735085 -0.004956659 -0.002911278 -0.0029005408 -0.0073783537 -0.00047747977 -0.0063301036 0.007633292 -0.0026604775 -0.0049340446 -0.006331918 -0.002782804 -0.0074643996 0.00061209965 0.0042276615 -0.0022460036 0.0059899827 -0.0014644144 -0.0056791753 -0.002441098 -0.002453521 -0.00554376 -0.007564404 -0.0031771576 -0.0012410572 0.003909504 -0.0059461314 -0.0038861893 0.0010638516 -0.0013090065 0.0027716486 -0.0014644358 0.0033774786 0.006243529 -0.006182707 0.0029425137 0.004674956 -0.00045069586 0.005286442 -0.0042315666 -0.0035751155 -0.0061311256 0.00739918 -0.007349089 -0.00253883 -0.0003388198 -0.0037882393 0.0074000834 -0.0053386427 -0.0062648375 0.0072224494 -0.006483875 0.0075704195 -0.0032012742 0.004427527 -0.00032344367 -0.003122514 -0.0058632996 -0.0049012993 0.0053466186 0.0049389936 0.00012847036 0.004993541 0.0030117016 0.0029954193 0.00209203 -0.00759174 0.007235067 -0.0064098397 -0.002348869 0.0011141337 0.0040999064 -0.007195386 0.0013230937 0.0049675778 -0.0068419585 0.0074650627 -0.004076397 0.0074621662 -0.005098886 0.0051507205 0.0073145255 -0.0072089443 0.00022697542 -0.006039975 0.006350505 0.0074828044 -0.004728446 0.00065849535 -0.0017504478 -0.0060596336 0.00064023864 -0.007737521 0.002042165 -0.0060114535 0.0044452874 0.005915584 -0.0019955337 -0.00313533 -0.007507515 0.0038426416 0.0022742953 0.0068338485 0.0025783582 -0.0022671921 0.0027797297 0.006739944 0.0072131874 0.005972266
97 -0.0066828895 -0.005912223 0.0056727147 -0.005815127 0.0025396952 0.0062692007 -0.0025054803 0.0052806586 -0.006370862 0.005069101 0.004368676 0.0026071155 -0.0063476283 0.0071568433 0.0064284196 -0.0012220507 0.003208924 0.0049800137 -0.00135916 0.0042871106 -0.003151739 -0.0009961063 -0.00094356947 -0.0032512546 -0.0005532922 -0.0060172332 0.0028463406 0.0070765642 0.0037357453 0.004987295 -0.0037000468 0.003798468 -0.0052209143 -0.0038831932 0.007711646 0.005001709 -0.0038969042 -0.004746354 0.0056465548 0.0021139449 0.0051462725 -0.005279177 -0.00075873174 -0.0007389551 -0.00017166603 0.0017354535 -0.005274214 0.0034242775 -0.0021457328 0.006522375 -0.0008059181 0.0071536545 -0.0006557228 0.004071027 -0.0059335576 -0.007109885 -0.0002674507 -0.0017648526 0.0077882037 0.0035368204 -0.0043504145 0.0057539865 0.00046119187 -0.0074628843 0.004466554 -0.0015704259 -0.0073591247 0.006801352 0.005662797 0.0066815186 0.0002835747 0.006002266 0.004051742 -0.0054198066 0.0072544003 -0.0027809814 -0.0076120347 0.00668702 -0.004146699 0.006560277 -0.006135436 0.0072453227 -0.004621028 0.0031240694 0.0076438207 0.0032829335 -0.0016617524 -0.0038712863 -0.007594293 0.0032861661 0.0058092913 -0.0037001735 0.0046257554 0.0053442586 -0.007044471 0.0016391044 -0.0053434204 -0.0033827238 0.0006694086 -0.0054913806 -0.0032334048 -0.0058692293 -0.005490414 -0.0054204213 0.0077455705 0.0065022763 -0.0001441054 -0.0020506615 0.004881733 0.0010462422 -0.007026475 -0.005515334 0.00080314465 0.006198614 0.0024988055 0.0076875323 0.005118818 0.00023045298 0.006759354 0.007031071 0.006296213 0.0073455255 -0.0073301736 0.0027446114 -0.0061038416 -0.00557918 -0.006583011 0.0025019525
60 -8.213334e-06 -0.0049620355 0.0043326076 0.0061751716 0.0033572167 0.006119401 -0.0033421442 -0.0049914615 0.0031087445 -0.0022855764 -0.005605628 0.0028675804 -0.0025956482 -0.0040611727 0.0020538839 0.0053545777 0.005001073 0.00011643674 0.006757858 0.002299348 0.005131402 -0.00070278905 0.0016476763 0.0048154304 -0.00765129 0.0045536896 0.0010054791 0.0047537163 -0.0011293739 -0.0021067932 -0.0043603117 -0.002223744 -0.0020085769 -0.0040211556 0.00075830426 0.0062425127 0.004014359 -0.005976625 -0.0057962034 -0.0022605788 0.0030524721 -0.0072797406 0.004782606 0.0024348842 -0.0022044396 0.007182883 0.0062977206 0.00055841263 0.0037720017 -0.007267867 -0.006865835 -0.002301965 0.00724712 0.0025268337 0.004384836 -0.0052895704 0.003316136 0.00030800235 -0.00070993043 -0.0025366284 0.003878883 -0.0071094334 0.0039978456 0.0044256235 -0.0019003013 -0.003281637 -0.005775124 -0.0049797865 -0.0039899303 0.002459813 -0.0037467582 -0.0009364933 -0.0069711907 -0.0027421126 -0.00061173923 -0.0062059257 0.0025401087 0.0076202294 0.003429872 0.0014591739 -0.0038029198 -0.00088598765 0.0017531188 0.0013573235 0.0068848925 -0.00072945654 0.0054641897 0.004519809 0.0023755655 0.0057207253 -0.0038624713 -0.0030917926 0.0054494618 0.006728567 0.0024647275 -0.003199501 0.00596896 0.0021269452 -0.00017875433 0.0069245463 0.0033645453 0.0030870652 -7.1581453e-06 -0.006972187 -0.0024375431 0.0019023577 -0.004381095 0.0055639856 0.0058172066 -0.0069909124 -0.0042049047 -0.0046755886 -0.00051356666 -0.0014046337 -0.0015962468 -0.0017258171 0.0027887924 0.007511529 -0.0035865027 -0.0064712586 0.002923104 -0.0050469767 0.005223357 0.0020814044 -0.0061425343 -0.0060589826 -0.007226321 0.0018375637
32 0.0021397537 0.0020470219 0.00013612397 0.0008153003 0.0024007726 -0.001219797 -0.006275717 -0.0004864484 0.0028957613 -0.0020264834 -0.001665445 -0.0017580464 0.005678801 -0.002375329 0.0073777903 -0.0030325167 -0.007790475 -0.005117907 -0.0034162635 0.0009724917 0.0040026736 0.0016635507 0.007065545 0.00070368964 0.0044014687 0.0001258459 -0.0016539907 0.0048579145 0.001577585 0.0064528864 -0.00648244 -0.0068375925 -0.00042261835 -0.0014787726 -0.0018341728 -0.0004650904 -0.0039614635 -0.0062657893 0.006448769 -0.0026102774 -0.0022213086 -0.0012853136 -0.00096153095 -0.00717903 -0.0014056768 -0.0010531461 0.006756479 -0.0062190965 -0.0037107049 -0.0014734808 0.0022542877 -0.0047031883 -0.0043339496 -0.0062227715 0.0043219365 -0.00681023 -0.0025376445 0.00022955425 0.0011320701 -0.0077665057 0.006765552 -0.0016057594 0.00027520861 -0.006869684 -0.0063811988 0.0029457817 0.003134828 0.0023321677 0.0045670103 -0.005414188 -0.00097323675 -0.0021284437 -0.0010988722 0.0034980318 0.0010715434 -0.0058120014 0.002530099 0.004887861 -0.0047677085 0.002523207 -0.0033688322 0.0068959063 0.0032267245 0.0015913947 -0.0007963991 -0.0071157776 0.0067614773 -0.0014199307 0.0057616364 0.0029470585 -0.006452156 -0.00048178528 0.0021450985 -0.0020039286 0.0076034237 -0.0038969927 -0.0055973763 0.002966999 -0.0027888864 -0.005381436 0.0015897742 0.0041178456 -0.0042949915 -0.0034222277 -0.005606672 0.0012104996 -0.0037160097 0.0065902406 0.00056420267 0.001455701 -0.0026072683 0.005764991 -0.0005159192 -0.006416005 -0.005736029 0.00016112626 0.0060439566 0.0024118386 -0.004157993 -0.005275894 -0.0076988153 0.0030648345 -0.0074361293 0.002487816 0.0012989696 -0.00064199045 -0.0077758757 0.004597055
54 -6.988831e-05 -0.0077625075 -0.0058855936 0.006694383 0.0014770236 -0.0063911136 -0.0006395597 0.004222797 -0.0072804987 -0.0053710686 -0.00079977233 -0.00762837 0.00037524384 0.001520142 0.006672249 0.0007687267 0.0010177735 0.0038120858 -0.003352549 0.005649071 0.00012533087 -0.00053038634 -0.007576326 0.0003955923 0.0053039873 0.0013757981 -0.006320808 -0.0026008245 -0.0047169514 0.004703166 -0.0050527956 0.004106952 -0.004107631 -0.0053316476 -0.005926447 0.002977511 -0.0068756044 -0.0044611115 -0.0055162003 -0.003372686 -0.0031520445 0.0011605779 0.0050664684 -0.00093499944 -0.004286851 0.0012171092 0.0044032754 -0.004118778 -0.004171565 0.0040389784 0.004895199 -0.006070407 0.0064162426 -0.007691862 -0.005794663 -0.004593537 0.0014176955 4.3767504e-05 0.0027088588 0.0054795137 0.00374417 -0.002502462 -0.0050269123 -0.00644539 -0.0003758669 0.0076024337 -0.0059955046 0.0028508268 0.003425871 -0.003389447 -0.0054420168 -0.0042525623 -0.003935868 -0.0054682083 0.0046372777 -0.006069434 -0.0022922596 0.003421422 0.00014053378 -0.0060045617 -0.003662345 0.0028063217 0.001986106 -0.0015292494 -0.0005654115 0.0019918457 0.001112055 -0.0020655561 0.004172909 -0.0059837913 0.004974217 -0.007806613 -0.0017608935 0.0052207755 -0.002814914 0.0051049804 0.004243888 -0.005778664 -0.0001896862 -0.0035118964 -0.006297468 -0.0006967494 0.0049914345 0.006825461 -0.0039393688 -0.0020765373 -0.0047170147 0.000907653 0.0020814622 -0.007685775 0.0018841289 -0.006885563 0.0003114678 0.003718798 -0.004106316 0.00020149909 -0.0017050114 -0.006786925 -0.0018827571 0.0034818817 -0.006699863 -0.004638494 -0.00042667706 0.00627923 0.0010985453 0.0076256357 -0.0059924973 0.0070249196
56 -0.0036944458 -0.00496532 -0.0061222166 0.0014418708 -0.002152769 0.0059003616 -0.00040168874 0.0019605262 0.004656558 -0.006756421 -0.0016083494 -0.0037353672 -0.0067732353 0.0026697675 0.0018857913 -0.0018767118 -0.0014958233 -0.0052585695 -0.0025473405 0.0010238942 0.006045582 0.0055211987 -0.002807619 0.0028190184 -0.0020151446 -0.0036874088 -0.0028319545 -0.004802063 0.0027354378 -0.0060859183 -0.0058657564 -0.0035184845 0.005779893 0.0014275396 0.0042648166 0.0064190086 -0.00487087 -0.003614583 0.006000288 0.0038598133 0.003641991 0.0070253583 0.0068844063 -0.0020907223 0.000812036 0.004282633 0.0069465116 0.007693123 -0.006457071 -0.0040042624 0.003899145 0.000746835 0.00012748968 0.0058627333 0.0050025703 -0.0056539867 -0.0020264713 -0.0066279173 0.0055031423 0.0021613538 -0.0017411029 0.0014685802 0.0059874626 0.006352785 0.0048236037 0.002472899 0.0012102844 0.006358929 0.0010283841 0.00034566317 -0.007463391 0.0019719498 -0.0066081313 0.005051515 -0.004522656 -0.0013669906 0.0007622745 -0.0014695693 -0.0071275327 0.0031122547 -0.0051336493 -0.0068683326 0.0030559944 -0.000593544 0.005086392 -0.0054797335 0.0006093774 -0.00053622667 0.0044868467 -0.007602078 0.0046330895 -0.007015338 -0.00608101 0.0005685678 -0.0020810124 -0.0030407468 -0.0041431105 0.0032115476 -0.0072849784 0.0009263512 0.0032874094 -0.00021941774 -0.0003885245 0.005599533 -0.007475245 -0.007041338 0.0034696646 0.006809842 -0.006090138 -0.006491772 -0.00050167553 -0.007059303 0.0016567018 0.0072151152 -0.004777902 -0.0052785557 0.006962898 -0.00059359986 -0.0029250355 -0.0021179235 -0.0068369033 -0.0036152722 -0.0032444773 0.00019424874 0.0005394947 0.0059573436 0.0053336164 -0.0011825664
89 -0.007794779 0.002026895 -0.004775366 0.0071155243 0.0029724399 -0.0007858714 0.0051602954 -0.0027289344 -0.0028797667 -0.00025797356 0.006573554 0.0046382686 0.0012279721 0.0029453104 -0.0023302576 0.007233985 -0.0055716345 -0.0025294283 -0.004140717 0.006815416 -0.0024414482 -0.0018645925 0.00558454 -0.0075826608 -0.0022662869 0.0022561746 -0.004893074 0.0068447283 0.0009121215 -0.004085618 0.0038514668 0.006235569 0.0007251976 0.0053261826 -0.0053330194 -0.0028272476 0.0077632703 0.0044344114 0.0012465548 -0.0027294885 0.0034504198 0.001978496 0.0065298593 -1.2349337e-06 0.0067163445 -0.0045773666 -0.005942148 -0.0010957709 0.0023238007 -0.0015493091 0.0046001384 -0.006572093 -0.0070360126 0.0059212465 0.0049497196 -0.0031918902 -0.0031408537 -0.0027773017 -4.048273e-05 0.007089881 0.0007436611 -0.0016008159 -0.0026686573 -0.0016303677 -0.007183873 0.005334001 -0.007056903 -0.0024145162 -0.0055621304 0.0070790853 0.004524878 -0.00037412345 0.0030614901 -0.0019003805 0.007663301 -0.002833399 0.0037964853 -0.0029645711 0.007461708 0.0074197855 0.004868333 -0.00019383617 -0.0013173791 -0.0067628864 0.007292701 -0.0065955566 -0.005122029 0.0043601636 -0.0017833998 0.0062308256 -0.0061462577 0.0071847998 0.0017587272 -0.006684472 0.0030815527 -0.0038715824 0.004987795 0.0051458953 -0.006844932 0.005049438 0.0041100336 0.0050649196 -0.005511827 -0.005123174 -0.0069233133 0.00411178 -0.0031397194 0.0037499247 0.0037462814 0.0063150087 0.001754472 -0.0008465359 0.0011426443 0.0023277812 -0.0068518175 -0.004666445 -0.00074131973 0.0038183685 -0.00012618583 -0.0075509436 -0.0004917737 0.0055832313 0.0049483757 0.0027095117 -0.0035928097 -0.0029068505 -0.0016237088 -0.0046895472
78 -0.006716582 -0.00043908134 0.0014082333 0.0037733512 0.0028045923 0.006683496 -0.005286607 0.0072476305 -0.0026105335 0.00063361786 -0.0033294586 -0.0031615784 -0.0011620484 -0.005866833 0.0070065362 0.0035621393 -0.0017661089 0.0014959723 0.0061048195 -0.0043867845 0.0029803533 0.0005511092 0.0022644158 -0.0016696397 -0.007714184 0.0045956476 -0.001111039 -0.006498143 0.00055693276 -0.0048215613 0.0059980797 -0.0049976604 -0.0012868214 -0.0003087148 -0.0033512386 -0.0026736576 0.0057382593 0.0014466392 -0.0073264968 -0.0002217479 -0.007446561 -0.002469535 0.0038741482 0.0028907051 -0.0044846125 0.0011393661 0.004538973 -0.005857235 -0.002640957 -0.0019261045 -0.006949283 0.0016423976 0.0050845426 0.0019091107 0.0018561156 -0.00063131936 -0.00063197874 -0.0048980657 -0.00038548931 0.0051506665 0.0023208074 0.000426203 0.00611768 0.0021866737 -0.0057985634 0.0057088593 0.0074630724 -0.0070950026 0.0056455936 -0.0059320554 -0.00028041378 0.0036020847 -0.004486941 -0.0062147845 -0.0056933304 -0.007729726 -0.005208874 0.0074635632 0.0022854637 -0.007081328 0.006645212 0.005635863 0.0061412286 0.007507831 -0.0067742616 -0.0017153267 0.0016381107 0.0018882845 0.0037763389 -0.006037675 0.0037618922 0.0077618277 -0.0070029795 0.006167151 0.0025065783 -0.0032490268 -0.0012010057 -0.006650595 -0.0058468115 0.004310523 -0.0024457974 0.007804932 -0.006265388 -0.005506362 0.004799964 0.006157142 0.0028799213 0.005654799 0.0050690006 -0.004513353 0.006799574 -0.004950039 -0.0022488022 -0.0046743387 0.004757303 -0.0034262352 0.0024029454 -0.0012376988 -0.0009346297 -0.004568588 -0.004506015 -0.0027988786 0.00024791062 0.001147612 -0.0025803084 0.0015153969 -0.004429321 0.007801789
77 -0.0006407546 -0.0054288832 -0.0014517596 0.006200267 -0.0008597672 -0.0040264595 -0.0062860036 -0.004585701 -0.002497225 0.006031437 -0.005643542 0.0011250768 -5.958136e-05 0.0030771364 -0.006206615 0.0062113116 -0.0021788497 0.004140312 -0.0074270563 0.003975723 -0.006444514 -0.0025404515 -0.00092756096 -0.0028454736 -0.0005721636 1.8337741e-05 0.0035231896 -0.0017510112 -0.0031316262 -0.0048226416 0.0065033818 0.0036037974 0.0071106916 0.004284013 -0.0036024824 0.0064677466 -0.005436399 0.0023784032 -0.0026215967 0.00020921044 0.0029375702 -0.0022045346 -0.0034533814 -0.0015228838 0.00040654 0.005043016 -0.0045743873 0.0036457246 -0.0028977422 -0.0062078536 -0.0043787844 0.0014499128 0.0068659764 0.006151338 0.007169498 0.0053827837 -0.0023173746 -0.0018914752 0.0068872897 0.0050634043 0.0046971776 0.005374945 0.0012667989 0.0018707756 -0.006411963 0.0058880392 0.007378335 -0.0055325916 0.00090899505 0.0068290215 0.0028554946 0.0054301443 0.005960622 -0.0014987914 0.006924548 0.004677035 -0.0014821393 4.8019923e-05 0.0075841686 0.004547909 -0.00522328 -0.0027269889 -0.0027257018 0.0024384558 0.0008633081 -0.006721111 0.0016961098 0.007514666 0.001840475 0.0033470644 0.0015330082 0.006343374 0.006935671 0.0024688393 -0.001905283 0.0028164275 -0.006027109 0.006262076 -0.0031313533 0.0077512786 -0.00749108 -0.001999882 0.006942505 -0.0031851977 -0.001530244 0.0039334903 0.00725405 -0.00028547551 -0.0053116763 0.00780474 -0.007442062 0.0009731371 0.0043483432 -0.0061185807 -0.0043996368 -0.0071256105 -5.6060962e-05 0.003908093 -0.0064262105 -0.0024073478 0.006554731 -0.0034854757 0.0024806792 0.002745892 -0.00279422 -0.004041902 0.006503856 -0.0019678297
86 0.0070007537 -0.0018895846 0.0023830105 0.0043716235 0.00044034328 0.0034335954 -0.004658905 0.006573098 -0.0012847455 -0.0034494102 0.003992345 0.007751677 -0.004422672 0.0006562155 0.0033882307 -0.0021483954 0.0004999321 0.0068924734 0.0060326643 -0.0050443867 -0.002505267 0.00720168 -0.00024940912 -0.0074699037 -0.0005603144 -0.005318512 0.0007234607 0.00064099394 -0.00343562 -0.0035849372 0.006872096 0.0035812184 0.0020125592 0.001440974 0.0064291926 -0.0039015124 0.004768689 -0.0007703928 -0.0059819417 -0.0075743916 -0.0013095113 0.006341628 0.0017240066 -0.00701442 0.0009559095 -0.0028316462 -0.0031705108 0.00635146 0.0045488924 0.0002814997 0.0019144053 0.000703671 -0.007752099 0.0023363726 0.0056117717 0.0031163432 0.0019310378 -0.0027716262 0.0018283604 -0.0059629846 0.003291604 0.0018720385 -0.00031976122 -0.00046728272 0.0020573502 0.0017368011 0.0011555357 0.007133577 0.0027594045 0.0010882504 -0.0022920128 -0.0047415514 -0.007275764 -0.0025469726 0.0033979565 0.005918286 0.0004965756 -0.0037347088 0.0028120438 -0.0030469373 -0.00059328135 0.0069246413 0.00638102 -0.00032690074 -0.004617678 0.0028853053 0.007665772 0.0067729196 -0.0014906535 0.0055844327 0.0072428063 -0.0074675763 0.0069418354 1.7311424e-05 -0.0040590307 0.0028747814 0.007003581 -0.0056575285 0.0053679813 -0.00502262 -0.0060821585 0.004301006 -0.003571936 0.0037207752 0.0057568345 0.0075410213 0.0044618985 -0.006926175 0.0025336929 -0.0070235683 -0.00028771162 0.00764212 -0.003995302 0.003201481 -0.0044786073 -0.006286908 0.0062619327 0.002535264 0.005763066 0.0022914838 0.0009093443 0.0029082345 -0.006579919 0.0051498143 -0.0035042753 0.003602338 -0.004267825 0.00081374217
41 0.0031398311 -0.0019377973 -0.005883216 -0.004715952 -0.0077657793 0.007565721 -0.0034300769 -0.00082449894 -0.0070485296 -0.003573954 -0.0038185716 0.0023573479 0.0044184374 0.0027340576 0.007700625 0.0014803456 0.007715608 0.0059024394 0.002158842 0.0016749874 -0.0058702193 -0.001845465 0.004406469 -0.0063576335 0.0017665802 -0.0059267636 0.007538016 -9.710621e-05 0.0007147221 -0.0037329374 0.004779931 -0.0055675767 -0.005789345 0.005170514 -0.0026346957 -0.00071458146 0.0041867876 0.0035702605 0.0048500877 0.005490401 0.004387811 -0.006967836 0.0040191617 0.007129157 -0.0031299694 0.0008450011 -0.0025618821 -0.0026585488 0.006791638 -0.00021861494 0.0026620803 -0.004322538 0.004510913 -0.0026210155 -0.003881896 0.0017123977 0.007594947 -0.0047899727 0.00279212 -0.00077562593 -0.00561798 -0.0033832518 -0.0064213453 0.004367143 -0.002150544 -0.0040620025 0.00077970047 0.0035851095 0.0074203974 -0.0076056346 -0.00021543633 -0.00096068904 -0.0021094326 -0.00041408185 0.0063515073 -0.0014661103 0.0072924485 0.00029535405 -0.0008317428 0.0053942194 0.005423935 0.00035852753 -0.0002366351 0.0049554035 -0.0030034073 0.0035885442 -6.642286e-05 -0.0047484683 0.0050342064 -0.003150995 0.0017317543 -0.005348352 0.0020990232 0.004356359 0.003993392 -0.006307712 -0.0046154186 0.0055693174 0.0024340646 0.0008584503 -0.0048339497 -0.0010806732 -0.007206737 0.0009822873 -0.0035692938 0.00059002545 0.003504199 0.0018684315 -0.0055617066 0.00066461414 -0.0052499445 -0.003030872 0.0014840504 0.006228365 -0.0050870245 0.0018252367 0.0063626403 0.007741264 0.0048176544 -0.0057723997 0.003016645 0.006896713 0.003240414 0.0019654185 -0.0012422791 0.0027955761 0.0032448405 0.0068939673
14 -0.002977564 -0.0068365037 0.0050803935 -0.0048589157 -0.00047216844 0.0011042645 -0.0009288527 -0.0031583402 0.00067291595 -0.0075556273 0.0010908898 -0.0032617375 -0.004526804 0.0029784758 0.0011358606 0.0028511677 0.00070134643 -0.0074320734 0.007797663 -0.0027597314 -0.0017132172 0.0055795247 6.295461e-05 0.002386678 0.0017640786 0.0018621944 0.0052830307 0.007402707 -0.0004368713 -0.0026769266 0.0035599815 -0.0065119006 0.0066161975 0.0018754303 0.004687029 0.002189586 -0.0010378845 0.0007514199 -0.003746558 0.0071000243 0.0039313473 0.0028201016 -0.003913543 -0.0067530945 0.006199306 0.0023068693 -0.0033195363 -0.0067736376 -0.0030966308 0.001100502 -0.00717951 4.1654333e-05 0.0021878257 -0.0077673867 -0.0001154067 -0.0047419136 -0.0028184624 -0.001272751 -0.007794383 -0.0028223665 -0.005486833 -0.0057355985 0.0012438074 0.0018255282 0.0072560133 0.0069256043 -0.00501207 -0.0072014956 0.006164522 0.004228782 0.00541462 -0.0022967868 -0.0040852847 -0.0035687983 -0.0065109273 0.004590825 -0.0026997905 0.00674518 -0.004440832 0.007525038 -0.0035172626 0.0067679444 -0.004226099 -0.005866022 0.005985706 -0.007636033 -0.0068605915 0.003868129 -0.007618907 0.0041258885 0.0028536702 -0.0054843584 0.002459106 0.0011359602 0.0067516947 0.0022514546 -0.004002031 -0.00183676 0.005351615 -0.0051706666 0.007261658 -0.0025015632 -0.0036318647 -0.003412244 0.002408553 -0.007692514 0.0025170986 -0.003504497 0.0075530373 -0.0039275642 -0.0062602935 0.002744346 0.007005183 0.0021464452 -0.0017719921 0.0027441373 -0.0069695357 -0.0032346677 -0.0034274282 0.0014777146 -0.0049282014 -0.0059306407 -0.0051021976 0.004133324 0.0021469155 0.006874106 0.0018132003 0.0041419677
70 0.0033885585 0.00361518 -0.0038724998 0.0011214204 0.00023062527 0.0041021565 -0.0051606297 -0.0005603228 0.0031387424 -0.0037878891 -0.006647229 0.0043539973 -0.00066976156 0.0002657175 -0.0047451556 0.0066431575 0.00070511457 0.0013547977 -0.00030826777 0.000531164 0.0045239115 -0.0072061876 0.0018352466 -0.0043571796 0.007381105 0.0034165839 -0.004300575 -0.0009549847 -0.004330607 0.00665165 0.0070992243 0.0017997939 0.0075355833 -0.003688817 0.002197099 -0.0039829146 -0.006854268 -0.0032573268 -0.001080269 -0.0044202823 -0.0035511674 0.0004939437 -9.9051744e-05 -0.0064905193 0.005410906 0.0012251427 -0.0074242894 -0.001109873 -0.005937265 0.005919286 -0.0008179229 0.0061054192 0.0039270427 -0.0031694947 -0.0070849163 -0.0048312396 0.006939064 -0.0012190118 -0.0002393052 9.887759e-05 -0.006440564 0.0032965355 -0.006411424 0.007355079 -0.0063455747 0.006171571 -0.0015471661 -0.0016109413 -0.0017871596 0.0007668808 0.001918802 0.0012678066 -0.00045808498 0.005923555 -0.005022061 -0.0061631445 -0.005617968 0.0049332976 -0.0015471112 -0.0037096553 0.0038668 -0.0061328113 0.0022685006 0.007502471 0.0054145176 -0.0023859637 0.0018822076 0.0038725883 0.007500046 -0.00213404 0.0010378854 -0.0032706624 -0.0024741236 0.00067689084 0.0017177146 -0.004172708 0.0033104895 -0.0039933734 -0.003590173 -0.00701778 0.0059800576 0.0033533368 -0.0017154654 0.0065836823 0.001539072 -0.007735327 -0.006062436 -0.0033071367 -0.0056914557 0.005778251 0.003956224 0.001577517 -0.00050269254 -0.005803557 0.004785533 -0.0040563233 -0.0021011848 -0.0045711314 -0.001700718 -0.0072836317 0.0025637904 -0.00580319 0.005278405 -0.0058267154 -0.0045995656 5.9337355e-05 -0.006215683 0.004191363
76 -0.003307227 0.00029854476 0.0061014146 0.0024412433 -0.00014751125 0.005995524 -0.00011376571 0.0043878835 0.004676859 -0.0062537612 0.0015026694 -0.007392939 -0.0010911394 0.0067164004 -0.0019257125 -0.0037378296 0.0021823775 0.005675751 0.0051385025 -0.005086025 0.0054901633 0.0059270347 -0.0041914964 -0.0009325268 -0.00046453066 -0.0073607415 -0.0018613236 0.007641121 -0.0020340374 -0.005986383 -0.0033372566 -0.0074430974 0.0015632603 0.0047009746 0.0005779499 -0.0027169287 0.007401583 -0.007317299 -0.0035628313 -0.007622835 0.0074912086 -0.0014517261 -0.0041747075 -0.0061660027 0.006412237 -0.0023098541 -0.0045379223 0.0029140925 -0.0054577487 0.0070463894 0.0050203064 -0.0032267896 -0.0023988197 0.00118043 -0.007606418 0.0031888364 0.0033026543 0.0045986716 -0.006974576 -9.96571e-05 -0.0049767317 0.004549358 0.0077431807 -0.00059758127 -0.006222604 0.0038001388 -0.00022508483 0.0021010796 -0.0049568675 -0.00055324193 -0.0020535355 0.005787134 -0.006053039 -0.0029281592 -0.0010177409 -0.0021981876 0.004638738 -0.0002695527 -0.0019139778 -0.0068558594 -0.007580932 0.0014320808 -0.0006267214 -0.0074343067 0.0056070313 0.0057239896 0.005030968 -0.0023672925 -0.00014904328 0.006065432 -0.005163814 -0.005478426 -0.006330072 0.0033788793 -0.007331755 0.001336148 0.006289047 0.0010438357 -0.0074381903 0.0063522626 0.0043847347 -0.0064569134 0.0044569243 0.00652723 0.0047812946 -0.003429736 0.0048918882 -0.0038464852 -0.005893613 0.0028857868 -0.004092369 -0.0013564276 -0.004100103 -0.005717257 -0.0013733013 0.00090678595 0.00092400424 0.0058744876 0.0027675135 -0.0076743513 -0.006861738 -0.001524467 -0.0019115284 -0.0050131977 0.0068847314 0.0032599242 -0.0058760187 0.004485986
