97 128
0 -0.0036091253 -0.018165328 0.057278827 -0.008001659 -0.03915205 -0.076952904 -0.025490597 0.03122658 0.0077359816 0.011456673 0.10148853 -0.0060823113 -0.01891954 -0.02238856 -0.046372868 -0.038829893 -0.021703277 0.038262926 -0.053273965 -0.0073623257 0.06134107 0.024916045 0.060537957 0.009771343 -0.021784158 0.04329838 -0.06195742 0.0031577006 0.007917728 -0.039295983 -0.109903 0.016545596 -0.020728942 -0.0069007524 0.014962286 0.042225484 0.12885621 0.03249423 0.108420305 -0.014498766 -0.015713071 0.061718553 -0.029458748 -0.045508794 0.03179626 0.026436957 -0.017462313 -0.031922974 0.0032610493 0.023950776 0.008236492 0.017262576 0.021200135 0.038236156 0.081169605 0.027249826 0.047806088 -0.04760407 -0.028533777 0.012799261 0.037101947 -0.048505984 0.01477761 0.020637924 0.032888312 0.0034187862 0.060097747 0.03664795 0.006787898 -0.026840562 0.020853007 0.010778005 -0.03622537 -0.040587083 -0.01962255 -0.012404067 0.032594875 0.040079188 0.0093752565 0.0592417 -0.024300488 -0.01017427 0.04920799 0.060631633 -0.01157003 0.024380088 0.07361984 -0.017445508 0.02959453 0.066685095 -0.0201351 -0.017571421 -0.04694568 -0.014137779 0.08258823 -0.014681072 -0.12298909 -0.09213421 0.027908903 0.007506137 -0.1001621 0.03916794 0.038271103 0.03231955 0.03743371 -0.014904392 0.010342923 -0.060489118 -0.018320927 -0.06290016 -0.0019983037 -0.014874425 -0.0050808038 0.011966018 0.009513804 0.015467508 -0.013471546 0.07144903 0.019970814 0.04387365 -0.004730546 -0.022751346 0.0028970882 -0.016321316 0.002234267 -0.043209285 -0.03637486 0.016029727
9 -0.0046394463 -0.010804345 0.05879822 -0.020325437 -0.028827017 -0.06963628 -0.025109356 0.022443168 0.017061997 0.018550394 0.09717524 0.0052123833 -0.0066250227 -0.032339297 -0.045236975 -0.035198167 -0.025777075 0.042564847 -0.035014436 0.00031254024 0.05017303 0.020147663 0.056035947 -0.0009110022 -0.02647974 0.04705598 -0.05705557 0.0052916408 0.021829903 -0.026049545 -0.09542241 0.023688711 -0.035197567 0.0031548338 0.011795399 0.03515114 0.115818046 0.041832276 0.10664581 -0.016123734 0.0019085116 0.06003895 -0.022483801 -0.04542473 0.03556504 0.03012552 -0.010160675 -0.046011984 -0.0070866663 0.011436574 0.021785222 0.008109223 0.014093786 0.038184617 0.07273357 0.02328143 0.04094916 -0.040051825 -0.022952981 -0.0064167115 0.038482852 -0.050374944 0.018090859 0.024367841 0.03253765 -0.006046841 0.053265795 0.031173924 0.014064006 -0.029352121 0.0059109125 0.006634295 -0.03181292 -0.026416408 -0.028591553 -0.01056308 0.03194189 0.04472022 0.0070018107 0.064566344 -0.029242413 -0.005229284 0.036840487 0.04581162 0.0023104162 0.02029484 0.07011818 -0.018288443 0.03464744 0.06508472 -0.029955829 -0.020535227 -0.054732326 -0.018839069 0.064912096 -0.025121737 -0.098364845 -0.08242506 0.033781927 0.0055321725 -0.090378016 0.036246322 0.03737829 0.017250324 0.021089457 -0.008978637 0.0010350299 -0.06226728 -0.014927045 -0.049608096 0.0015730396 -0.005273287 -0.005400076 0.0059796106 0.004959333 0.014281286 -0.01563482 0.0622673 0.02318169 0.040150795 -0.009366719 -0.01709329 -0.0032277638 -0.009438365 -0.010110364 -0.050472215 -0.038611226 0.0056901006
8 -0.004681178 -0.016221736 0.0328334 -0.015596043 -0.02021694 -0.055647146 -0.015615704 0.018069483 0.0037957614 0.02051768 0.077652805 0.00069449394 -0.015529207 -0.016282821 -0.028028242 -0.021904737 -0.014798526 0.029929284 -0.036282066 0.008191106 0.04914867 0.020577936 0.037792906 0.0065503563 -0.020112129 0.026420888 -0.053196758 -0.0029915108 0.012454715 -0.03092657 -0.082516536 0.0063646114 -0.016030101 -0.0007893125 0.009187768 0.039790396 0.100652784 0.026704067 0.08926547 -0.0046671676 0.00032739554 0.04249239 -0.007884276 -0.037405234 0.017427905 0.030049454 -0.00916844 -0.03369649 0.0028473553 0.008261182 0.013824117 0.01706306 0.024535062 0.020951925 0.064524196 0.027105872 0.036407173 -0.03452185 -0.011819775 -0.00060563255 0.03536386 -0.04185825 0.0070768325 0.025797142 0.028632926 -0.001312881 0.05321784 0.03126632 -0.0018677978 -0.020332666 0.01746985 0.0067639723 -0.025671849 -0.021635542 -0.01823298 -0.013741981 0.01274156 0.029443525 0.012566727 0.059817985 -0.008325043 -0.014179718 0.023959694 0.050642043 -0.00042461228 0.021908017 0.057803165 -0.013013758 0.031718135 0.047381885 -0.0140855005 -0.015640622 -0.040412854 -0.012550469 0.059952516 -0.013495527 -0.09532726 -0.071882606 0.014418133 0.0006881991 -0.06799909 0.035371624 0.030471228 0.017493088 0.022471141 -0.0027147632 0.01431067 -0.050016556 -0.0096090045 -0.04861646 -0.0017486562 0.0019586566 -0.0028057739 -0.003775632 0.009020238 0.0035320448 -0.014947414 0.058193438 0.015022181 0.030212944 -0.0090754945 -0.007407354 -0.009083804 -0.0041637565 -0.006678198 -0.030267548 -0.01972571 0.011991631
1 -0.0038792004 -0.015038576 0.04603587 -0.0058943923 -0.024361756 -0.06032428 -0.027600786 0.01665339 0.0065606413 0.008595166 0.077171005 -0.0021686608 -0.0048708995 -0.026610434 -0.029311886 -0.032496367 -0.022479177 0.03019651 -0.0386194 -0.0010170224 0.041655365 0.020650247 0.039202083 0.008229004 -0.022477562 0.038458448 -0.048871703 0.0038292978 0.0027309381 -0.024112877 -0.078616396 0.009033428 -0.021573065 0.0040840423 0.015795885 0.026033865 0.08841339 0.019845577 0.084338285 0.000381526 -0.007113878 0.042994045 -0.014609793 -0.024468314 0.014811692 0.021076374 -0.0026371817 -0.026866945 0.0019423147 0.0044181375 0.019071631 0.0049459217 0.01587529 0.030079763 0.052889805 0.024532098 0.030666105 -0.036192037 -0.026200874 0.012436353 0.03390045 -0.040213797 0.015341366 0.02061507 0.028427886 -0.0064544836 0.046500217 0.02667223 0.016061988 -0.024822263 0.010435084 -0.0027240145 -0.03280565 -0.03237445 -0.017309237 -0.013595921 0.023135485 0.02435574 0.009535598 0.049096342 -0.019255288 -0.009328162 0.040654983 0.047048293 -0.008350697 0.024043284 0.045051 -0.005353791 0.020080796 0.046333738 -0.014396958 -0.006582529 -0.0388614 -0.0023246293 0.05992638 -0.020674665 -0.08909765 -0.069012046 0.023588736 -0.002029604 -0.07276774 0.017756931 0.034534972 0.020636741 0.012144724 -0.0104121985 0.010636946 -0.049938034 -0.0059484746 -0.0444839 0.0023438353 -0.010881779 0.0048425156 0.009351094 0.004335869 0.008073862 -0.022096751 0.04735585 0.015332325 0.024679124 -0.013787358 -0.014414041 0.0017962346 -0.0037604654 -0.008172543 -0.03905162 -0.02680127 0.006391388
2 -0.008075043 -0.022128047 0.04071028 -0.01865276 -0.02977433 -0.06100556 -0.025433753 0.01671562 0.0014044449 0.0105321705 0.082011946 0.0047179805 -0.01680025 -0.025453027 -0.028294824 -0.03819587 -0.017646533 0.036405865 -0.030470846 -0.0071170605 0.037598185 0.009786768 0.04232701 0.014735378 -0.015546807 0.04112352 -0.042685967 -0.0027203776 0.019411713 -0.033794902 -0.086333066 0.012749904 -0.021689806 -0.00331279 0.011192321 0.038171757 0.094674565 0.028148122 0.086705066 -0.015304026 0.0012621906 0.053404696 -0.0253805 -0.030204257 0.033267707 0.014389812 -0.014901319 -0.038149364 0.007038756 0.012586303 0.021492722 0.0034384702 0.021689203 0.03184326 0.057115722 0.026858542 0.026723294 -0.041679904 -0.017803807 0.009814824 0.037624888 -0.03288278 0.012885067 0.029210892 0.017882727 0.0024333315 0.047117237 0.02771884 0.014906102 -0.0280831 0.016689973 -0.004185691 -0.027217915 -0.033520564 -0.022243135 -0.00049933256 0.019868014 0.035722956 0.015682267 0.05928054 -0.02634838 -0.011441591 0.043710466 0.04522145 -0.0071335286 0.010246078 0.055842016 -0.016754106 0.03119751 0.044971976 -0.020120258 -0.012320603 -0.04042147 -0.0106358295 0.06232296 -0.014839421 -0.09093382 -0.06904841 0.028363312 0.0024562776 -0.0727706 0.034983646 0.024320588 0.019215805 0.0300525 -0.001464149 0.008872042 -0.057622302 -0.010487406 -0.045241132 0.008554786 -0.0036757854 0.0007259547 0.00783355 0.002971114 0.0022383681 -0.01634577 0.047344062 0.023563124 0.043005135 -0.006020511 -0.012885988 -0.0075074146 -0.005539012 -0.008877709 -0.043778446 -0.03155459 0.00087603286
6 0.0039769397 -0.017674046 0.046332188 -0.019378267 -0.02022733 -0.042022638 -0.02804766 0.0069916267 0.0048912773 0.008332768 0.06915647 -0.0093607195 -0.017283613 -0.016922176 -0.03610453 -0.034725558 -0.0206687 0.020303331 -0.03767106 -0.008031964 0.037783418 0.011331633 0.043973606 0.0073634684 -0.022294186 0.03869234 -0.04818036 -0.00515303 0.004726237 -0.027753644 -0.07556902 0.018366294 -0.022812104 0.0035321277 0.017544042 0.023909854 0.09136219 0.03395218 0.0748207 -0.003659326 0.001526385 0.036410693 -0.021755863 -0.027399993 0.022367558 0.013976515 -2.2180333e-05 -0.035480686 -0.005612886 0.010870606 0.010780159 0.009857891 0.01313753 0.025668738 0.052475695 0.023089249 0.038532034 -0.03480437 -0.019379873 0.007092993 0.034806475 -0.039249543 0.020003991 0.026633924 0.020275874 0.00049726217 0.0461515 0.018642133 0.0026362955 -0.027097194 0.010707219 0.0032614972 -0.02115442 -0.024749372 -0.017736848 -0.005551156 0.02426553 0.030540196 0.0028544676 0.04003352 -0.016826304 -0.0021496715 0.032929435 0.030585973 -0.011528939 0.021387562 0.046196394 -0.006040986 0.017461432 0.051567364 -0.023661217 -0.008837977 -0.03794277 -0.016992725 0.050055627 -0.014565817 -0.08654294 -0.06237329 0.013637697 0.0034491906 -0.058089428 0.024121944 0.024719894 0.021602888 0.028160399 -0.010952233 0.0005336108 -0.049332175 -0.0036513598 -0.039305825 -0.0066944077 -0.0053882417 0.0069385394 -0.0015948911 -0.0008633202 0.015328397 -0.0227825 0.04931268 0.017292973 0.0390473 0.002984316 -0.015665961 -0.006605424 0.0019128508 -0.0012971448 -0.028458387 -0.033540625 0.016326861
5 -0.0040907296 -0.018735297 0.038240194 -0.010636889 -0.016820114 -0.05164586 -0.024382265 0.019168269 0.019234031 0.0059497324 0.068500206 -0.013650383 -0.017026756 -0.02125865 -0.040835306 -0.020822173 -0.014965704 0.02195899 -0.02658916 0.010345509 0.048814066 0.014415155 0.041570116 0.001388487 -0.028084397 0.03867805 -0.043610875 -0.0015030231 0.011475428 -0.030572593 -0.069029555 0.007018176 -0.03380425 0.008946334 0.014569816 0.044036407 0.09466512 0.030606244 0.08976241 -0.013856767 -0.011586701 0.043126136 -0.00956344 -0.037277658 0.034052864 0.016813003 0.0018751723 -0.028810345 -0.008819801 0.007833803 0.0012338929 0.0056450963 0.018660616 0.037065003 0.06322513 0.011765535 0.035736363 -0.026691971 -0.021052504 -0.010639789 0.027785515 -0.044128824 0.020285672 0.012375227 0.031254627 0.011583736 0.04160587 0.02794404 0.002712673 -0.012106311 0.01662531 -0.006206285 -0.029508537 -0.015182168 -0.017126266 -0.012083179 0.015233701 0.026911024 0.010674141 0.05371446 -0.021098636 -0.013331229 0.029161163 0.03902601 -0.0025984575 0.011382141 0.05385672 -0.01203604 0.02796641 0.042985756 -0.0067759897 -0.021512318 -0.040873457 -0.014578446 0.0625923 -0.015083206 -0.091378465 -0.06118028 0.01216386 0.010178081 -0.075123824 0.031488076 0.01161848 0.021328717 0.029294623 0.0004890687 -0.0020998525 -0.053570133 -0.019680975 -0.04862464 -0.0124482 -0.008060391 -0.0014678487 -0.0037750176 0.0139203295 0.009045463 -0.004362496 0.050059665 0.017621918 0.020894358 -0.0062522073 -0.0071244976 -0.010216655 -0.002824001 0.0014424097 -0.03549244 -0.010121223 0.01775842
7 0.0005184585 -0.0045718746 0.037152555 -0.013992916 -0.024250215 -0.05026153 -0.026332203 0.022244195 0.0063693593 0.0035373983 0.055194292 0.0015160904 -0.012102793 -0.021168526 -0.02455922 -0.024922086 -0.016663635 0.024096223 -0.032076865 0.008236569 0.037986763 0.0048969034 0.040654358 0.00053823186 -0.015974639 0.03364153 -0.041868545 -0.0026039465 0.017149333 -0.026788319 -0.072117984 0.018699415 -0.019861707 -0.005112177 0.016578088 0.031739593 0.08111407 0.032056183 0.06172118 -0.0018968866 -0.003976688 0.039342176 -0.011821209 -0.023236547 0.023823854 0.022667913 -0.010483005 -0.028683502 -0.0014642493 0.012546755 0.00592625 0.013759248 0.020165758 0.03139502 0.04753776 0.027100163 0.026545374 -0.01950866 -0.012874831 -0.0045375773 0.020057319 -0.032272253 0.015472712 0.016351512 0.019402819 0.008229869 0.046684075 0.018312322 0.00023438374 -0.021978397 0.006085777 -0.005710369 -0.020637674 -0.023282439 -0.012539493 -0.00305376 0.011151433 0.018216854 0.0088345725 0.03668017 -0.0129835345 -0.011796451 0.033530857 0.03417572 -0.001565978 0.011529416 0.04129185 -0.0014742685 0.021864515 0.032818947 -0.020239254 -0.010526 -0.0247392 -0.004163919 0.038182132 -0.0045309304 -0.068432435 -0.047325663 0.02608248 -0.0052367533 -0.06665337 0.027990634 0.028889745 0.020662555 0.025587311 -0.007980641 0.013752042 -0.049576543 -0.017997691 -0.041705158 -0.004598391 -0.0004932362 -0.0037549378 -0.00317532 0.012580552 0.0017652328 -0.004526933 0.036707822 0.018667948 0.031873118 -0.0020548033 -0.015128824 -0.00036739156 -0.011832303 -0.004472621 -0.03223164 -0.013214135 0.0037649737
4 -0.0070691314 -0.007226167 0.033320602 -0.011325701 -0.014023685 -0.042477973 -0.022228668 0.016708424 0.014608767 0.015086029 0.06467965 0.0026003695 -0.007271517 -0.019642878 -0.029158123 -0.02458302 -0.0153899025 0.024441343 -0.034464784 0.007399232 0.02774225 0.006635861 0.031990223 0.00446243 -0.022442583 0.029914096 -0.041788723 -0.0008367899 0.0032243768 -0.022023391 -0.06213745 0.012019215 -0.020604745 -0.0029167812 0.014836712 0.029698515 0.06939969 0.02081804 0.06944642 -0.0044373674 -0.013436316 0.04132018 -0.021256974 -0.03234525 0.023196824 0.014245152 -0.00502936 -0.016723655 -0.002541888 0.02010026 0.011038161 0.017805964 0.021350319 0.016846512 0.042541437 0.026414774 0.03053261 -0.019423664 -0.009476198 0.011139627 0.015868949 -0.025577396 0.0064810156 0.021135932 0.025630921 0.004577632 0.044766296 0.021056328 0.0048276256 -0.0125514 0.005347789 0.0031374132 -0.012545658 -0.026340917 -0.010064346 -0.013070104 0.024430715 0.033390045 0.0075662243 0.045757517 -0.014014707 -0.0135008665 0.027585443 0.038360123 -0.008870192 0.010115053 0.04731809 -0.006170528 0.017899787 0.03556218 -0.0099532 -0.01600819 -0.03393431 -0.01444882 0.041832004 -0.017736783 -0.074683145 -0.06176691 0.020673642 -0.0069659944 -0.067265205 0.01507769 0.017358493 0.022526395 0.022353472 -0.0056803846 0.0046726945 -0.0467509 -0.009235477 -0.034680806 0.00012142476 -0.0025059248 1.623369e-05 0.0046009803 -0.0024827532 -0.0011361651 -0.019543724 0.03774854 0.016263042 0.035361975 -0.0058017145 -0.014742885 0.006895798 -0.006514031 -0.0036562257 -0.021566955 -0.017033746 0.0020639866
15 0.004758524 -0.0050759492 0.02154004 -0.009367547 -0.015054121 -0.03089648 -0.016904082 0.008326838 0.007833245 0.0087919 0.049260184 -0.0028803556 -0.010744905 -0.008831831 -0.0134753585 -0.011725901 -0.020155653 0.022983117 -0.024632236 0.008821331 0.029130135 0.014785038 0.029135108 0.009690263 -0.018425113 0.030109733 -0.0330699 -0.005303297 0.0070051937 -0.008333147 -0.057982765 0.008409414 -0.007968554 3.3439865e-05 0.0025390682 0.015407654 0.06953492 0.025861982 0.058347702 -0.0084156 -0.00917878 0.03260046 -0.0042910795 -0.025338693 0.009208151 0.011618393 -0.010095883 -0.025025876 -0.0022446048 0.0028385136 0.018672131 -0.0016179078 0.015404398 0.023232417 0.035372853 0.024108667 0.029871553 -0.025694843 -0.017841162 -0.004751302 0.013225742 -0.02731839 0.0045558405 0.0075106975 0.017164228 0.0011408334 0.03611878 0.012863615 0.0025220101 -0.014257142 0.007339203 0.009855772 -0.017346924 -0.009040464 -0.020124437 0.0019759117 0.012079078 0.029228054 -0.0013839761 0.035729095 -0.0111501245 -0.004942 0.0178242 0.018107243 -0.008114656 0.0051881783 0.036052655 -0.007131017 0.014629506 0.037963763 -0.015751543 -0.009267524 -0.034308437 -0.016240086 0.04422931 -0.014577499 -0.061521225 -0.0384642 0.021266652 -0.0057429834 -0.044322666 0.01282672 0.020251505 0.00776841 0.010528411 -0.0025261734 0.012097012 -0.026295006 -0.015524516 -0.032416504 0.00761161 -0.00027064924 -0.0043458315 0.0038824123 0.010296407 0.0030513993 -0.018800512 0.032902785 0.016924296 0.029650122 0.00027599023 -0.014638132 -0.0030793715 -0.0046066595 0.0015675708 -0.030791854 -0.025204351 0.005851526
17 -0.008915193 -0.0032947601 0.022922162 0.0005862778 -0.017349806 -0.031845625 -0.0066560665 0.006351185 0.0010010441 0.00814097 0.044530943 -0.0020818084 0.00066441915 -0.018700846 -0.012940451 -0.015616397 -0.0035851276 0.02348507 -0.012623954 0.007542944 0.0152716525 0.0175592 0.015610751 0.0012967187 -0.016032487 0.015223757 -0.0329703 -0.0070530777 0.0020166002 -0.015109675 -0.04852089 0.0118915 -0.018812237 -0.0036977697 0.0144478865 0.024034813 0.058776744 0.01999691 0.04739584 -0.0101586515 0.0030728786 0.027915267 -0.0023399277 -0.012059632 0.019446226 0.019533668 -0.012164499 -0.024539828 0.0018591604 0.011146902 0.015500753 0.010162564 0.016601752 0.011668819 0.038142484 0.01088201 0.01033558 -0.010282438 -0.009899854 -0.0005318404 0.015138591 -0.024595972 0.011372766 0.015417399 0.012777978 -0.00681362 0.023229329 0.013676453 0.0107987905 -0.014912454 0.006785928 0.0028398086 -0.020820636 -0.012210297 -0.012169304 -0.0021422333 0.016124932 0.0167574 0.0023091112 0.03619734 -0.005138505 0.0007870301 0.022683293 0.031089557 0.0041888985 0.009132793 0.037075497 -0.003770107 0.017834496 0.02498218 -0.012510895 -0.010323955 -0.030345093 -0.0038201902 0.04025328 -0.00087285327 -0.051186983 -0.032534104 0.016473526 -0.004371958 -0.0380891 0.009997098 0.024063345 0.014409919 0.013033251 0.0005245297 0.011556288 -0.02128798 -0.00667876 -0.030313816 0.0078022066 0.004427278 0.00036478427 0.0022576645 -0.0032549524 -0.00069638767 -0.0026928643 0.024205722 0.004175328 0.028292106 0.002140595 5.6465673e-05 -0.0005445811 -0.011257062 0.0047189845 -0.023370642 -0.009880482 0.008765535
11 0.006217157 -0.015681034 0.031026557 -0.01536169 -0.019814355 -0.038965557 -0.0179456 0.014699267 0.012215457 0.004494254 0.04637581 -0.003741489 0.0010630188 -0.008172302 -0.016739573 -0.019211458 -0.01726578 0.022299308 -0.017962366 -0.0017053684 0.029908665 0.0075256624 0.016036268 0.00263171 -0.012185146 0.015245841 -0.031869806 -0.008523305 0.013890918 -0.008887116 -0.04723887 0.013362317 -0.005632515 -0.0005860452 0.012418536 0.022258872 0.059543397 0.023697017 0.04508893 -0.0074125384 -0.0007051271 0.02928393 -0.0061638006 -0.01370494 0.017345337 0.0062045506 -0.0076805213 -0.026514707 0.008039889 0.009882579 0.010079183 0.008903457 0.004790704 0.011302294 0.035810236 0.019941114 0.022170767 -0.0139294565 -0.013308887 -0.0014017546 0.017923243 -0.02476178 0.0037618203 0.006531804 0.020213097 -0.0018557897 0.025677903 0.007533351 0.013033167 -0.013220283 0.008787765 0.0044602263 -0.02212627 -0.01218852 -0.009675112 -0.011071934 0.01587999 0.020949587 0.010853756 0.035093278 -0.012058183 -0.010071321 0.025456067 0.02602192 0.0019108183 0.015681272 0.03226493 -0.012202161 0.0143254595 0.034171723 -0.016537 0.0007702375 -0.029591378 -0.0032560844 0.036022518 -0.0023467557 -0.05546556 -0.04165796 0.008599457 0.0020407627 -0.043745667 0.022338768 0.013965585 0.003609429 0.007838906 0.0017075689 0.0001186908 -0.032293215 -0.012426514 -0.020785725 0.0039552776 0.00055796304 -0.0032219703 0.008100605 -0.0030892116 0.0019264381 -0.014761612 0.027535666 0.008367093 0.028534379 -0.002886761 -0.014747722 -0.006892239 -0.009397969 0.00036108246 -0.014387638 -0.020796783 0.012077882
12 0.0067599677 -0.013464595 0.012563429 0.004283296 -0.005514074 -0.032993495 -0.017899256 0.016685145 0.008034177 0.011754818 0.029814277 -0.009607848 -0.004372627 -0.01997165 -0.01878983 -0.017152838 -0.0005746121 0.022535907 -0.020736292 0.005878442 0.028395845 0.007018943 0.029711636 0.010738359 -0.007769402 0.015559992 -0.026911724 -0.0025212404 0.012760994 -0.020569455 -0.042873032 0.014277516 -0.0062813796 0.004388305 -0.0021751462 0.01645307 0.05315391 0.009764109 0.049268432 0.0043327706 -0.005144792 0.021086665 -0.008487576 -0.0213741 0.005021696 0.009053692 -0.007354347 -0.010530562 -0.0056498596 0.011862994 -0.00020198201 -0.0013354317 0.017879339 0.023877671 0.0242107 0.015927926 0.011245435 -0.024764156 -0.015168431 0.008603606 0.020279575 -0.009949238 0.012698885 0.016504787 0.01420519 -0.007498612 0.027939605 0.0118891215 0.009276858 -0.008597386 0.004442344 0.008282773 -0.012247904 -0.012868996 -0.012166292 -0.0113037685 0.0019836037 0.023986194 -0.00307423 0.033854365 -0.017989134 -0.005852458 0.016627591 0.012933641 0.0036385828 0.014459065 0.02855193 -0.001090867 0.012002573 0.03166521 -0.0024520755 -0.015044072 -0.022526866 -0.006058446 0.03164307 -0.010335263 -0.043076698 -0.040508762 0.014582514 0.0044629816 -0.032626208 0.010977942 0.0061971364 0.0026023746 0.011013374 -0.010165901 -0.00078548794 -0.01945557 -0.00057244184 -0.020179275 -0.0067678206 -0.007562394 0.0064340024 0.006973617 -0.0007729317 -0.0047648977 -0.0070074727 0.02695132 0.010889699 0.019734815 -0.007775814 -0.017082665 -0.0071948017 -0.0037792707 0.0033622328 -0.014931194 -0.010037999 0.00851404
14 -0.0007818651 0.001392535 -0.00219988 0.0037536968 0.0012212862 -0.0033978196 0.0025391523 0.009193745 0.0025756245 0.00078588363 0.010953138 -0.008871904 0.0043894816 -0.0076748896 0.0005227423 -0.006017053 -0.0024027685 -0.00409009 -0.012698862 -0.005464782 0.0013451396 0.003103638 0.0006880001 -0.003216794 -0.007770605 0.0014224177 -0.0019285195 0.0027688816 0.008990767 0.0014872352 -0.0166316 0.0068943975 -0.0118918475 -0.0022058017 -0.0035960197 0.0101352455 0.016135778 0.010346955 0.01540618 -0.007226314 0.005187815 0.0010445471 0.0055770567 -0.0031985473 0.0009115545 3.910999e-05 -0.004785788 -0.009896375 0.0065620937 -0.00096573576 0.006892014 -0.0057483604 0.0047319806 0.0029213238 0.015433587 -0.0044164937 0.012073389 -0.007843235 -0.0074405503 -0.005959694 0.0010478827 -0.009273347 -0.0003126614 -0.0036534332 0.0052532665 0.0005235748 0.005763842 0.0069029233 -0.0063716904 -0.005618768 0.0063927458 0.006909231 -0.012535793 0.0034960858 0.0011230914 -0.005511494 0.00882856 -0.0031583519 0.007872176 0.012508977 -0.0008637404 -0.006018549 0.0007120339 0.004601728 0.0012819078 0.003870545 0.014082796 0.006369721 0.011857259 0.0034355207 0.0062097777 -0.0031590848 -0.001425482 0.0003014639 0.008543337 0.00079988927 -0.018304886 -0.013729051 -0.0044306773 0.002334051 -0.005614267 0.0061767753 0.0036429663 0.0062685017 0.010888819 -0.0069282344 0.0029340524 -0.0139047075 -0.00016844974 -0.00013642071 0.0048264684 0.0039112507 0.0058198557 0.004690165 0.007230578 0.008520507 -0.0046916786 0.01608638 0.0065936004 0.002489031 0.00633877 0.0026656857 0.006028949 0.0018130379 0.0075629256 -0.0043286486 0.0044288193 0.0049313228
10 0.0044407365 -0.008704687 0.022622049 0.0012052621 -0.011832387 -0.025636474 -0.007826648 0.0026994678 0.011670444 -0.0027477932 0.026094105 0.0011877681 0.0003464804 -0.01422516 -0.010288965 -0.00559625 -0.012927456 0.008487138 -0.019162072 -0.0020087445 0.019081399 0.014633684 0.023256918 0.0037925516 -0.006753457 0.022531807 -0.012437725 0.004339976 0.009901205 -0.018499466 -0.037342086 0.0016368642 -0.0039914846 -0.0020425883 -0.0025238004 0.020209845 0.047489844 0.010230369 0.04364465 -0.0036780587 -0.0057845837 0.019115116 -0.00679904 -0.016649822 0.012688656 0.013693033 0.001399032 -0.019907309 -0.001811169 0.001800743 0.010855432 0.009700362 0.0058139814 0.01540087 0.01895728 0.011502005 0.020896202 -0.016290706 -0.012484824 -0.0036426822 0.010722728 -0.016110808 0.0087474 0.017338024 0.008809286 0.0018507568 0.027914755 0.011412966 0.004002083 -0.0017951768 0.012569168 0.007361668 -0.015837276 -0.0031788857 -0.0029510804 0.003475154 0.006181267 0.017058792 0.008815501 0.019766564 -0.0031699678 -0.0024873659 0.02213189 0.014866295 -0.005052434 0.0121545615 0.015571557 -0.010039497 0.005360061 0.01942186 -0.009703996 -0.00068722776 -0.009407548 -0.005363644 0.02513581 -0.004413023 -0.039173935 -0.035099477 0.01607342 -0.0033345993 -0.027713168 0.018391822 0.014219997 0.011279971 0.012616605 -0.005333075 0.006773246 -0.021382535 -0.0008871165 -0.014184677 0.0011763092 0.002684515 -0.006953329 0.0076857693 0.0093306005 -0.0016323092 -0.00588673 0.016542763 0.008831193 0.017350677 0.0037053798 -0.006572758 0.00084366906 -0.0018822924 0.0054504657 -0.020415662 -0.014825251 0.00058374903
38 -0.003205411 -0.0026547967 0.011268858 -0.010371605 -0.019865055 -0.022318034 -0.014182669 0.0011149013 0.009720082 0.015180991 0.034838222 -0.010174028 -0.00480751 -0.010216014 -0.028269395 -0.004163384 -0.016999308 0.0074415556 -0.021999644 -0.00357416 0.0268559 0.018358769 0.026619144 0.0104272105 -0.012702027 0.018125486 -0.028323172 -0.01074148 0.010642472 -0.013028247 -0.052083533 0.0009936624 -0.02291146 -0.0056842985 0.011225536 0.030003473 0.0562339 0.019508423 0.053398125 -0.0059524453 -0.003835325 0.012788555 -0.0059636114 -0.020911759 0.013452065 0.019142464 -0.010821114 -0.021645732 -0.007569116 0.0015392869 0.0007830377 0.008406038 0.014120919 0.009911037 0.028574279 0.012376836 0.026297087 -0.010586803 -0.012706731 -0.006796219 0.00954949 -0.022971677 0.009355658 0.0108546605 0.022586027 9.123785e-05 0.025665667 0.008441791 -0.0017936191 -0.018655436 0.007485072 0.0027761906 -0.024004037 -0.0012491583 -0.018376535 -0.016301481 0.00020220205 0.021710007 0.011871441 0.03730538 -0.004806795 -0.0059286086 0.01285274 0.032452386 0.0012229745 0.013810262 0.027783522 -0.0040338445 0.021957334 0.023436932 -0.0034979717 -0.008832022 -0.014094368 -0.002699196 0.033461474 -0.011728938 -0.054138303 -0.03021229 0.0012986701 0.0019302192 -0.03798979 0.021411203 0.003723057 0.020656718 0.013712822 -0.008678018 0.008173208 -0.030175004 -0.016054317 -0.029400747 -0.003420041 -0.011073829 -8.583202e-05 0.0017932616 0.002606795 0.007668013 -0.0034232733 0.0394416 0.010921259 0.018104877 0.0012606864 -0.0079087755 -0.01239967 0.00579557 -0.0023208628 -0.027117494 -0.01656481 0.0037577855
46 0.0026052406 -0.00046301328 0.019265704 -0.010360345 -0.007417795 -0.021163981 -0.01239865 0.011892018 0.006101936 0.001711215 0.018491693 -0.004243695 -0.003682295 -0.00089232926 -0.0048428206 -0.01707316 -0.0142645715 0.016834894 -0.013693911 -0.0030619241 0.018837491 0.0007881062 0.018337814 0.0018761795 -0.012441145 0.0113446 -0.010725938 0.007419379 0.005430173 -0.0048552845 -0.03133934 0.004095998 -0.0106681 0.0010077881 0.0023251823 0.0077631646 0.026366305 0.018364497 0.030572457 -0.0046576294 -0.004508803 0.021566693 -0.011265312 -0.008156541 0.008304295 0.014606214 0.003001511 -0.013665248 0.0023210575 0.0028907428 -0.0030595977 0.0019075747 0.0073465086 0.015157485 0.027950166 0.016362727 0.0044029364 -0.0056396173 -0.011158651 0.0007056106 0.01091145 -0.0070385807 0.008318359 0.011241302 0.016748343 1.9577566e-05 0.011138038 0.002987487 0.007972199 -0.012351658 0.0016427444 0.005124206 -0.010330178 -0.013659483 -0.0083268415 -0.001711128 0.008995374 0.016000478 -0.0018644143 0.01991948 0.0003706283 -0.0008557619 0.015741661 0.01010556 0.0036247007 0.00020776149 0.02100716 -0.012031995 0.005684639 0.008613182 -0.0083794305 -0.008456325 -0.016652228 -0.003020041 0.021395165 -0.0058472273 -0.03657988 -0.027829172 0.008705778 -0.003620926 -0.031890694 0.008379249 0.01621094 0.011306556 -0.0013958159 -4.6797286e-05 -0.0023652664 -0.024154792 -0.0033323811 -0.014891004 -0.0059095263 -0.0062283897 -0.002531522 0.007834606 -0.0054482133 0.008521283 -0.0063247015 0.017531123 0.013568972 0.016544037 -0.005124568 -0.0021091225 0.0021861119 0.0025007762 -0.0011720379 -0.015578082 -0.00792003 -0.0012124628
35 0.0007929691 -0.0018935788 0.02092684 0.004635531 -0.01618766 -0.026935533 -0.004691456 0.008589244 -0.0025604384 0.0050826115 0.031675942 -0.0038658865 -0.009593363 -0.005080108 -0.004214739 -0.019166104 -0.006627592 0.009096688 -0.021436052 -0.0014150644 0.011617764 0.0142238075 0.012655221 0.0072623757 -0.007931812 0.018918736 -0.016891567 0.008388841 0.004365427 -0.01790038 -0.03355095 0.007869352 -0.010733314 -0.007652325 -0.000348166 0.007351208 0.044154122 0.014512971 0.04106743 0.003612274 -0.008842008 0.020081265 -0.00045517442 -0.011749983 0.01244817 0.012640975 -0.011503037 -0.0029857429 0.0057240045 0.014474343 -0.0032587193 0.010520592 0.014719374 0.01110781 0.015835775 0.015297425 0.0074476697 -0.01885276 -0.004786491 0.011207593 0.019903438 -0.017865859 -0.0022178108 0.018337008 0.015522504 -0.0027234657 0.012464957 0.00559096 -0.0010856099 -0.011556884 0.006138604 0.0011448653 -0.012435044 -0.016649144 0.0021179 -0.007712024 0.0014068279 0.020307202 0.0053806044 0.027926505 -0.012056762 -0.010254184 0.015574313 0.015250909 -0.012218517 0.0060948334 0.023572352 0.0026119172 0.015009048 0.022125514 -0.010757254 -0.007048397 -0.018163806 0.00046188018 0.016818019 -0.003606452 -0.03711038 -0.032845415 0.0027861372 0.0054365443 -0.036307458 0.00967089 0.012784973 0.016164543 0.004432907 -0.0012426015 0.012059852 -0.026383737 -0.007186953 -0.012819193 0.0038846221 -0.000862024 0.007958263 0.0031501038 0.0032948952 0.00017531667 -0.014324164 0.02244821 0.009008234 0.007239359 -0.0022324524 -0.0073204394 -0.0005967849 0.0050497646 -0.002531878 -0.018927641 -0.003190859 -0.00259802
57 -0.007928373 -0.0074561397 0.011589457 -0.0052891592 -0.008718815 -0.026506579 -0.015761262 0.0078478 0.0033724115 0.008041621 0.038506888 0.003694616 0.0027361824 -0.016900297 -0.005564676 -0.014778276 -0.0014094042 0.016283907 -0.012024482 -0.0071489937 0.011102544 0.014417855 0.016197871 0.0051256907 -0.0042000394 0.014930181 -0.012831131 -0.0011653908 -0.002690806 -0.0171236 -0.036073748 -0.0008029097 -0.0031751199 0.0031868236 -0.0018484837 0.021025684 0.048423797 0.017968953 0.042347003 -0.011399259 -0.0014262254 0.012625896 -0.010327604 -0.013590038 0.010011979 0.011216862 -0.0007358941 -0.012918997 0.004133825 0.0111344 0.001217437 0.010702456 0.013080472 0.020936986 0.029325275 0.0085786795 0.010787706 -0.014389313 -0.010329632 0.009280473 0.014270284 -0.012794979 0.009330454 0.0025886947 0.01717484 0.0059225885 0.019091675 0.012330034 -0.0008169334 -0.014992101 0.011629384 -0.00029994122 -0.006391244 -0.009751454 -0.010220641 -0.0013059812 0.0059349434 0.012976592 0.0041101375 0.026936049 -0.008558318 -0.0028617873 0.008796168 0.02559299 -0.008141814 0.013513732 0.026583232 -0.011182871 0.0061706803 0.014242962 -0.012404556 -0.0003031766 -0.010126425 -0.0032067394 0.026051683 0.0012735248 -0.04276857 -0.03049783 0.013000373 -0.005306692 -0.0389874 0.004221883 0.020311778 0.012617417 0.0049018054 -0.0096627725 0.00400734 -0.019189628 -0.0057257526 -0.01821502 -0.0038040294 0.0017540781 0.00057766336 0.009871814 -0.0068245768 -0.0013406151 -0.014122976 0.021145009 0.0015485844 0.020075245 -0.007970463 -0.011062924 0.0027497483 -0.009707348 -2.8695118e-05 -0.021670595 -0.0034882915 0.01098861
37 0.001303713 0.004176425 0.0046034763 -0.00499819 0.007071587 -0.008860624 0.0057456447 0.0025649439 -0.0022599373 -0.0025516788 0.008840226 -0.0041667456 0.00617278 -0.005217648 0.0059062093 -0.001185384 0.005792541 -0.0017083036 0.0039121755 0.006853442 0.0028586597 0.0013121548 0.004849643 0.0064018695 0.0062835757 0.0074549564 0.0044533177 0.006259808 0.00694786 -0.0006199682 -0.0025497577 0.0016493754 -0.0003895548 0.00052866637 -0.0064253486 -0.0068583256 0.00021949764 0.007570088 -0.0010734048 -0.005623535 0.0037573953 0.0019225037 0.0009791928 0.0021923902 0.0032855796 0.0048735538 0.00076902 -5.045774e-05 0.0071302513 0.002462197 -0.0032502406 0.005316022 0.004439698 0.0028743162 -0.001216427 0.0031932583 0.005662346 0.0047430377 0.0003271053 -0.006468082 0.00092264195 -0.0005105404 0.0033570954 -0.0068923705 0.008073038 -0.005482019 0.005571312 -0.0067933383 0.0078127505 0.005199918 0.0012205826 -0.0026256626 -0.00088568154 -0.00036989793 -0.0054084086 0.004364537 0.0024150964 0.0036477037 -0.0054894225 0.0077522052 -6.528777e-05 -0.00034459875 -0.0062386296 0.0040964466 0.0051402682 0.006129575 -0.0038565886 -0.0064017237 -0.0038159243 0.00060902553 -0.0069929655 -0.0066675926 -0.0024044758 0.00064322364 -0.0061814976 -0.003259428 -0.0014010568 0.003806659 0.0019672837 -0.00051412534 -0.0074355756 -0.0046967394 0.00016116601 0.0062150653 0.0047404678 -0.0013047149 0.0010817447 -0.008618121 -0.0012669207 -0.0045641474 0.004627616 -0.0019062387 -0.0037384736 -0.007261593 -0.00088404433 -0.0055087055 -0.0017316528 -0.0021662198 -0.0014652861 -0.0017005707 -0.0065394617 -0.0013303949 0.0013222675 -0.0033770597 -0.0061152205 -0.0035801427 -0.0077402173 -0.00045495463
61 0.0045960974 -0.0023135515 0.0024701236 0.0039029047 0.006615959 0.0043917308 0.007428552 -0.00753647 -0.00622084 -0.0052798092 -0.0058341473 -0.0062215766 -0.0060845073 -0.002298927 0.0010907501 -0.002245929 -0.0068876967 0.0038952045 0.00070382096 0.0035862513 0.005621358 0.0059752297 -0.00062863063 0.0028593438 -0.0040027937 0.0014927201 0.0035455227 0.0077239554 -0.0024902262 0.0022182297 -0.0044815233 -0.0017270045 0.0063477308 -0.0030505136 -0.00092857797 -0.007253886 -0.0074037313 0.0069396617 -0.004455408 0.0039474936 -0.005440318 -0.0019207122 -0.006267919 0.0058597876 0.0047870437 0.0041081794 0.006545201 -0.0005441662 -0.0072755693 0.007121614 -0.003850419 0.006131242 0.004323328 -0.00084302854 -0.0059876684 -0.0011404706 0.0048855757 -0.0054422524 0.0011266377 -0.006212389 0.006813553 -0.0022310847 0.0073728925 -0.0044594333 -0.007591972 -0.0067405496 -0.0031834645 0.0036793705 -0.00018901471 0.007205869 0.0024290737 0.0029279431 0.002340898 0.006366132 -0.0018724333 0.0057869833 -0.0074505573 0.0022820989 -0.00053255446 0.0003533261 0.0053461017 -0.0022202916 -0.001841234 -7.8497455e-05 -0.0003888216 -0.0027929386 0.0048785023 -0.005123959 0.0061656246 -7.301569e-05 0.0020381566 0.0025180858 -0.00022004172 0.0013330486 -0.0024536364 0.0037159808 0.00018985197 -0.0025629653 -0.0068082614 -0.0078109996 0.00024435762 -0.0044896957 -0.0008669216 -0.0032860106 -0.0067490824 0.0008297628 0.0046180394 -0.0017273203 -0.0056022005 0.002463623 -0.00030053593 -0.0043133926 -0.0008637728 -0.00049973 -0.0024867887 -0.007777404 0.0059676515 0.0029109437 -0.001975948 0.00570873 0.0003551487 0.005604025 -0.0012090337 0.005854428 -3.3305958e-05 -0.0047479384 -0.003684258 0.0075222068
3 0.00045395456 0.00080265664 0.006601787 -0.004912816 -0.0013780147 -0.006389781 -0.005214652 -0.0067035053 0.0030707894 0.002140114 0.0043870416 0.002009186 0.0016511837 0.00448059 -0.001653444 0.0024783574 0.006596688 0.0003031809 0.004917643 -0.0052684126 0.0051373607 0.0036636535 0.003969022 -0.007749051 -0.00033550337 0.0025047753 -0.004551554 -0.0052295215 0.0049718013 -0.0053310553 -0.004048828 0.0063451864 -0.005484607 0.006676074 0.0005114237 0.0034419587 -0.002353469 -0.004240418 -0.0069902604 -0.0004784949 -0.003986123 -0.0024031522 0.0063370736 -0.00597493 -0.0049291244 -0.0041122483 -0.005159172 -0.0069067366 -0.00086721964 0.0073796706 0.0062785447 -0.004120388 -0.0063574277 -0.0017635897 -0.0072396733 -0.0039591715 -0.004646724 0.0023633763 -0.0059133144 0.0009770198 0.0017866418 0.0041510276 -0.0015784344 -0.00763411 0.0040794276 -0.004614448 0.0038169967 0.0015427768 0.0068886094 0.0011963574 -0.0014277054 0.0050693518 -0.005523376 -0.0065539554 0.0029602898 -0.0020132428 -0.0032686247 -0.0015038112 -0.007714916 0.0002035452 -0.0008255113 -0.0023214193 0.0019536288 0.0036667148 0.0049551614 -0.0061826147 -0.003897652 -0.006865211 -0.006991434 -0.0029141102 -0.0009950828 -0.0064161196 -0.00420025 -0.0016810736 0.0049552247 0.0012254752 0.00649585 -0.0064970376 -0.0035749022 -0.0006281901 0.0068751397 0.0008643372 0.0012031076 0.0010084258 0.0022832975 -0.007340583 0.0025425013 0.004269285 0.0041299434 0.0034686625 -0.006317475 -0.003171701 0.0065225866 -0.00044772774 -0.0073724836 0.0037372168 -0.004722764 0.005219917 0.0041982643 -0.0039419318 0.0020073662 0.004231751 -0.0028010197 -0.0011844011 0.0071637277 0.0070806323 -0.007338254 0.0059119603
58 0.0077250386 -0.0022188826 0.0019213641 -0.0021901177 0.006754254 -0.00022131484 0.004403366 0.0071975747 0.0032111304 -0.0055628046 -0.0015045544 0.0007640822 0.0015891222 0.0023079803 0.007382312 0.00343836 0.0077452343 -0.006763831 -0.0044956375 0.0015518013 0.002856385 -0.00077435933 -0.0053997254 -0.0025091115 -0.0066621657 0.0073521202 0.0029097153 -0.0061557954 0.0024898192 0.003260809 -0.0044054566 -0.0046193684 0.0008112239 0.0070015974 -0.007536157 4.914589e-06 -0.005363238 -0.0007283194 0.0023757825 -0.0039296616 -0.0021687532 0.00052780285 -0.0049704853 0.0056926394 0.0034206426 -0.006686355 -0.001678884 0.002472289 -0.0065059327 -0.0055225883 -0.006604485 -0.0042957747 0.006918826 0.0055289445 0.0022544637 -0.0066832574 0.0044869008 0.0036198571 9.295065e-05 -0.0069085453 -0.0014716638 0.00014911313 -0.0060608927 0.0019298121 0.0003779428 -0.005515648 -0.0064604757 0.0047204616 -0.0065238206 -0.004359207 0.0043594725 -0.00037996192 -0.0023862226 -0.004058107 -0.0009358963 0.004118529 -0.004645656 -0.003888417 -0.0038661119 -0.003715897 -0.0062344475 -0.0076222382 0.0059235673 0.006247462 -0.003347123 -0.007287548 -0.0014629029 -0.0028970875 0.007108289 0.002296986 -0.0046704253 -0.0026236605 -0.007736315 0.0015188446 -0.003115913 -0.0021161744 0.0040441332 0.0059367362 0.0034248643 -0.0053284504 0.005233314 -0.0075248377 -0.0054588187 -0.006254688 -0.0017679147 0.00037487503 -0.0029470958 0.0014416976 0.0071931137 0.005217231 -0.0008240817 0.0071038743 0.001216325 -0.0015421184 -0.0051523047 0.0050577363 -0.007085627 -0.001481723 0.006009686 -0.002020985 0.001254838 -0.0057391524 0.0038891258 0.0057602087 -0.0072722966 -0.0025608242 0.006166202 0.0022920482
29 1.1361204e-05 0.00026820973 -0.007707366 0.007763086 -0.0015635472 -0.0038182195 0.002147844 0.0008046655 -0.0046340544 0.004525503 -0.0019558324 -0.0048268596 0.005652898 0.00504959 0.0068908455 0.0009089019 0.00039843842 -0.0061950153 0.00363194 0.0073133865 -0.0005309684 -0.0013773199 -0.0029790374 -0.0003842786 -0.0059511214 0.004444723 0.0011647549 0.0072599575 -0.005019066 -0.0039759614 -0.004870821 -0.005684915 0.002153568 0.0038239202 0.001048414 0.0027662106 -0.00733459 -0.0008356171 -0.00604913 0.002306357 -0.0020985436 0.0069398433 -0.002683078 0.0053423587 0.003214742 0.0010659322 -3.161095e-05 0.0063847927 0.0018451074 0.006451741 0.0026057698 0.004236806 0.0039858697 -0.005959986 -0.004522344 0.00096420106 0.00015180372 0.0016760444 0.00083253346 0.0059271054 -0.0034544487 0.0002535917 0.005473856 0.0017592143 0.0033146488 0.0033619357 -0.0009887861 -0.006502012 0.002378325 -0.006932142 -0.0020787967 -0.007337535 -0.0003609499 -0.0061431965 0.005792169 -0.0038205609 0.007748672 -0.007056457 -0.0033688871 0.001506974 -0.0023417426 0.0011295183 -0.0028756596 -0.0006985711 -0.004474505 -0.0076726666 0.0049524987 0.00029973034 0.0050855596 -0.005837991 0.002862149 -0.007732724 0.0059458837 0.004628552 -0.004779281 0.006416453 -0.004359412 -0.0066824993 0.0011720983 0.0024843458 -0.0063254694 -0.006979893 0.007165096 0.0012841988 0.00068306737 0.001936119 -0.0027399557 0.0013555 0.0015297523 0.0076609384 -0.004381352 0.0017758021 0.0049274554 -0.0052166656 -0.006979523 0.0067626704 0.0053422274 -0.0031404486 0.004486207 0.00061603077 -0.0039145965 -0.0010544974 -0.0038268473 0.0047927946 0.0015327074 -0.0064999526 -0.00011426583 -0.0020685475
49 0.0051613487 -0.0008950699 0.0059891427 0.0015220903 -0.0029925937 0.006373561 0.0023043249 -0.003101592 -0.0043748766 -0.0024134899 -0.0040113833 0.0026875949 -0.007252058 -0.004547541 0.0026103305 0.00015441421 0.0046836734 -0.0028168587 -4.6677887e-06 0.0019335952 0.0042661373 0.0012588967 0.007668824 0.0029048538 -0.005611077 -0.0010984959 -0.0065376014 -0.004161776 -0.0017151544 -0.0075841015 0.007261945 0.0015874747 -0.0009071734 -0.004299771 -0.006648306 -0.00773709 0.006987801 -0.0019526761 0.0035877945 -0.003529191 0.0077797333 0.0028552506 0.000801323 -0.003159456 0.0009457981 -0.0020678155 0.005742764 0.0034986353 0.00077084545 0.0027211625 0.0029018363 -0.005301074 0.0069771586 0.0013564304 -0.0045214565 0.0067630336 -0.0010089669 0.006396123 -0.001177243 0.005459103 0.0021299971 -0.0034060385 -0.0029280689 0.00718108 0.0012436453 -0.0046929773 0.00027314294 -0.0015331237 0.0012379102 -0.006029154 0.005768818 0.0010251766 0.0061524976 0.0034789406 -0.0034327125 0.002931782 -0.0004988164 -0.0077001946 0.0064391643 0.007538573 0.0075417114 -0.0029685972 -0.0066012684 0.003771644 -0.0059808446 0.0066656657 0.0021564458 0.0043776073 0.004778511 0.00036313105 -0.0016366364 0.0006040409 0.0076843426 -0.005566044 -0.0012128549 -0.0018426105 0.0038015684 0.005039093 -0.003228156 0.0028309915 -0.0035008807 0.0025550518 0.0063816197 0.00283485 -0.0035725087 -0.0023509096 0.006145629 0.0075031724 0.0045446046 -0.0025578402 -0.001426002 -0.0048885886 -0.0033559175 0.0026362203 -0.0050685517 -0.0051688757 0.0063370466 0.0074261418 0.0063598314 0.0011800267 -0.0068717888 -0.005935286 0.0012281863 -0.0074434616 -0.005789226 0.0015813466 -0.0022821631 -0.0071539143
13 0.005012057 -0.0069930796 -0.0057386504 -0.0013680812 0.0013265694 -0.00080798473 -0.0040658386 0.00514004 0.006861571 -0.005790701 0.0076605985 0.0057551935 -0.0058286916 -0.0014843419 0.0033219047 0.0055153165 -0.002862255 -0.00544772 0.0036912775 -0.0070614116 -0.0045705494 -0.0010027196 0.004281967 -0.004442923 0.0037381137 -0.00033980142 0.0020837998 0.0050030695 0.0011075241 0.006022324 -0.0002518762 -0.0064560184 0.0071707023 -0.003795471 0.0036889892 -0.0030490495 -0.0057261866 -0.005088007 0.003654167 -0.0005151816 0.0011408357 -0.0069752177 -0.004020744 -0.004730018 0.0065724906 -0.006794869 0.0039256597 -0.00067293085 0.00014795084 0.006874811 -0.002801123 -0.0054197954 0.00059654657 0.00604909 0.0071256747 -0.0028786808 0.0021350058 0.0038614152 -0.004134413 0.005353543 -0.005041383 0.0016412837 0.0035837954 0.0034258692 -0.0036455346 0.002064392 0.005710909 0.0067278817 -0.0074316645 0.0043552713 0.0038812999 -0.0012459047 0.0071772533 -0.0032664146 -0.0013661897 -0.0053619593 -0.0029505277 0.00018959027 -0.0025558854 -0.004232237 0.005131933 -0.004142856 -0.004938774 0.0059695058 0.0075399876 0.0031210305 2.0567328e-05 0.00061663426 -0.00075121317 0.005361447 -0.004885152 0.0003965702 0.0033532418 -0.0016495418 0.0006983457 0.0028985478 0.007585979 0.0016998127 0.007422002 -0.004554565 0.003750517 -0.0028346702 -0.0033318829 0.0009529358 -0.003224453 -0.004396229 0.0024554795 0.006513795 -0.0051138 -0.0071202675 -0.0026029432 0.005880653 -0.007569544 0.0074986545 -0.00032675546 0.0018006284 -0.0014450476 -0.0045016473 0.0024224184 0.004839913 -0.0055100825 -0.0009166533 0.0012182975 0.0033195093 0.005579179 -0.002770856 0.005683897 -0.004352321
79 -0.0017147074 0.0070974706 0.00420494 -0.006628951 -0.001293472 -0.00690486 -0.001282718 0.0044184513 -0.005795545 0.0043047415 0.004757859 -0.0029456867 -0.007543605 -0.001967826 -0.0019945493 0.0029363567 0.006969285 0.0015592985 -0.0016496377 0.002319974 -0.0053154053 -0.00101043 -0.0011587767 0.007503801 -0.0045387214 -0.005500189 0.0018446473 0.0020584138 -0.005582791 -0.004591995 -0.00092423614 -0.0025803316 -0.007012289 -0.003163687 -0.0023169955 0.0050802073 0.000760857 0.0012490712 0.00021745265 -0.002643858 0.002423726 0.0005559884 0.004674092 -0.00060564 -0.006954114 0.00068965275 0.007752984 -0.004100916 -0.004075364 -0.0019677738 0.0067058196 -0.0006497223 0.0073580993 -0.006512586 0.007044564 -0.0075883763 0.007187156 0.0014630575 0.0020784754 -0.0045770323 0.0065931138 0.0047215866 -0.0042868266 -0.0074209524 0.005444064 -0.0043249456 -0.007282283 0.0020291852 -0.0038890708 -0.0057500396 0.0076019987 -0.0012389254 -0.0011804793 -0.003151956 -0.0034366036 -0.0036167074 -0.0043716514 -0.004142034 -0.0062674237 0.0074365977 0.0049992697 -0.0028177295 0.001936283 -0.005970699 0.005877423 0.0064880745 0.0006167423 -0.005338274 -0.002310725 0.0036984133 -0.0022963937 0.0024816198 0.0073505593 0.003400864 -0.004019906 0.0042711664 -0.0022493685 -0.004995266 0.005474845 -0.0072296355 -0.00088332593 -0.0010822974 -0.0065749586 -0.00086124986 0.0043728575 -0.0041153533 -0.0054891687 0.0048439596 -0.002676906 -0.006109028 0.00022919569 -3.8907863e-05 0.0058913333 0.00044476707 0.006158171 -0.007666236 0.0031509902 0.0048578987 0.0008042529 -0.002215946 0.0008020429 -0.00065556355 -0.006334585 -0.0052995877 0.0009376211 -0.0015764637 0.0074604833 -0.00074173976
48 0.004780231 0.0015985454 0.0063278824 -0.0072582187 0.0018693199 -0.0011337949 0.0016835937 -0.00017171819 -0.005187993 0.007070669 -0.0022214046 0.0014955578 -0.0050325766 0.002901733 0.0078092227 -0.0009345738 0.0051407954 -9.712577e-05 0.006193892 0.007539789 -0.00030569267 -0.001326831 -0.007438762 0.0077147447 -0.0019788798 0.0017103059 -0.0013272548 0.006505741 0.0065185763 0.0012006918 0.0022544265 0.0050266134 0.0017560162 0.005034622 0.00011464115 -0.0017855242 0.004146292 -0.0026681833 -0.0020434456 0.0068685384 -0.007152104 -0.0026669083 -0.0022844747 0.0044288514 0.006205857 -0.005040318 0.0045269774 -0.00017005671 -0.007056142 -0.0019083349 -0.0012377594 -0.0035006413 -0.0006201416 -0.0040925266 0.0046410896 0.007268266 -0.0012403633 0.0026380802 -0.0005843872 -0.00054658763 -0.005477001 0.0011382066 0.0030489787 0.005398494 0.005108469 0.0027629714 0.0036419304 -0.005806336 -0.0010832027 -0.0045176893 0.005313318 0.006114565 -0.0033390792 0.0009012949 0.003991722 0.0014136601 0.00061399676 -0.00526575 0.0076817805 -0.0056716427 -0.0047138706 -0.0044266265 -0.0049593467 -0.0027273912 -0.0073439805 0.0009204168 -0.002929871 -0.0019931933 0.004519485 0.002773814 0.0014225924 -0.0010734769 0.0077167796 0.00022387505 0.0039183246 0.007060742 -0.0076301396 -0.0071526347 0.007752209 0.0021381155 -0.0014731102 0.003690675 -0.0033714091 -0.004998155 -0.006451099 0.005632906 -0.0019135717 -0.005893099 -0.004617489 0.004824627 -0.001937258 -0.004801398 -0.0012640478 -0.0011512125 -0.0025428468 -0.0016322173 0.0032076044 0.0011301562 -0.0027268296 0.0021034172 0.0040851114 -0.007180321 -0.005904951 0.004919037 -0.0069828946 0.00041267462 -0.007026421 0.0065389285
27 -0.003354326 -0.005172264 -0.0010810709 -0.0008700583 0.0058851764 0.007116816 -0.00027404074 0.0021043578 0.0037009353 0.00011152681 -0.0045156265 -0.00046439003 0.0017054491 0.0064857136 -0.0028065043 -0.0076918323 0.0042054113 0.0076646013 -0.005511543 -0.00045508333 -0.003956667 0.005027364 0.007544768 -0.000260205 0.004015973 0.0051083444 0.0034445645 -0.006274401 0.0024239402 -0.0011612391 -0.0016883435 0.0042203777 -0.0010289531 0.0077558355 -0.0004993584 0.00020596012 -0.0017919056 -0.0066511678 -0.0076649617 0.0038677854 -0.0051725274 0.0023167944 0.0021674866 -0.0054740487 -0.0024500135 -0.0045371577 -0.006691059 2.9817224e-05 0.007646137 -0.005215533 -0.0034076981 0.006508068 0.007264463 0.0076682856 -0.0077283727 0.0039437143 -0.005189134 0.0053748786 0.004797577 -0.0026371935 0.0053782314 -0.006145619 0.003554348 0.0035784151 0.004627564 0.004593361 -0.0020807404 0.0030434392 -0.004772287 -0.0050460715 0.0021429816 -0.0073954593 -0.00023366511 0.0008524507 0.0062534856 -0.00546999 -0.0018148078 -0.0032079192 -0.0040843273 -0.00036866218 0.0036025112 -0.00389212 -0.0012856694 0.006762796 -0.0010222159 -0.0027904809 0.0058059655 0.00095250364 -0.00026599504 0.007390449 0.0063481303 0.0026701987 0.0026236363 -0.0017849319 0.006323844 0.0039538173 -0.0042388625 -0.0047883894 -0.00046824384 -0.006187856 0.0026302421 -0.007206577 -0.0012066932 0.0026220111 0.0023795506 0.0024685636 -0.00708099 0.0026712362 0.004176826 0.0027093207 0.006088216 0.0012933975 0.0048986087 0.006902433 -0.0007364508 -0.0006275326 0.001739854 -0.0058855433 0.004397153 -0.0039063403 -0.002555537 -0.0014317324 0.0064189583 0.0017550047 -0.00070909876 -0.0022228714 -0.001649959 -0.0010045329
20 -0.003971031 -0.0032252595 0.00014644116 0.003558335 0.0014032377 0.005392721 0.0004997775 -0.0025190068 -0.0057604006 0.0046929736 0.0054452606 -0.004733051 0.0036593657 0.0074207364 -0.0049849097 -0.002247612 -0.0071017975 0.002521962 -0.002687703 0.0015970403 0.007374594 -0.0065288534 -0.00727582 0.0013411576 -0.006276886 -0.0070839897 -0.0073087662 -0.00022531208 -0.000860706 0.00058106706 -0.0010467367 0.007062462 0.006865415 -0.0049666604 0.0067936303 -0.0070532095 -0.0010456471 0.001984247 -8.606911e-05 -0.002969413 0.00036627334 0.00078557245 -0.0073507586 -0.0038202219 -0.006024109 0.0029742913 -0.00069132727 -0.0058465498 0.0044028563 0.00018573273 0.0021077236 0.004242845 -0.003304909 0.0061288625 -0.0061388304 -0.0026898133 -0.0057550874 0.0007609576 -0.0057736514 0.007080226 0.00432365 -0.005649289 0.0048237694 0.005159596 -0.0057931915 0.0036365548 -0.0060324203 0.0072817737 0.0036643827 -0.00017894618 -0.006985748 -0.0006989259 -0.00021171849 0.0007083593 0.006767394 -0.0021688798 -0.006782826 -0.006901359 -0.00082620885 0.0010717697 6.815232e-05 -0.001721045 0.006677786 8.315127e-05 0.005014587 0.0031179907 -0.0056274906 -0.0016590916 -0.006075304 -0.0052793967 -0.002464042 0.005168123 -0.00065173954 0.0069407476 -0.0017904565 -0.0041439952 0.0030588321 0.0017316202 -0.00021904893 -0.0019163135 -0.004689481 0.0031544287 -0.0059465384 -0.006958234 -0.007157443 0.0065531787 0.0031254562 0.0055407546 0.0077266395 -0.0056451857 0.0031472696 0.002204013 0.004808425 -0.0026468383 0.007289542 -0.0045308005 0.005493914 0.0054294877 -0.0003062226 0.0039531123 0.0051911334 0.0012058942 0.0057566576 0.0018817773 -0.0011881012 0.0057768766 0.0036619902 -0.0024783127
42 0.0012860261 -0.00010936521 0.0038775448 -0.0042284634 -0.0032692272 -0.00073277485 0.0029858472 -0.0051418385 0.0061294 -0.0024123741 0.004484359 0.0022375295 0.005330066 -0.0034892699 -0.0025016041 0.0023884708 -0.0021678247 0.0046425974 -0.0046517393 0.002024726 -0.0005646618 -0.00047989842 0.0019832132 -0.0017072642 -0.0033261878 -0.006681715 0.0019439692 0.0041599283 -0.00458376 0.007116493 0.0031534638 -0.0040433016 -0.0010259598 0.0030674795 -0.005472976 0.0016057249 0.0043020044 0.00488659 0.0042395256 0.002859395 -0.0021500671 -0.004748828 0.0063749384 -0.0057044104 -0.0012656823 -0.002549815 0.005069308 -0.004904245 0.00265274 0.0015996285 -0.0031867316 -0.006439602 -0.006279473 0.0027387897 -0.007469747 0.004458436 -0.0022753347 -0.0071664536 -0.004012592 0.0060502114 -0.0013448531 0.0050047934 -0.0072472943 -0.007145728 -0.0040642014 0.00074393675 -0.005605949 -0.007379707 -0.0069419285 -0.0003617294 0.0057918057 -0.006545772 -0.0041664215 0.0011855494 0.0025932295 -0.0066079423 0.006146688 -0.006419043 0.0037002368 0.0073557105 0.004422011 0.0048225494 0.006434868 0.002697588 -0.005581608 0.004489897 -0.006494485 -0.0044717686 0.0046138093 -0.006194846 -0.0045862338 -0.0027799718 0.002650828 0.004077888 0.0016056839 0.0039910562 -0.0020524012 0.0033999868 -0.00550656 -0.001297066 -0.006050626 0.0001357859 0.0036704363 0.0037500244 -0.0036369301 0.0013675569 0.006102521 -0.004354546 -0.0029591834 -0.00046682823 -0.0036873128 0.006794422 0.005892288 0.00720423 0.0073147546 -0.0066022174 -0.0003747968 -0.0059424853 -0.0037576305 -0.0069060205 0.0026685735 8.316338e-05 -0.005402875 0.0062211594 0.00074451603 0.00023325905 -0.0027844263 -0.0026145363
85 -0.002064404 0.0059548244 0.0018707756 -0.0040397896 0.0036952654 0.0007738257 -0.0021352721 0.0060230074 -0.0030837804 0.005805875 -0.0032933084 -0.0057472363 -0.003512917 -0.0030457014 -0.0005503148 -0.0014410233 0.0039931387 0.0042582564 -0.0013584653 0.002916948 -0.0015847385 0.0005739108 -0.0010675294 -0.0019240817 -0.003685018 -0.003329521 9.9236146e-05 0.0012886319 -0.0073818043 0.004747154 -0.0013129823 -0.0023237336 -0.0037453705 -0.0033723041 -0.0037504677 -0.0076593524 -0.00060735457 -0.0060878024 -0.0037593944 -0.0057617035 0.0077622524 -0.0010592928 -0.006058002 0.004309914 -0.00630184 -0.0014939727 0.0021370826 -0.0055305827 -0.0068230676 -0.0051887287 0.005834643 0.007076326 0.0031183576 0.0018778779 0.003232696 -0.0031800233 0.0076234667 0.0053822817 0.0032138545 0.0069913194 -0.0065576276 0.0007297555 0.0069470387 -0.00073369965 -0.0052639656 -0.0017724857 -0.00217845 -0.0019517392 -0.0014407681 0.0056895847 -0.00023474172 0.0033143265 -0.0029308833 0.0064315423 -0.0050798096 -0.0072955294 -0.0032339739 -0.0057545304 -0.0038098553 0.00038656034 0.0018631658 0.0013592718 0.0039121713 -0.0010903478 0.0017829686 0.00027456507 0.006129221 0.0062709283 -0.0015417906 0.0009823693 -0.0047124308 -0.003717646 -0.0054459563 -2.4754554e-06 -0.0038396092 -0.0031611696 0.0011755498 0.0020390684 -0.0071236026 0.0013651643 0.0040079765 0.0032504406 -0.0022710627 0.007406718 0.0073822467 -2.1225773e-05 0.00066820066 -0.0072252117 -0.0037538363 -7.929746e-05 0.0031589773 0.0001237914 -0.0068161227 0.0045428677 -0.0057930294 0.00668264 0.0043096766 -0.005293317 0.002220693 0.0060299076 -0.0047726855 -0.005114776 0.007186747 0.0014099935 0.0075862883 -0.0077395597 -0.0011729766 0.0053904913
93 -0.0011431109 -0.0013723252 -0.0055304794 -0.0044263825 -0.0050946167 0.0069713015 -0.0012380322 -0.0064714802 0.0062624663 -0.0023131948 -0.0010406291 -0.0005279742 0.0022084499 -0.0036849845 -0.000201419 -0.0022230586 0.006856203 0.005374141 0.0008590184 -0.004739292 0.0024473527 0.00088788103 -0.0047846716 -0.004494 -0.0024192054 0.0018644547 -0.0063398564 -0.003899877 0.0063269734 -0.0028846161 0.0062171305 0.0004185997 -0.0043237284 -0.0038782023 -0.00016811118 0.00358803 -0.004752716 -0.004303281 -0.0053210864 0.005270672 -0.0018779458 0.003137541 -0.0012706164 -0.0057933377 -0.00099089 0.00031492487 0.002801869 -0.0067781303 -0.0053166896 -0.005122587 0.002337725 -0.0029235603 0.00079463795 0.003247694 0.0035303347 0.0018481389 -0.0022445936 0.00050050486 -0.0042122426 -0.0049630683 0.006809162 -0.0031645922 -0.007279684 0.002915009 0.0066048196 -0.00014709402 0.0017693285 -0.0027712472 -0.0032753153 -0.0067342464 -0.006135159 -0.007093151 -0.004664532 0.0066311685 0.0073723914 -0.0013119001 1.1934899e-05 0.0061350437 0.0009863721 -0.0040197438 0.0020531658 0.0014107702 -0.002911238 -0.0038204296 0.0075341575 0.005975576 -0.0066954233 -0.0043165125 0.0011104774 0.0007149186 -0.006524222 0.0072876327 -0.0042045303 0.003594773 0.0072118044 0.00085179135 0.0032973317 -0.002121482 -0.007564334 0.00046864804 -0.0008467864 -0.007750554 0.0054731388 -0.0057703033 0.0040006684 -0.0034515774 -0.007180528 -0.00708065 0.0048700776 -0.004090108 0.004103802 -0.0012328811 0.0075785676 0.0055963313 0.0077271517 0.00654752 -0.0061449083 -0.0074898936 -0.0043521775 -0.00062659103 0.0039126445 0.0028670486 -0.0015822081 0.003942861 -0.0026558945 -0.0053232657 0.0036801025 -0.007699428
94 0.0006952053 -0.0039159246 0.0059335055 -0.0029031243 0.0022007683 -0.004888081 0.0075118905 -0.004367494 0.002788635 0.0025312547 0.0069777835 -0.0043479865 -0.003416852 -0.0048617683 0.004804562 -0.0035805637 0.0037587825 -0.0006969087 0.0056818184 -0.004715885 -7.6708384e-05 -6.846711e-05 -0.006673945 0.0068276403 -0.0016442109 0.0050275354 7.1463175e-05 0.0039275037 0.0017294111 0.00691392 -0.006507504 0.00658858 0.0067571895 0.00082871784 0.003455651 0.0029957145 0.0031685904 -0.002301895 0.0022223135 0.000598846 0.0037705507 0.0065727336 -0.006051652 0.00011906028 -0.006822046 -0.0012302045 -0.0070564514 0.002470973 -0.0012323717 -0.00054579694 0.0050211605 -0.006326951 0.0008981051 -0.001891559 -0.0029144827 -0.005689798 -0.0062309373 0.006478495 -0.0058108177 0.0037637856 -0.0029584356 -0.0009482736 0.002194725 -0.0067066113 -0.004418047 -0.0060464386 -0.0073519815 -0.0037122564 -0.0024689864 0.00037946366 -0.0005448563 -0.006153497 -0.0029588426 -0.0021424452 -0.004988038 -0.004983017 -0.002037446 -0.0061864145 -0.00645292 -0.0059263194 0.0027766228 -0.00592848 -0.002899032 0.0051786564 0.00578091 -0.0049983775 0.0053111725 -0.006071154 0.000102975406 0.005169185 -0.0022185678 0.0072032968 -0.0002535591 0.003659809 0.0054315636 -0.0066724634 -0.0047425237 -0.0056995694 -0.0009148065 -0.005538691 8.537248e-05 -0.006284089 0.00039879978 -0.00030397996 0.005056422 -0.0069387853 -0.002479259 0.00460809 0.00721437 -0.0013946705 0.0006072251 -0.0047613354 0.0006415015 -0.0063589653 -0.0059676645 0.0010804124 -6.3625164e-05 0.0043450342 -0.0076067485 0.0012930855 0.0012305332 -0.004099683 5.5569224e-05 0.0047328565 -0.005156152 0.00022591744 0.0030430937 0.0013323883
90 0.0022347625 0.006370806 0.0052267434 0.0027391035 0.0062310966 -0.0059897015 0.0058854567 0.003038684 -0.0046102433 -0.0032750946 0.004995222 0.004531393 -0.0077034375 0.0009749718 -0.00031297375 0.00063569285 0.005529564 -0.005603846 0.007532131 -0.0073887175 0.004859061 0.0074190106 -0.002988766 -0.007338157 0.0048313197 -0.007003017 -0.0064806696 -0.0006481474 -0.0051909722 0.0068341717 0.006134037 0.00064749736 0.0062515894 0.007691171 0.0040545324 0.0033740764 0.0042013004 0.005010457 0.0036942465 0.0049892114 -0.0058201235 0.006921972 0.006470708 0.0073269755 -0.007045171 -0.002692978 -0.00026738457 0.0032554036 -0.0064195106 0.00013132207 0.0047073606 0.0074806614 -0.0022203755 0.0014265506 0.0049409447 -0.0015620291 0.001528522 -0.0072850697 0.00055504125 0.003577305 0.0035142219 -0.0076145763 -0.0040229317 0.0023208978 0.0012434758 -0.003672069 0.0045463108 0.0027435673 -0.00611315 0.0076846853 -0.0060287463 -0.002367247 0.0076116016 0.00089342706 -0.004332115 0.00088017434 -0.0031964323 -0.005267591 -0.0060611777 0.0037173117 -0.007056933 0.0031729117 -0.0043170815 0.0042405343 -0.0034105526 -0.0043622795 0.004961905 -0.0067541488 0.0010413919 -0.0016605267 -0.0052233934 -0.0059806844 0.005278983 -0.003488076 0.0035827346 -0.0075473497 0.001490077 -0.0015273606 -0.0046078917 -0.0021769153 -0.006763323 -0.002715148 -0.0020141453 -0.0017881282 -0.003989555 -0.007183646 0.0041746926 -0.001016004 0.0048231147 0.0024017906 0.0066790907 -0.0027467124 -0.0069490885 0.0010415772 -0.0070214598 0.004720917 0.0065957606 0.00039222743 0.0060175713 0.006669718 0.0032818057 0.004230447 0.0071317116 0.0008961968 -0.006446059 -0.006504529 -0.0013928022 -0.00048896763
22 0.0068916585 -0.0072740437 -0.0020257067 0.0071196286 -0.0011267513 -0.007091325 0.0015740292 -0.0045618396 -0.00428319 -0.004954867 9.8496675e-05 0.00564461 0.003218214 0.0063698636 0.0069123143 0.0035320316 -0.004727494 0.0055224365 -0.0074432204 -0.0037431847 0.0062502753 0.0061778044 -0.004235833 -0.0062321667 0.006308889 -0.0029782224 -0.0031760866 0.0056128222 0.004237364 0.0029826108 -0.0009606611 0.0067726616 0.0066032475 0.005448268 0.0070831245 -0.0045140954 0.0007802313 -0.001274026 0.004953075 0.007639218 0.0040371325 0.0031716907 0.005103345 0.0045922743 7.995777e-05 -0.006518202 -0.0016955063 0.0070898654 -0.0039687175 0.00078820623 0.0038083605 -0.005412508 0.00639912 0.0011511296 0.0018966794 0.006490429 0.0011379886 0.00069504045 -0.007362608 0.00770502 -0.007707851 0.006680183 0.00394738 -4.4190325e-05 -0.006151029 0.0072981706 -0.0010765921 0.0041770535 -0.0023670103 -0.0038319249 0.00012811925 -0.006273591 -0.005188429 -0.0073869927 0.004179622 0.0003351625 -0.00071545783 0.003983764 -0.0015393281 -0.005769346 0.0022410005 -0.0046575125 0.00038210675 0.0074035265 -0.00074578077 0.004796952 0.0034868391 -0.0027614757 -0.004083094 0.00691666 0.0016443944 -0.00035344902 0.00069953036 -0.0038447836 0.0027633728 -0.002421745 0.0032920958 -0.0035598287 -0.00061947014 0.003048487 -0.0055853687 -0.0019709058 -0.0068139173 0.0012158062 0.0015708581 0.0018807193 0.00084428955 7.047411e-05 0.0017288662 -0.00073922146 0.0046262583 -0.0023081796 -0.0039725667 -0.00416225 -0.0075538186 -0.006338219 0.0016546715 0.003112889 -0.0045123072 -0.00756385 -0.004808902 0.0036471812 -0.0070866607 0.003969216 0.00496237 0.004781943 -0.005961502 0.0022131726
88 -0.004260092 0.007068052 -0.0033692904 -0.0018368512 0.0040790504 -0.0006432757 0.003978719 -0.003296867 0.0038914876 -0.007652357 0.004746044 -0.0009713955 -0.0043805 -1.5791506e-05 -0.00095593557 -0.00056406576 -0.0013763737 -0.0072446847 -0.0060962467 -0.0053126086 -0.006740761 -0.0035445169 0.0071781995 -0.0014157249 -0.0059350245 -0.004604589 0.002816598 -0.0021224646 -0.0012177862 -0.0033233361 0.004657737 -0.006118832 -0.005857651 0.005879525 -0.005437933 0.0016849665 0.00028902944 0.0075528724 0.0033130245 0.0016149273 0.002152754 0.0017996002 0.0017186347 -0.0021266742 0.0031962395 0.004765792 0.006982425 -0.00058471784 -0.0009548599 0.005052277 -0.0066132173 -0.0005126903 -0.005213473 0.0037369588 -0.0069900323 0.0025389092 0.007034952 -0.0016152291 -0.006898433 -0.0063895583 0.0025359895 -0.004176705 0.0050372323 -0.0009288052 0.0061356816 -0.0003930237 -0.0048567113 -0.0044542756 0.0006007515 -0.0037325146 0.005126126 -0.0027489588 -0.004395932 0.0007448569 -0.0038043335 -0.006415453 -0.0040998915 -0.0014544642 0.000340553 0.0028425353 0.0053663226 0.0052562235 0.0045791874 0.0002502259 -0.004548042 0.0070309276 -0.0005099932 0.003679716 -0.001112828 0.00452982 0.004142995 -0.0057009943 -0.002142679 8.5103326e-05 0.0015894976 -0.007257565 0.0037805848 0.0026344676 -0.00013588276 -0.002732291 -0.0059411433 0.005934418 -0.0067212386 -0.0057689017 0.0034778574 -0.0066495547 -0.0025657387 -0.0016332474 -0.0014865464 -0.0053400705 0.0033566607 0.0007803608 0.0028567119 -0.001037756 0.005417986 -0.0074481145 0.004567357 -0.0040089386 0.0013306895 -0.005422703 -0.0019384567 -0.005022536 -0.0026179617 0.007601195 0.0021013413 0.0012541711 -0.0047529927 0.0043538855
69 -0.006350482 -0.0017917762 -0.0050534457 -0.004986138 0.0017945506 -0.002567743 0.0018985001 0.0030597178 -0.0048984494 -0.0013632057 -0.0021581976 -0.0076533686 -0.0076864026 0.0008671945 0.0034225564 0.00018163305 -0.0038062464 0.0028342064 0.0013192389 -0.0073762573 0.005615969 0.0060727755 -0.0060402825 -0.0005972544 0.0047119623 -0.0021722373 -0.00026337523 -0.0032967487 0.0047770543 0.0054652793 0.0016298806 -0.0036715288 -0.0014297748 -0.0031240527 -0.00763042 0.0061023375 -0.00047829282 -0.0004719235 0.005534853 -0.00705955 0.0049424795 -0.005910501 -0.0041860985 0.003965307 -0.0027301721 -0.0027242117 -0.004928195 -0.0030546049 -0.0020785825 -0.003199203 0.007385931 0.0073862635 -0.00029810704 -0.00022218004 -0.004407672 0.0061856145 -0.0038629249 0.0046018977 0.0071194964 0.004495835 -0.0007407414 0.004328795 0.0054257875 -0.0030318648 0.0005224198 0.005069362 0.004585943 -0.00013857521 0.0018594526 -0.0050889617 -0.0073127775 -0.0038653258 -0.0042092884 0.00045861397 -0.003100182 -0.00028874073 0.0059644943 0.0076060053 0.006153032 0.0018665763 -0.0021197898 0.0018997807 -0.0021014977 -0.006992301 0.0053851884 -0.0067566717 0.0029591247 -0.0030908082 -0.004330514 -0.0008152975 -0.0051273284 0.0067063356 -0.0053733857 -0.0070004268 0.0045048892 0.003487506 0.00369645 0.001896048 -0.0029105525 -0.003997891 0.0013844958 0.0065207537 -0.004415841 -0.0018612836 0.0014440315 0.005251713 -0.004997967 -0.0035373075 -0.0020613829 0.0010428363 0.0041963113 0.004335447 -0.0068042995 0.005681726 -0.0019548628 -0.0022208123 -0.0069207465 -0.004511783 0.007381724 0.002412133 -0.0062834118 0.0021932824 -0.0055255927 -0.007076473 0.003020144 0.0015913816 0.0009801947 0.006911192
62 0.004891173 -0.00396143 0.0021311166 0.0019883616 0.0018733013 0.0065102 -0.0054011066 -0.0017964309 0.0007882416 0.0049826223 -0.00050682295 0.0061938427 -0.0036343094 -0.007055781 -0.0055110147 -0.003232574 0.0074869525 -0.004005676 -0.003787782 0.006385533 -0.0058251442 0.0015701251 0.004465659 -0.0058830753 -0.00020545069 -0.0018501477 0.004348143 -0.0035628537 -0.005159991 0.007727921 -0.0036118347 0.0059408303 -0.0066052834 0.0054823 -0.0026482558 -0.0061053596 -0.00091483165 -0.0018518772 -0.0014207466 -0.00091980863 -0.005091493 -0.0027694423 -0.0024979198 0.0060330424 0.0045835245 -0.0006986344 -0.00376294 0.004134613 -0.006904402 0.0012886636 0.003133595 -0.0015216367 -0.003534629 -0.006427886 -0.0064745424 0.005568267 0.0028414857 -0.00030188914 0.0075865192 -0.0066751065 0.0004603695 -0.00034710672 -0.006305052 -0.007109248 0.0056162206 -0.002838198 -0.0061726924 0.00621303 -0.004886154 -0.0024389504 0.001387204 -0.0026182914 -0.0062224353 -0.0030634906 -0.0070422823 0.0010919981 -0.0036161728 -1.5689991e-05 0.0021282416 -0.0018539606 0.0068891933 0.0055019874 -0.00043038186 -0.00049610157 0.0006643338 0.005273695 0.0069909263 -0.0015062485 -0.0012441836 -0.0023218477 0.00039300416 -0.0050585754 -0.0014589652 -0.0067563253 0.0005140938 0.0011204723 0.0029123817 -0.00224528 0.004633258 -0.005529564 0.007669299 0.00041648373 0.0017933715 0.0034033107 0.00032762624 0.0020278841 0.0012614429 -0.0075132465 -0.0024589412 -0.0020270124 -0.0072365785 0.0026838444 0.0037498418 -0.0016261851 0.005795018 -0.0009459518 -0.0002177069 0.004517528 -0.006619732 -0.005399105 0.005743134 -0.0051424466 0.006615582 0.0041796872 -0.0062861824 0.0065633664 0.0049361214 -0.0052459417
18 -0.0066115055 -0.0069020763 0.0029931376 0.004950625 -0.001667751 0.0010479186 -0.006557514 -0.0039995117 0.0036751851 -0.0070811305 -0.007216569 0.00078759156 -0.0067069447 -0.005420236 0.0037133517 0.0062543405 -0.005749359 0.006332894 0.0073276293 0.0036811708 -0.003443175 0.0075548813 -0.0060368953 -0.003039658 0.0015109302 -0.0059621213 -0.007713847 0.002237576 0.006391477 -0.003994841 -0.0033523422 0.0030541858 0.0005411096 -0.0066679446 0.0051201135 -0.0024622139 0.0027992697 0.0024630176 0.0069358572 0.006827049 0.005712062 -0.006474669 0.00094434526 -0.00075325463 0.00068525504 0.006971405 0.003726284 -0.0069722207 0.0076654833 -0.0006962456 0.00031132624 0.0038720025 -0.0048554298 -0.00031628367 0.0010748161 0.0055087926 0.0033444883 -0.0015148837 -0.0066151675 -0.003030437 0.0068586376 -0.007414952 0.0076928623 -0.0001201313 -0.0008831313 0.0075033093 0.00747859 0.0064620255 0.0070305383 -0.007800497 0.0058631236 -0.0073143877 -0.0060254643 -0.00689697 0.0016856128 0.0056110835 -0.0049258173 -0.0021205498 -0.0018418729 -0.0034982553 -0.0010250108 0.0037937546 0.002900511 -0.002531413 -0.002900431 -0.0018282495 -0.0025222674 0.003087921 0.0076112533 0.0061359834 -0.0059059868 -0.005038062 -0.007134323 -0.004632893 0.0028400756 -0.0047025494 0.0013244767 0.006942612 0.0026062224 0.0009303782 0.0069709215 0.005010416 -0.001124613 -0.00485244 -0.0008254219 0.0056842165 0.0058441656 -0.0031507723 0.0077660643 0.0018764706 0.004006328 -0.0044288794 0.0034211185 0.000200551 -0.0074918168 0.003959382 -0.007038583 -0.0050541908 0.002177217 0.0072521884 -0.0016561849 0.0054523004 0.0039594267 0.0031783078 -0.0048387963 0.0039646802 -0.006490537 -0.0033725956
76 0.0042558163 -0.0063646883 0.0044762865 -0.0027285581 2.081506e-05 -0.0057413112 -0.0048774667 -0.0025867065 0.0067212293 0.004177138 -0.0075761173 -0.0051352335 0.0026794113 -0.006654026 0.005199006 0.00480836 -0.007268916 0.006758265 0.0061261076 -0.0014008628 0.0013920628 -0.0044495584 0.00485788 0.0060171923 0.0031611314 -0.0069230506 0.0038637873 -0.002391087 -0.0017243112 0.0047698123 0.0014416398 0.0036149388 -0.004904736 0.004092586 -0.0027649347 -0.00029969309 0.0048608016 0.003185154 0.005837355 -0.0030605095 0.0027720472 0.005710019 -0.0025675232 0.0044990154 -0.0073536634 0.006908281 0.0029323148 0.0041493243 0.0036315694 0.003567933 -0.002585305 -0.0048517957 -0.0017832294 0.0010823114 -0.0022983085 -0.0066285348 -0.004913236 0.0065168357 0.0072982376 0.0046569267 -0.0032057036 0.00054278784 -0.006700162 0.0052008005 0.00036548357 0.00576296 -0.0041977167 -0.0022243569 0.0022335704 0.0027029756 -0.005113364 -0.005754891 0.0015873797 -0.007039547 0.0045222947 0.00427299 -0.0029827692 -0.004407118 -0.006505158 -0.0014817426 0.005452417 -0.00016368087 -0.0062086014 0.0069457777 -0.0066809645 0.0043436633 0.005053008 0.0007623276 -0.0067910636 0.00482447 -0.006131149 -0.0039201314 0.0075193653 -0.006470423 -0.005959807 -0.003828561 0.0027056187 0.0014956407 -0.0043425914 -0.0025596842 0.0067059007 0.007630937 0.0077458713 0.00081679225 0.0031546876 0.0010670731 0.0013068225 0.003779986 0.0017219055 0.00023480039 -0.002460027 -0.0050974544 0.006241791 -0.0046655955 0.0021744939 -0.000722982 -0.0028506815 -0.0038604634 0.0025157966 -0.004576266 -0.005855308 -0.0020657051 0.0036635771 0.0047219517 -0.0011380259 0.005702043 -0.0059322426 -0.0036974791
39 -0.0061413087 -0.004724304 0.005703765 -0.007250551 -0.006759341 -0.0076676086 0.0071896967 -0.0020820955 0.00077917706 -0.004787119 -0.001979908 5.66924e-05 -0.001953314 -0.005759066 -0.0048382357 0.0019806083 -0.0074174507 0.00089552253 -0.0015534032 0.0064673983 -0.00031078327 0.004854584 -0.005536589 -0.005912273 0.0043330155 0.00073418766 -0.0039768154 -0.0020779604 0.006852463 -0.007169869 -0.0028722752 0.00078318827 -0.00016881619 0.007432511 -0.001514324 -0.0055432264 -0.0059990147 -0.007734794 -0.0061122254 -0.004713172 -0.0046460917 -0.0010978002 -0.00042278972 -0.0036838213 0.0016725911 0.003020213 0.0070548346 -0.003636526 0.0040066587 0.0056671426 -0.0029350538 -0.005808345 -0.0026083598 -0.005384356 0.00507454 0.00733402 0.006463187 -0.0066673215 0.003943571 0.003984372 0.0043974705 -0.0065036295 1.3686717e-05 -0.005332186 -0.00696591 0.0019485848 0.0077579757 0.0050755683 -0.0055214176 0.0018255608 -0.0030496372 0.007754891 -0.0068763234 0.0075978916 -0.005091952 -0.0054737106 0.0012707217 -0.00052556116 -0.0066516567 -0.00047850795 -0.00027993694 -0.00489622 0.0044897264 0.0024800617 0.0065628383 0.005780046 -0.0051885815 0.0037392918 0.004448223 0.00451425 0.0040672775 -0.0037360108 0.003371887 0.0010296507 5.4575503e-05 -0.0050438754 0.0011899881 0.0041131508 -0.0071961507 0.0067243073 0.0023381272 -3.113132e-05 -0.00262798 0.00028127152 0.0047533344 0.0037286626 -0.0046500685 0.0061513158 -0.0004987288 -0.0063744737 0.0069287475 0.003961765 0.0028337138 0.0061793225 -0.0058814734 -0.004555355 -0.0015669242 -0.0032018377 -0.0012515709 -0.00045948848 -0.006550817 0.0014850739 0.0019988855 -0.0006573405 0.0038041063 0.0011446113 0.00467775 -0.0017470866
83 0.0066596614 -0.0012225816 0.002404551 -0.0029585874 0.004788732 0.002404091 0.00042544398 0.006841247 -0.006123013 0.0075897053 0.00061039533 -0.0018393863 -0.0032245908 -0.0071127545 -0.0017349273 0.002100844 0.0051393127 0.00708618 -0.006834843 0.0070756916 -0.0069062673 0.002916229 0.00627149 -0.001959823 -0.006137128 -0.0065121865 0.00090094004 -0.00059518777 -0.007430774 0.002422098 0.0017620791 0.0034785075 0.003460141 0.002526314 -0.0076691685 0.0044799102 0.0033300435 -0.0060519157 -0.0016574059 0.00027672015 -0.0005010562 -0.0007552672 -0.0043289727 1.7903745e-05 0.0034535052 -0.0005318839 0.0006252369 0.0016356017 -0.0031052604 -0.0061467625 0.0071625737 -0.007646134 -0.0019352883 -0.0009892909 -0.0059928764 0.0013839239 0.0062058764 -0.0011846824 0.0063321423 0.00023013353 -0.0045095636 -0.0015486199 -0.00056713447 0.004886791 0.005563086 0.0048462553 -0.0046826033 -0.005452182 0.004759785 0.0019342778 0.0041739233 0.00036300998 0.006145727 -0.0069371667 0.007712581 -0.0064363442 -0.0013328232 0.0049078045 -0.0072119506 0.0033737123 -0.005450979 -0.005346562 0.0017998936 0.0013562674 -0.0021782853 0.0061497763 -0.0054820525 0.00036255736 0.0068216175 0.0015820954 -0.005353458 0.002765337 -0.003929734 0.00046063028 0.0022339309 0.005926653 0.0057672663 -0.0038234526 0.0074376212 -0.0042863423 0.005958016 -0.0062364284 -0.006110359 -0.000868652 -0.0063616633 -0.0027090842 -0.00040179212 -2.9597431e-06 -0.0077824593 -0.00508356 -0.0057950392 -0.0003028987 0.004053672 -6.0898252e-05 0.007781407 -0.003036472 0.006296212 0.004754806 0.006454693 8.317176e-05 -0.0003358554 0.0014782613 -0.007754381 0.007066259 -0.0018656692 0.0058899196 0.0015951088 0.0022652047
73 -0.0009709392 -0.007729632 0.0010929769 0.002254567 -0.007660321 -0.0030480772 -0.0018346189 -0.003952902 0.0030931756 0.0016446682 0.0033874875 -0.005060615 -0.0046897475 0.0036865948 0.0052961353 0.0043179784 0.0037474846 -0.005658862 0.0063773654 -0.005438026 -0.0059907585 0.006645079 -0.001930424 -0.007335228 -0.0024092551 0.004658104 -0.0022604149 0.0038580485 7.9032965e-05 0.0031763725 0.0009257449 -0.0072843386 -0.0028515374 0.0069035683 0.0012032595 -0.004602057 0.0054799365 0.005825121 0.0056601427 1.15558505e-05 -0.0071454197 -0.0027242824 0.004012448 -0.0050807167 0.0076122424 -0.0076331766 -0.0063507045 -0.0041517094 0.0047015836 -0.0059959404 0.006748016 -0.0077084955 0.0027298424 0.0025750212 4.250463e-05 0.0074557774 0.003992643 0.00022523757 0.003764497 0.005006533 0.0023490246 0.007349806 -0.00104596 -0.0065508345 -0.0034969077 -0.0011651265 -0.00567823 -0.0012220563 0.0061989324 -0.0039254883 0.0039847707 0.0033994429 -0.00054605864 0.0008398872 0.0044725146 -0.0051886803 0.0030445019 0.006965354 -0.0027451478 -0.0059486944 -0.0071888287 -0.0070362026 0.0030239457 0.0039974125 0.005499392 -0.0011348473 0.00075661764 0.002384358 -0.007717413 -0.00735425 0.0035855751 -0.00656222 -0.0024825577 -0.0033673178 0.004620701 -0.0026919441 0.0077986056 0.00043457 -0.0040214667 -0.002841617 0.0009826813 -0.0041940706 0.0057767713 0.00704966 0.0033536786 -0.0057390975 -0.004645399 3.949646e-05 -0.000795831 -0.0043176888 0.0061998405 0.0048727915 -0.0032686172 0.001861209 0.0040088054 0.0018827459 0.0066944016 -0.0010087397 -0.0050992146 -0.00065171253 -0.00650212 0.0076903924 -0.006731852 -0.0011745673 -0.0022263015 0.0024604248 0.0038834866 -0.0064348225
53 -0.0034439415 0.0003841156 0.0031245518 0.0039972113 -0.0010819221 -0.00048672967 -0.0061140163 0.0035518259 -0.0059761256 0.0025665723 -0.0026780814 -0.006095472 0.0053779846 -0.0003573168 -0.0074572405 -0.0073249787 0.00046181493 -0.006391518 0.0029205661 0.0027066711 0.0026196074 -0.0043770596 0.006237113 -0.007021252 0.00582569 -0.00049375463 -0.0011509359 0.0030970694 -0.001944148 -0.0034345249 -0.0018883254 -0.004834367 -0.0002750093 -0.0042062877 0.0035971422 -0.0074517354 -0.003399714 -0.007160321 -0.0075133825 -0.0005870033 -0.006315412 -0.004446907 0.0021686703 -0.0011253143 0.0024255374 0.006457147 -0.007523656 0.0047537237 -0.0062079364 0.0051051145 0.005834707 0.006703493 -0.0062121013 0.0026090145 -0.00612674 -0.00097336713 -0.004078334 -0.0066666286 0.0038547358 0.0034641614 -0.003170196 -0.006075328 0.002778463 -0.003072084 -0.006928901 -0.0034279907 -0.0016969005 0.006841462 -0.005044113 0.005728429 0.004783527 -0.0038344814 -0.0013741031 -0.0019569527 0.002439566 -0.00035393052 -0.0021590693 -0.007066909 0.0050268993 -0.0075120237 -0.00675816 0.0010796702 0.0023229942 3.7048012e-06 0.0002891412 0.002022869 0.0014082585 0.0059127444 -0.0026924945 -0.0056510856 -0.006159516 0.0061871987 0.0015205257 -0.0045373878 0.0049931193 0.0066043586 0.0062082857 -0.0053343596 -0.0040167496 -0.0015705768 -0.0051700557 0.0036943937 0.004425342 -0.004684313 0.005624419 -0.0059816837 0.004846018 -0.003613538 0.0015323879 -0.0025557317 0.002648173 0.0060300557 -0.0010894556 -0.0038946774 -0.0066887895 0.0028417595 0.0033054827 0.0052322065 -0.0033513773 -0.0076038977 0.00532931 -0.003534956 0.0034529464 0.006292604 -0.0030803233 0.0012766989 -0.002804027 -0.0051669898
24 -0.0044408897 -0.00010671094 -0.005869746 -0.001559223 -0.0019436851 0.0052409684 0.0010654256 0.0045720283 0.002983844 -0.00274722 -0.003977713 0.007547885 0.005523747 -0.0070658056 0.004098268 0.0064008078 0.0071814843 -0.0062927026 -0.0015727924 0.0008480456 0.0022721682 -0.0012671547 -0.0036757234 0.0050534513 0.0054160766 -0.00030459184 -0.004564954 -0.0034154393 -0.004022558 0.0033252332 0.00040135905 -0.001843486 -0.0070975833 -0.0011691079 0.005024489 0.004941404 0.0032996424 -0.0022467952 0.0070715705 0.0004695123 0.0008865027 0.0048241103 -0.0051511647 0.0051048426 0.0076518096 0.0028693452 0.0026815934 0.0032785516 -0.0015206868 -0.006325216 0.0011563236 0.0007067239 -0.0053103883 0.0015307749 0.0042530484 -0.0056077437 0.0019624839 0.006067791 -0.0067353267 0.0027449736 -0.0066911 -0.006200826 0.0055398634 -0.0059104664 -0.0010691788 -0.006194284 -0.0061448384 -0.0055496916 0.00031715725 0.0014022524 -0.006176968 -0.0062883412 -0.002484478 -0.0014253156 -0.0048206747 -0.0033021672 0.0028180154 0.0023993477 0.0051520905 0.0033177212 -0.0006926935 0.0021618763 0.007070304 0.0014907625 0.0014216006 0.00087812543 -0.0072553875 0.0041811904 0.003940585 1.994893e-05 0.007197068 -0.0044672564 0.0025384035 -0.0061029578 -0.006984816 0.0015632529 0.0037069703 0.0047659343 -0.0067871753 0.003400837 0.0018738322 0.00324684 -0.00052697025 0.0043310225 0.005696592 -0.006552291 -0.0077595823 0.0054803966 -0.00074372813 -0.0073239123 -0.0031920979 0.0009306595 0.006583292 -0.0013206713 -0.0007981481 -0.0057536457 -0.005978603 0.0011425503 -0.00036988873 -0.0060158074 0.0006874418 -0.0070222467 -0.0019351821 0.003294738 0.0008726679 0.0061177267 0.0051448243 -0.00092896353
54 0.0038722316 0.0047884705 0.0068216976 0.007092598 0.0038501322 0.003602705 0.0056133037 -0.0012237448 -0.0044138264 0.0069281785 0.00094574597 -0.003949005 -0.0006785067 -0.004085019 0.0071229246 0.0026544733 0.0033449195 0.0050818184 0.0063860714 -0.003735085 -0.004956659 -0.002911278 -0.0029005408 -0.0073783537 -0.00047747977 -0.0063301036 0.007633292 -0.0026604775 -0.0049340446 -0.006331918 -0.002782804 -0.0074643996 0.00061209965 0.0042276615 -0.0022460036 0.0059899827 -0.0014644144 -0.0056791753 -0.002441098 -0.002453521 -0.00554376 -0.007564404 -0.0031771576 -0.0012410572 0.003909504 -0.0059461314 -0.0038861893 0.0010638516 -0.0013090065 0.0027716486 -0.0014644358 0.0033774786 0.006243529 -0.006182707 0.0029425137 0.004674956 -0.00045069586 0.005286442 -0.0042315666 -0.0035751155 -0.0061311256 0.00739918 -0.007349089 -0.00253883 -0.0003388198 -0.0037882393 0.0074000834 -0.0053386427 -0.0062648375 0.0072224494 -0.006483875 0.0075704195 -0.0032012742 0.004427527 -0.00032344367 -0.003122514 -0.0058632996 -0.0049012993 0.0053466186 0.0049389936 0.00012847036 0.004993541 0.0030117016 0.0029954193 0.00209203 -0.00759174 0.007235067 -0.0064098397 -0.002348869 0.0011141337 0.0040999064 -0.007195386 0.0013230937 0.0049675778 -0.0068419585 0.0074650627 -0.004076397 0.0074621662 -0.005098886 0.0051507205 0.0073145255 -0.0072089443 0.00022697542 -0.006039975 0.006350505 0.0074828044 -0.004728446 0.00065849535 -0.0017504478 -0.0060596336 0.00064023864 -0.007737521 0.002042165 -0.0060114535 0.0044452874 0.005915584 -0.0019955337 -0.00313533 -0.007507515 0.0038426416 0.0022742953 0.0068338485 0.0025783582 -0.0022671921 0.0027797297 0.006739944 0.0072131874 0.005972266
87 -0.0066828895 -0.005912223 0.0056727147 -0.005815127 0.0025396952 0.0062692007 -0.0025054803 0.0052806586 -0.006370862 0.005069101 0.004368676 0.0026071155 -0.0063476283 0.0071568433 0.0064284196 -0.0012220507 0.003208924 0.0049800137 -0.00135916 0.0042871106 -0.003151739 -0.0009961063 -0.00094356947 -0.0032512546 -0.0005532922 -0.0060172332 0.0028463406 0.0070765642 0.0037357453 0.004987295 -0.0037000468 0.003798468 -0.0052209143 -0.0038831932 0.007711646 0.005001709 -0.0038969042 -0.004746354 0.0056465548 0.0021139449 0.0051462725 -0.005279177 -0.00075873174 -0.0007389551 -0.00017166603 0.0017354535 -0.005274214 0.0034242775 -0.0021457328 0.006522375 -0.0008059181 0.0071536545 -0.0006557228 0.004071027 -0.0059335576 -0.007109885 -0.0002674507 -0.0017648526 0.0077882037 0.0035368204 -0.0043504145 0.0057539865 0.00046119187 -0.0074628843 0.004466554 -0.0015704259 -0.0073591247 0.006801352 0.005662797 0.0066815186 0.0002835747 0.006002266 0.004051742 -0.0054198066 0.0072544003 -0.0027809814 -0.0076120347 0.00668702 -0.004146699 0.006560277 -0.006135436 0.0072453227 -0.004621028 0.0031240694 0.0076438207 0.0032829335 -0.0016617524 -0.0038712863 -0.007594293 0.0032861661 0.0058092913 -0.0037001735 0.0046257554 0.0053442586 -0.007044471 0.0016391044 -0.0053434204 -0.0033827238 0.0006694086 -0.0054913806 -0.0032334048 -0.0058692293 -0.005490414 -0.0054204213 0.0077455705 0.0065022763 -0.0001441054 -0.0020506615 0.004881733 0.0010462422 -0.007026475 -0.005515334 0.00080314465 0.006198614 0.0024988055 0.0076875323 0.005118818 0.00023045298 0.006759354 0.007031071 0.006296213 0.0073455255 -0.0073301736 0.0027446114 -0.0061038416 -0.00557918 -0.006583011 0.0025019525
95 -8.213334e-06 -0.0049620355 0.0043326076 0.0061751716 0.0033572167 0.006119401 -0.0033421442 -0.0049914615 0.0031087445 -0.0022855764 -0.005605628 0.0028675804 -0.0025956482 -0.0040611727 0.0020538839 0.0053545777 0.005001073 0.00011643674 0.006757858 0.002299348 0.005131402 -0.00070278905 0.0016476763 0.0048154304 -0.00765129 0.0045536896 0.0010054791 0.0047537163 -0.0011293739 -0.0021067932 -0.0043603117 -0.002223744 -0.0020085769 -0.0040211556 0.00075830426 0.0062425127 0.004014359 -0.005976625 -0.0057962034 -0.0022605788 0.0030524721 -0.0072797406 0.004782606 0.0024348842 -0.0022044396 0.007182883 0.0062977206 0.00055841263 0.0037720017 -0.007267867 -0.006865835 -0.002301965 0.00724712 0.0025268337 0.004384836 -0.0052895704 0.003316136 0.00030800235 -0.00070993043 -0.0025366284 0.003878883 -0.0071094334 0.0039978456 0.0044256235 -0.0019003013 -0.003281637 -0.005775124 -0.0049797865 -0.0039899303 0.002459813 -0.0037467582 -0.0009364933 -0.0069711907 -0.0027421126 -0.00061173923 -0.0062059257 0.0025401087 0.0076202294 0.003429872 0.0014591739 -0.0038029198 -0.00088598765 0.0017531188 0.0013573235 0.0068848925 -0.00072945654 0.0054641897 0.004519809 0.0023755655 0.0057207253 -0.0038624713 -0.0030917926 0.0054494618 0.006728567 0.0024647275 -0.003199501 0.00596896 0.0021269452 -0.00017875433 0.0069245463 0.0033645453 0.0030870652 -7.1581453e-06 -0.006972187 -0.0024375431 0.0019023577 -0.004381095 0.0055639856 0.0058172066 -0.0069909124 -0.0042049047 -0.0046755886 -0.00051356666 -0.0014046337 -0.0015962468 -0.0017258171 0.0027887924 0.007511529 -0.0035865027 -0.0064712586 0.002923104 -0.0050469767 0.005223357 0.0020814044 -0.0061425343 -0.0060589826 -0.007226321 0.0018375637
72 0.0021397537 0.0020470219 0.00013612397 0.0008153003 0.0024007726 -0.001219797 -0.006275717 -0.0004864484 0.0028957613 -0.0020264834 -0.001665445 -0.0017580464 0.005678801 -0.002375329 0.0073777903 -0.0030325167 -0.007790475 -0.005117907 -0.0034162635 0.0009724917 0.0040026736 0.0016635507 0.007065545 0.00070368964 0.0044014687 0.0001258459 -0.0016539907 0.0048579145 0.001577585 0.0064528864 -0.00648244 -0.0068375925 -0.00042261835 -0.0014787726 -0.0018341728 -0.0004650904 -0.0039614635 -0.0062657893 0.006448769 -0.0026102774 -0.0022213086 -0.0012853136 -0.00096153095 -0.00717903 -0.0014056768 -0.0010531461 0.006756479 -0.0062190965 -0.0037107049 -0.0014734808 0.0022542877 -0.0047031883 -0.0043339496 -0.0062227715 0.0043219365 -0.00681023 -0.0025376445 0.00022955425 0.0011320701 -0.0077665057 0.006765552 -0.0016057594 0.00027520861 -0.006869684 -0.0063811988 0.0029457817 0.003134828 0.0023321677 0.0045670103 -0.005414188 -0.00097323675 -0.0021284437 -0.0010988722 0.0034980318 0.0010715434 -0.0058120014 0.002530099 0.004887861 -0.0047677085 0.002523207 -0.0033688322 0.0068959063 0.0032267245 0.0015913947 -0.0007963991 -0.0071157776 0.0067614773 -0.0014199307 0.0057616364 0.0029470585 -0.006452156 -0.00048178528 0.0021450985 -0.0020039286 0.0076034237 -0.0038969927 -0.0055973763 0.002966999 -0.0027888864 -0.005381436 0.0015897742 0.0041178456 -0.0042949915 -0.0034222277 -0.005606672 0.0012104996 -0.0037160097 0.0065902406 0.00056420267 0.001455701 -0.0026072683 0.005764991 -0.0005159192 -0.006416005 -0.005736029 0.00016112626 0.0060439566 0.0024118386 -0.004157993 -0.005275894 -0.0076988153 0.0030648345 -0.0074361293 0.002487816 0.0012989696 -0.00064199045 -0.0077758757 0.004597055
64 -6.988831e-05 -0.0077625075 -0.0058855936 0.006694383 0.0014770236 -0.0063911136 -0.0006395597 0.004222797 -0.0072804987 -0.0053710686 -0.00079977233 -0.00762837 0.00037524384 0.001520142 0.006672249 0.0007687267 0.0010177735 0.0038120858 -0.003352549 0.005649071 0.00012533087 -0.00053038634 -0.007576326 0.0003955923 0.0053039873 0.0013757981 -0.006320808 -0.0026008245 -0.0047169514 0.004703166 -0.0050527956 0.004106952 -0.004107631 -0.0053316476 -0.005926447 0.002977511 -0.0068756044 -0.0044611115 -0.0055162003 -0.003372686 -0.0031520445 0.0011605779 0.0050664684 -0.00093499944 -0.004286851 0.0012171092 0.0044032754 -0.004118778 -0.004171565 0.0040389784 0.004895199 -0.006070407 0.0064162426 -0.007691862 -0.005794663 -0.004593537 0.0014176955 4.3767504e-05 0.0027088588 0.0054795137 0.00374417 -0.002502462 -0.0050269123 -0.00644539 -0.0003758669 0.0076024337 -0.0059955046 0.0028508268 0.003425871 -0.003389447 -0.0054420168 -0.0042525623 -0.003935868 -0.0054682083 0.0046372777 -0.006069434 -0.0022922596 0.003421422 0.00014053378 -0.0060045617 -0.003662345 0.0028063217 0.001986106 -0.0015292494 -0.0005654115 0.0019918457 0.001112055 -0.0020655561 0.004172909 -0.0059837913 0.004974217 -0.007806613 -0.0017608935 0.0052207755 -0.002814914 0.0051049804 0.004243888 -0.005778664 -0.0001896862 -0.0035118964 -0.006297468 -0.0006967494 0.0049914345 0.006825461 -0.0039393688 -0.0020765373 -0.0047170147 0.000907653 0.0020814622 -0.007685775 0.0018841289 -0.006885563 0.0003114678 0.003718798 -0.004106316 0.00020149909 -0.0017050114 -0.006786925 -0.0018827571 0.0034818817 -0.006699863 -0.004638494 -0.00042667706 0.00627923 0.0010985453 0.0076256357 -0.0059924973 0.0070249196
45 -0.0036944458 -0.00496532 -0.0061222166 0.0014418708 -0.002152769 0.0059003616 -0.00040168874 0.0019605262 0.004656558 -0.006756421 -0.0016083494 -0.0037353672 -0.0067732353 0.0026697675 0.0018857913 -0.0018767118 -0.0014958233 -0.0052585695 -0.0025473405 0.0010238942 0.006045582 0.0055211987 -0.002807619 0.0028190184 -0.0020151446 -0.0036874088 -0.0028319545 -0.004802063 0.0027354378 -0.0060859183 -0.0058657564 -0.0035184845 0.005779893 0.0014275396 0.0042648166 0.0064190086 -0.00487087 -0.003614583 0.006000288 0.0038598133 0.003641991 0.0070253583 0.0068844063 -0.0020907223 0.000812036 0.004282633 0.0069465116 0.007693123 -0.006457071 -0.0040042624 0.003899145 0.000746835 0.00012748968 0.0058627333 0.0050025703 -0.0056539867 -0.0020264713 -0.0066279173 0.0055031423 0.0021613538 -0.0017411029 0.0014685802 0.0059874626 0.006352785 0.0048236037 0.002472899 0.0012102844 0.006358929 0.0010283841 0.00034566317 -0.007463391 0.0019719498 -0.0066081313 0.005051515 -0.004522656 -0.0013669906 0.0007622745 -0.0014695693 -0.0071275327 0.0031122547 -0.0051336493 -0.0068683326 0.0030559944 -0.000593544 0.005086392 -0.0054797335 0.0006093774 -0.00053622667 0.0044868467 -0.007602078 0.0046330895 -0.007015338 -0.00608101 0.0005685678 -0.0020810124 -0.0030407468 -0.0041431105 0.0032115476 -0.0072849784 0.0009263512 0.0032874094 -0.00021941774 -0.0003885245 0.005599533 -0.007475245 -0.007041338 0.0034696646 0.006809842 -0.006090138 -0.006491772 -0.00050167553 -0.007059303 0.0016567018 0.0072151152 -0.004777902 -0.0052785557 0.006962898 -0.00059359986 -0.0029250355 -0.0021179235 -0.0068369033 -0.0036152722 -0.0032444773 0.00019424874 0.0005394947 0.0059573436 0.0053336164 -0.0011825664
16 -0.007794779 0.002026895 -0.004775366 0.0071155243 0.0029724399 -0.0007858714 0.0051602954 -0.0027289344 -0.0028797667 -0.00025797356 0.006573554 0.0046382686 0.0012279721 0.0029453104 -0.0023302576 0.007233985 -0.0055716345 -0.0025294283 -0.004140717 0.006815416 -0.0024414482 -0.0018645925 0.00558454 -0.0075826608 -0.0022662869 0.0022561746 -0.004893074 0.0068447283 0.0009121215 -0.004085618 0.0038514668 0.006235569 0.0007251976 0.0053261826 -0.0053330194 -0.0028272476 0.0077632703 0.0044344114 0.0012465548 -0.0027294885 0.0034504198 0.001978496 0.0065298593 -1.2349337e-06 0.0067163445 -0.0045773666 -0.005942148 -0.0010957709 0.0023238007 -0.0015493091 0.0046001384 -0.006572093 -0.0070360126 0.0059212465 0.0049497196 -0.0031918902 -0.0031408537 -0.0027773017 -4.048273e-05 0.007089881 0.0007436611 -0.0016008159 -0.0026686573 -0.0016303677 -0.007183873 0.005334001 -0.007056903 -0.0024145162 -0.0055621304 0.0070790853 0.004524878 -0.00037412345 0.0030614901 -0.0019003805 0.007663301 -0.002833399 0.0037964853 -0.0029645711 0.007461708 0.0074197855 0.004868333 -0.00019383617 -0.0013173791 -0.0067628864 0.007292701 -0.0065955566 -0.005122029 0.0043601636 -0.0017833998 0.0062308256 -0.0061462577 0.0071847998 0.0017587272 -0.006684472 0.0030815527 -0.0038715824 0.004987795 0.0051458953 -0.006844932 0.005049438 0.0041100336 0.0050649196 -0.005511827 -0.005123174 -0.0069233133 0.00411178 -0.0031397194 0.0037499247 0.0037462814 0.0063150087 0.001754472 -0.0008465359 0.0011426443 0.0023277812 -0.0068518175 -0.004666445 -0.00074131973 0.0038183685 -0.00012618583 -0.0075509436 -0.0004917737 0.0055832313 0.0049483757 0.0027095117 -0.0035928097 -0.0029068505 -0.0016237088 -0.0046895472
41 -0.006716582 -0.00043908134 0.0014082333 0.0037733512 0.0028045923 0.006683496 -0.005286607 0.0072476305 -0.0026105335 0.00063361786 -0.0033294586 -0.0031615784 -0.0011620484 -0.005866833 0.0070065362 0.0035621393 -0.0017661089 0.0014959723 0.0061048195 -0.0043867845 0.0029803533 0.0005511092 0.0022644158 -0.0016696397 -0.007714184 0.0045956476 -0.001111039 -0.006498143 0.00055693276 -0.0048215613 0.0059980797 -0.0049976604 -0.0012868214 -0.0003087148 -0.0033512386 -0.0026736576 0.0057382593 0.0014466392 -0.0073264968 -0.0002217479 -0.007446561 -0.002469535 0.0038741482 0.0028907051 -0.0044846125 0.0011393661 0.004538973 -0.005857235 -0.002640957 -0.0019261045 -0.006949283 0.0016423976 0.0050845426 0.0019091107 0.0018561156 -0.00063131936 -0.00063197874 -0.0048980657 -0.00038548931 0.0051506665 0.0023208074 0.000426203 0.00611768 0.0021866737 -0.0057985634 0.0057088593 0.0074630724 -0.0070950026 0.0056455936 -0.0059320554 -0.00028041378 0.0036020847 -0.004486941 -0.0062147845 -0.0056933304 -0.007729726 -0.005208874 0.0074635632 0.0022854637 -0.007081328 0.006645212 0.005635863 0.0061412286 0.007507831 -0.0067742616 -0.0017153267 0.0016381107 0.0018882845 0.0037763389 -0.006037675 0.0037618922 0.0077618277 -0.0070029795 0.006167151 0.0025065783 -0.0032490268 -0.0012010057 -0.006650595 -0.0058468115 0.004310523 -0.0024457974 0.007804932 -0.006265388 -0.005506362 0.004799964 0.006157142 0.0028799213 0.005654799 0.0050690006 -0.004513353 0.006799574 -0.004950039 -0.0022488022 -0.0046743387 0.004757303 -0.0034262352 0.0024029454 -0.0012376988 -0.0009346297 -0.004568588 -0.004506015 -0.0027988786 0.00024791062 0.001147612 -0.0025803084 0.0015153969 -0.004429321 0.007801789
63 -0.0006407546 -0.0054288832 -0.0014517596 0.006200267 -0.0008597672 -0.0040264595 -0.0062860036 -0.004585701 -0.002497225 0.006031437 -0.005643542 0.0011250768 -5.958136e-05 0.0030771364 -0.006206615 0.0062113116 -0.0021788497 0.004140312 -0.0074270563 0.003975723 -0.006444514 -0.0025404515 -0.00092756096 -0.0028454736 -0.0005721636 1.8337741e-05 0.0035231896 -0.0017510112 -0.0031316262 -0.0048226416 0.0065033818 0.0036037974 0.0071106916 0.004284013 -0.0036024824 0.0064677466 -0.005436399 0.0023784032 -0.0026215967 0.00020921044 0.0029375702 -0.0022045346 -0.0034533814 -0.0015228838 0.00040654 0.005043016 -0.0045743873 0.0036457246 -0.0028977422 -0.0062078536 -0.0043787844 0.0014499128 0.0068659764 0.006151338 0.007169498 0.0053827837 -0.0023173746 -0.0018914752 0.0068872897 0.0050634043 0.0046971776 0.005374945 0.0012667989 0.0018707756 -0.006411963 0.0058880392 0.007378335 -0.0055325916 0.00090899505 0.0068290215 0.0028554946 0.0054301443 0.005960622 -0.0014987914 0.006924548 0.004677035 -0.0014821393 4.8019923e-05 0.0075841686 0.004547909 -0.00522328 -0.0027269889 -0.0027257018 0.0024384558 0.0008633081 -0.006721111 0.0016961098 0.007514666 0.001840475 0.0033470644 0.0015330082 0.006343374 0.006935671 0.0024688393 -0.001905283 0.0028164275 -0.006027109 0.006262076 -0.0031313533 0.0077512786 -0.00749108 -0.001999882 0.006942505 -0.0031851977 -0.001530244 0.0039334903 0.00725405 -0.00028547551 -0.0053116763 0.00780474 -0.007442062 0.0009731371 0.0043483432 -0.0061185807 -0.0043996368 -0.0071256105 -5.6060962e-05 0.003908093 -0.0064262105 -0.0024073478 0.006554731 -0.0034854757 0.0024806792 0.002745892 -0.00279422 -0.004041902 0.006503856 -0.0019678297
36 0.0070007537 -0.0018895846 0.0023830105 0.0043716235 0.00044034328 0.0034335954 -0.004658905 0.006573098 -0.0012847455 -0.0034494102 0.003992345 0.007751677 -0.004422672 0.0006562155 0.0033882307 -0.0021483954 0.0004999321 0.0068924734 0.0060326643 -0.0050443867 -0.002505267 0.00720168 -0.00024940912 -0.0074699037 -0.0005603144 -0.005318512 0.0007234607 0.00064099394 -0.00343562 -0.0035849372 0.006872096 0.0035812184 0.0020125592 0.001440974 0.0064291926 -0.0039015124 0.004768689 -0.0007703928 -0.0059819417 -0.0075743916 -0.0013095113 0.006341628 0.0017240066 -0.00701442 0.0009559095 -0.0028316462 -0.0031705108 0.00635146 0.0045488924 0.0002814997 0.0019144053 0.000703671 -0.007752099 0.0023363726 0.0056117717 0.0031163432 0.0019310378 -0.0027716262 0.0018283604 -0.0059629846 0.003291604 0.0018720385 -0.00031976122 -0.00046728272 0.0020573502 0.0017368011 0.0011555357 0.007133577 0.0027594045 0.0010882504 -0.0022920128 -0.0047415514 -0.007275764 -0.0025469726 0.0033979565 0.005918286 0.0004965756 -0.0037347088 0.0028120438 -0.0030469373 -0.00059328135 0.0069246413 0.00638102 -0.00032690074 -0.004617678 0.0028853053 0.007665772 0.0067729196 -0.0014906535 0.0055844327 0.0072428063 -0.0074675763 0.0069418354 1.7311424e-05 -0.0040590307 0.0028747814 0.007003581 -0.0056575285 0.0053679813 -0.00502262 -0.0060821585 0.004301006 -0.003571936 0.0037207752 0.0057568345 0.0075410213 0.0044618985 -0.006926175 0.0025336929 -0.0070235683 -0.00028771162 0.00764212 -0.003995302 0.003201481 -0.0044786073 -0.006286908 0.0062619327 0.002535264 0.005763066 0.0022914838 0.0009093443 0.0029082345 -0.006579919 0.0051498143 -0.0035042753 0.003602338 -0.004267825 0.00081374217
25 0.0031398311 -0.0019377973 -0.005883216 -0.004715952 -0.0077657793 0.007565721 -0.0034300769 -0.00082449894 -0.0070485296 -0.003573954 -0.0038185716 0.0023573479 0.0044184374 0.0027340576 0.007700625 0.0014803456 0.007715608 0.0059024394 0.002158842 0.0016749874 -0.0058702193 -0.001845465 0.004406469 -0.0063576335 0.0017665802 -0.0059267636 0.007538016 -9.710621e-05 0.0007147221 -0.0037329374 0.004779931 -0.0055675767 -0.005789345 0.005170514 -0.0026346957 -0.00071458146 0.0041867876 0.0035702605 0.0048500877 0.005490401 0.004387811 -0.006967836 0.0040191617 0.007129157 -0.0031299694 0.0008450011 -0.0025618821 -0.0026585488 0.006791638 -0.00021861494 0.0026620803 -0.004322538 0.004510913 -0.0026210155 -0.003881896 0.0017123977 0.007594947 -0.0047899727 0.00279212 -0.00077562593 -0.00561798 -0.0033832518 -0.0064213453 0.004367143 -0.002150544 -0.0040620025 0.00077970047 0.0035851095 0.0074203974 -0.0076056346 -0.00021543633 -0.00096068904 -0.0021094326 -0.00041408185 0.0063515073 -0.0014661103 0.0072924485 0.00029535405 -0.0008317428 0.0053942194 0.005423935 0.00035852753 -0.0002366351 0.0049554035 -0.0030034073 0.0035885442 -6.642286e-05 -0.0047484683 0.0050342064 -0.003150995 0.0017317543 -0.005348352 0.0020990232 0.004356359 0.003993392 -0.006307712 -0.0046154186 0.0055693174 0.0024340646 0.0008584503 -0.0048339497 -0.0010806732 -0.007206737 0.0009822873 -0.0035692938 0.00059002545 0.003504199 0.0018684315 -0.0055617066 0.00066461414 -0.0052499445 -0.003030872 0.0014840504 0.006228365 -0.0050870245 0.0018252367 0.0063626403 0.007741264 0.0048176544 -0.0057723997 0.003016645 0.006896713 0.003240414 0.0019654185 -0.0012422791 0.0027955761 0.0032448405 0.0068939673
60 -0.002977564 -0.0068365037 0.0050803935 -0.0048589157 -0.00047216844 0.0011042645 -0.0009288527 -0.0031583402 0.00067291595 -0.0075556273 0.0010908898 -0.0032617375 -0.004526804 0.0029784758 0.0011358606 0.0028511677 0.00070134643 -0.0074320734 0.007797663 -0.0027597314 -0.0017132172 0.0055795247 6.295461e-05 0.002386678 0.0017640786 0.0018621944 0.0052830307 0.007402707 -0.0004368713 -0.0026769266 0.0035599815 -0.0065119006 0.0066161975 0.0018754303 0.004687029 0.002189586 -0.0010378845 0.0007514199 -0.003746558 0.0071000243 0.0039313473 0.0028201016 -0.003913543 -0.0067530945 0.006199306 0.0023068693 -0.0033195363 -0.0067736376 -0.0030966308 0.001100502 -0.00717951 4.1654333e-05 0.0021878257 -0.0077673867 -0.0001154067 -0.0047419136 -0.0028184624 -0.001272751 -0.007794383 -0.0028223665 -0.005486833 -0.0057355985 0.0012438074 0.0018255282 0.0072560133 0.0069256043 -0.00501207 -0.0072014956 0.006164522 0.004228782 0.00541462 -0.0022967868 -0.0040852847 -0.0035687983 -0.0065109273 0.004590825 -0.0026997905 0.00674518 -0.004440832 0.007525038 -0.0035172626 0.0067679444 -0.004226099 -0.005866022 0.005985706 -0.007636033 -0.0068605915 0.003868129 -0.007618907 0.0041258885 0.0028536702 -0.0054843584 0.002459106 0.0011359602 0.0067516947 0.0022514546 -0.004002031 -0.00183676 0.005351615 -0.0051706666 0.007261658 -0.0025015632 -0.0036318647 -0.003412244 0.002408553 -0.007692514 0.0025170986 -0.003504497 0.0075530373 -0.0039275642 -0.0062602935 0.002744346 0.007005183 0.0021464452 -0.0017719921 0.0027441373 -0.0069695357 -0.0032346677 -0.0034274282 0.0014777146 -0.0049282014 -0.0059306407 -0.0051021976 0.004133324 0.0021469155 0.006874106 0.0018132003 0.0041419677
65 0.0033885585 0.00361518 -0.0038724998 0.0011214204 0.00023062527 0.0041021565 -0.0051606297 -0.0005603228 0.0031387424 -0.0037878891 -0.006647229 0.0043539973 -0.00066976156 0.0002657175 -0.0047451556 0.0066431575 0.00070511457 0.0013547977 -0.00030826777 0.000531164 0.0045239115 -0.0072061876 0.0018352466 -0.0043571796 0.007381105 0.0034165839 -0.004300575 -0.0009549847 -0.004330607 0.00665165 0.0070992243 0.0017997939 0.0075355833 -0.003688817 0.002197099 -0.0039829146 -0.006854268 -0.0032573268 -0.001080269 -0.0044202823 -0.0035511674 0.0004939437 -9.9051744e-05 -0.0064905193 0.005410906 0.0012251427 -0.0074242894 -0.001109873 -0.005937265 0.005919286 -0.0008179229 0.0061054192 0.0039270427 -0.0031694947 -0.0070849163 -0.0048312396 0.006939064 -0.0012190118 -0.0002393052 9.887759e-05 -0.006440564 0.0032965355 -0.006411424 0.007355079 -0.0063455747 0.006171571 -0.0015471661 -0.0016109413 -0.0017871596 0.0007668808 0.001918802 0.0012678066 -0.00045808498 0.005923555 -0.005022061 -0.0061631445 -0.005617968 0.0049332976 -0.0015471112 -0.0037096553 0.0038668 -0.0061328113 0.0022685006 0.007502471 0.0054145176 -0.0023859637 0.0018822076 0.0038725883 0.007500046 -0.00213404 0.0010378854 -0.0032706624 -0.0024741236 0.00067689084 0.0017177146 -0.004172708 0.0033104895 -0.0039933734 -0.003590173 -0.00701778 0.0059800576 0.0033533368 -0.0017154654 0.0065836823 0.001539072 -0.007735327 -0.006062436 -0.0033071367 -0.0056914557 0.005778251 0.003956224 0.001577517 -0.00050269254 -0.005803557 0.004785533 -0.0040563233 -0.0021011848 -0.0045711314 -0.001700718 -0.0072836317 0.0025637904 -0.00580319 0.005278405 -0.0058267154 -0.0045995656 5.9337355e-05 -0.006215683 0.004191363
